{"learner":{"attributes":{"scikit_learn":"{\"_estimator_type\": \"classifier\"}"},"feature_names":["LST","SSM","Heat_Anomaly","Drought_Anomaly","Crop_Window_Kharif_Critical","Crop_Window_Rabi_Critical","Crop_Window_Non_Critical"],"feature_types":["float","float","float","float","float","float","float"],"gradient_booster":{"model":{"cats":{"enc":[],"feature_segments":[],"sorted_idx":[]},"gbtree_model_param":{"num_parallel_tree":"1","num_trees":"100"},"iteration_indptr":[0,1,2,3,4,5,6,7,8,9,10,11,12,13,14,15,16,17,18,19,20,21,22,23,24,25,26,27,28,29,30,31,32,33,34,35,36,37,38,39,40,41,42,43,44,45,46,47,48,49,50,51,52,53,54,55,56,57,58,59,60,61,62,63,64,65,66,67,68,69,70,71,72,73,74,75,76,77,78,79,80,81,82,83,84,85,86,87,88,89,90,91,92,93,94,95,96,97,98,99,100],"tree_info":[0,0,0,0,0,0,0,0,0,0,0,0,0,0,0,0,0,0,0,0,0,0,0,0,0,0,0,0,0,0,0,0,0,0,0,0,0,0,0,0,0,0,0,0,0,0,0,0,0,0,0,0,0,0,0,0,0,0,0,0,0,0,0,0,0,0,0,0,0,0,0,0,0,0,0,0,0,0,0,0,0,0,0,0,0,0,0,0,0,0,0,0,0,0,0,0,0,0,0,0],"trees":[{"base_weights":[-9.028411E-1,-9.991195E-1,2.9908773E-1,-1.0146945E0,-9.5638263E-1,-9.4015366E-1,7.195931E-1,-1.0049231E-1,-1.09392606E-1,2.444098E-2,-9.588846E-1,-7.808548E-1,-1.0582931E-1,-9.031745E-2,-9.8263934E-2,-8.394644E-2,1.5853189E-2],"categories":[],"categories_nodes":[],"categories_segments":[],"categories_sizes":[],"default_left":[0,0,0,0,0,0,0,0,0,0,0,0,0,0,0,0,0],"id":0,"left_children":[1,3,5,7,9,11,-1,-1,-1,-1,13,15,-1,-1,-1,-1,-1],"loss_changes":[3.2085962E2,7.3706055E-1,1.76922E3,3.433838E-1,2.3449097E0,2.47995E0,0E0,0E0,0E0,0E0,4.046631E-2,4.4619827E0,0E0,0E0,0E0,0E0,0E0],"parents":[2147483647,0,0,1,1,2,2,3,3,4,4,5,5,10,10,11,11],"right_children":[2,4,6,8,10,12,-1,-1,-1,-1,14,16,-1,-1,-1,-1,-1],"split_conditions":[1E0,2.609558E-1,1E0,2.3725754E-1,1.5227666E1,4.3235073E1,7.195931E-1,-1.0049231E-1,-1.09392606E-1,2.444098E-2,2.9963074E1,1.1011801E-1,-1.0582931E-1,-9.031745E-2,-9.8263934E-2,-8.394644E-2,1.5853189E-2],"split_indices":[2,1,4,1,0,0,0,0,0,0,0,1,0,0,0,0,0],"split_type":[0,0,0,0,0,0,0,0,0,0,0,0,0,0,0,0,0],"sum_hessian":[2.7691475E3,2.5639365E3,2.0521094E2,1.8624465E3,7.0148987E2,1.7468652E2,3.0524414E1,1.6701542E3,1.9229237E2,1.2575601E0,7.0023236E2,7.7625755E1,9.7060776E1,2.2098761E2,4.7924472E2,7.316713E1,4.458622E0],"tree_param":{"num_deleted":"0","num_feature":"7","num_nodes":"17","size_leaf_vector":"1"}},{"base_weights":[-8.7463677E-1,-9.7291607E-1,2.3177315E-1,-9.892982E-1,-9.2816895E-1,-9.115717E-1,4.024984E-1,-9.789936E-2,-1.0734057E-1,2.2836974E-2,-9.307868E-1,-7.4777585E-1,-1.0356269E-1,-8.728924E-2,-9.556281E-2,-8.075447E-2,1.4412771E-2],"categories":[],"categories_nodes":[],"categories_segments":[],"categories_sizes":[],"default_left":[0,0,0,0,0,0,0,0,0,0,0,0,0,0,0,0,0],"id":1,"left_children":[1,3,5,7,9,11,-1,-1,-1,-1,13,15,-1,-1,-1,-1,-1],"loss_changes":[2.820504E2,8.2666016E-1,9.241782E2,4.4628906E-1,2.1930542E0,2.5560913E0,0E0,0E0,0E0,0E0,1.0479736E-1,4.073765E0,0E0,0E0,0E0,0E0,0E0],"parents":[2147483647,0,0,1,1,2,2,3,3,4,4,5,5,10,10,11,11],"right_children":[2,4,6,8,10,12,-1,-1,-1,-1,14,16,-1,-1,-1,-1,-1],"split_conditions":[1E0,2.609558E-1,1E0,2.3725754E-1,1.5227666E1,4.3235073E1,4.024984E-1,-9.789936E-2,-1.0734057E-1,2.2836974E-2,2.9963074E1,1.1011801E-1,-1.0356269E-1,-8.728924E-2,-9.556281E-2,-8.075447E-2,1.4412771E-2],"split_indices":[2,1,4,1,0,0,0,0,0,0,0,1,0,0,0,0,0],"split_type":[0,0,0,0,0,0,0,0,0,0,0,0,0,0,0,0,0],"sum_hessian":[2.5907988E3,2.3795505E3,2.1124815E2,1.7263981E3,6.531526E2,1.6290517E2,4.8342987E1,1.5492302E3,1.7716777E2,1.28032E0,6.5187225E2,7.323601E1,8.966916E1,2.0657405E2,4.452982E2,6.8725136E1,4.510868E0],"tree_param":{"num_deleted":"0","num_feature":"7","num_nodes":"17","size_leaf_vector":"1"}},{"base_weights":[-8.4793377E-1,-9.4748527E-1,1.9921693E-1,-9.647486E-1,-9.0056956E-1,-8.836506E-1,3.009097E-1,-9.5385945E-1,-1.05429225E-1,2.134303E-2,-9.033058E-1,-7.152964E-1,-1.0140971E-1,-9.255514E-2,-9.7795114E-2,-8.431044E-2,-9.29317E-2,-7.7610195E-2,1.3113049E-2],"categories":[],"categories_nodes":[],"categories_segments":[],"categories_sizes":[],"default_left":[0,0,0,0,0,0,0,0,0,0,0,0,0,0,0,0,0,0,0],"id":2,"left_children":[1,3,5,7,9,11,-1,13,-1,-1,15,17,-1,-1,-1,-1,-1,-1,-1],"loss_changes":[2.523695E2,9.206543E-1,6.441944E2,5.5529785E-1,2.0500488E0,2.6338959E0,0E0,7.5683594E-2,0E0,0E0,1.6854858E-1,3.7133865E0,0E0,0E0,0E0,0E0,0E0,0E0,0E0],"parents":[2147483647,0,0,1,1,2,2,3,3,4,4,5,5,7,7,10,10,11,11],"right_children":[2,4,6,8,10,12,-1,14,-1,-1,16,18,-1,-1,-1,-1,-1,-1,-1],"split_conditions":[1E0,2.609558E-1,1E0,2.3725754E-1,1.5227666E1,4.3235073E1,3.009097E-1,2.77142E1,-1.05429225E-1,2.134303E-2,2.9963074E1,1.1011801E-1,-1.0140971E-1,-9.255514E-2,-9.7795114E-2,-8.431044E-2,-9.29317E-2,-7.7610195E-2,1.3113049E-2],"split_indices":[2,1,4,1,0,0,0,0,0,0,0,1,0,0,0,0,0,0,0],"split_type":[0,0,0,0,0,0,0,0,0,0,0,0,0,0,0,0,0,0,0],"sum_hessian":[2.4181077E3,2.2082654E3,2.0984222E2,1.5999696E3,6.0829584E2,1.5196405E2,5.787817E1,1.4368862E3,1.6308337E2,1.3017948E0,6.06994E2,6.917296E1,8.27911E1,6.7875635E2,7.581298E2,1.9321706E2,4.1377698E2,6.461429E1,4.5586686E0],"tree_param":{"num_deleted":"0","num_feature":"7","num_nodes":"19","size_leaf_vector":"1"}},{"base_weights":[-8.2246757E-1,-9.22582E-1,1.7755172E-1,-9.407941E-1,-8.733598E-1,-8.561723E-1,2.4713944E-1,-9.2927754E-1,-1.0362915E-1,1.9951094E-2,-8.762159E-1,-6.833265E-1,-9.934196E-2,-8.995672E-2,-9.5467076E-2,-8.136342E-2,-9.034613E-2,-7.450186E-2,1.193856E-2],"categories":[],"categories_nodes":[],"categories_segments":[],"categories_sizes":[],"default_left":[0,0,0,0,0,0,0,0,0,0,0,0,0,0,0,0,0,0,0],"id":3,"left_children":[1,3,5,7,9,11,-1,13,-1,-1,15,17,-1,-1,-1,-1,-1,-1,-1],"loss_changes":[2.2601147E2,1.0167236E0,4.9088147E2,6.689453E-1,1.9146423E0,2.7095795E0,0E0,1.4770508E-1,0E0,0E0,2.3077393E-1,3.3782349E0,0E0,0E0,0E0,0E0,0E0,0E0,0E0],"parents":[2147483647,0,0,1,1,2,2,3,3,4,4,5,5,7,7,10,10,11,11],"right_children":[2,4,6,8,10,12,-1,14,-1,-1,16,18,-1,-1,-1,-1,-1,-1,-1],"split_conditions":[1E0,2.609558E-1,1E0,2.3725754E-1,1.5227666E1,4.3235073E1,2.4713944E-1,2.77142E1,-1.0362915E-1,1.9951094E-2,2.9963074E1,1.1011801E-1,-9.934196E-2,-8.995672E-2,-9.5467076E-2,-8.136342E-2,-9.034613E-2,-7.450186E-2,1.193856E-2],"split_indices":[2,1,4,1,0,0,0,0,0,0,0,1,0,0,0,0,0,0,0],"split_type":[0,0,0,0,0,0,0,0,0,0,0,0,0,0,0,0,0,0,0],"sum_hessian":[2.254852E3,2.0497263E3,2.051258E2,1.482931E3,5.667952E2,1.4183456E2,6.3291237E1,1.3329177E3,1.500133E2,1.3220427E0,5.654732E2,6.542221E1,7.641235E1,6.3103107E2,7.0188666E2,1.8087442E2,3.845988E2,6.08198E1,4.602405E0],"tree_param":{"num_deleted":"0","num_feature":"7","num_nodes":"19","size_leaf_vector":"1"}},{"base_weights":[-7.979031E-1,-8.979793E-1,1.6157497E-1,-9.1719395E-1,-8.463574E-1,-8.289624E-1,2.1332853E-1,-9.050111E-1,-1.0191508E-1,1.8653726E-2,-8.493334E-1,-6.5181273E-1,-9.733507E-2,-8.738172E-2,-9.317986E-2,-7.8434765E-2,-8.7785766E-2,-9.7403355E-2,-4.650292E-2],"categories":[],"categories_nodes":[],"categories_segments":[],"categories_sizes":[],"default_left":[0,0,0,0,0,0,0,0,0,0,0,0,0,0,0,0,0,0,0],"id":4,"left_children":[1,3,5,7,9,11,-1,13,-1,-1,15,17,-1,-1,-1,-1,-1,-1,-1],"loss_changes":[2.020553E2,1.112793E0,3.913185E2,7.86499E-1,1.7860107E0,2.7797928E0,0E0,2.2021484E-1,0E0,0E0,2.9049683E-1,3.3367882E0,0E0,0E0,0E0,0E0,0E0,0E0,0E0],"parents":[2147483647,0,0,1,1,2,2,3,3,4,4,5,5,7,7,10,10,11,11],"right_children":[2,4,6,8,10,12,-1,14,-1,-1,16,18,-1,-1,-1,-1,-1,-1,-1],"split_conditions":[1E0,2.609558E-1,1E0,2.3725754E-1,1.5227666E1,4.3235073E1,2.1332853E-1,2.77142E1,-1.0191508E-1,1.8653726E-2,2.9963074E1,4.2424023E1,-9.733507E-2,-8.738172E-2,-9.317986E-2,-7.8434765E-2,-8.7785766E-2,-9.7403355E-2,-4.650292E-2],"split_indices":[2,1,4,1,0,0,0,0,0,0,0,0,0,0,0,0,0,0,0],"split_type":[0,0,0,0,0,0,0,0,0,0,0,0,0,0,0,0,0,0,0],"sum_hessian":[2.1017742E3,1.9033171E3,1.9845705E2,1.3748169E3,5.285002E2,1.3248135E2,6.597571E1,1.2368962E3,1.379207E2,1.3411219E0,5.271591E2,6.1967674E1,7.051367E1,5.8698065E2,6.499155E2,1.6949722E2,3.5766187E2,2.1192924E1,4.077475E1],"tree_param":{"num_deleted":"0","num_feature":"7","num_nodes":"19","size_leaf_vector":"1"}},{"base_weights":[-7.739803E-1,-8.7349784E-1,1.485959E-1,-8.937575E-1,-8.19418E-1,-8.0194604E-1,1.8995552E-1,-8.8087624E-1,-1.0026504E-1,1.7444102E-2,-8.225124E-1,-6.2113816E-1,-9.5368063E-1,-8.4813826E-2,-9.091353E-2,-7.551484E-2,-8.523398E-2,-9.5308505E-2,-4.36006E-2,-7.655558E-2,-1.02303825E-1],"categories":[],"categories_nodes":[],"categories_segments":[],"categories_sizes":[],"default_left":[0,0,0,0,0,0,0,0,0,0,0,0,0,0,0,0,0,0,0,0,0],"id":5,"left_children":[1,3,5,7,9,11,-1,13,-1,-1,15,17,19,-1,-1,-1,-1,-1,-1,-1,-1],"loss_changes":[1.8009485E2,1.2061768E0,3.205908E2,9.0686035E-1,1.6635132E0,2.8357773E0,0E0,2.9223633E-1,0E0,0E0,3.466797E-1,3.264536E0,7.891083E-2,0E0,0E0,0E0,0E0,0E0,0E0,0E0,0E0],"parents":[2147483647,0,0,1,1,2,2,3,3,4,4,5,5,7,7,10,10,11,11,12,12],"right_children":[2,4,6,8,10,12,-1,14,-1,-1,16,18,20,-1,-1,-1,-1,-1,-1,-1,-1],"split_conditions":[1E0,2.609558E-1,1E0,2.3725754E-1,1.5227666E1,4.3235073E1,1.8995552E-1,2.77142E1,-1.0026504E-1,1.7444102E-2,2.9963074E1,4.2424023E1,7.0620775E-2,-8.4813826E-2,-9.091353E-2,-7.551484E-2,-8.523398E-2,-9.5308505E-2,-4.36006E-2,-7.655558E-2,-1.02303825E-1],"split_indices":[2,1,4,1,0,0,0,0,0,0,0,0,1,0,0,0,0,0,0,0,0],"split_type":[0,0,0,0,0,0,0,0,0,0,0,0,0,0,0,0,0,0,0,0,0],"sum_hessian":[1.9591354E3,1.7684296E3,1.9070576E2,1.275186E3,4.932435E2,1.2395591E2,6.6749855E1,1.1484249E3,1.2676113E2,1.3590903E0,4.918844E2,5.8883533E1,6.507238E1,5.46416E2,6.02009E2,1.590325E2,3.328519E2,1.959716E1,3.9286373E1,2.0771042E1,4.430134E1],"tree_param":{"num_deleted":"0","num_feature":"7","num_nodes":"21","size_leaf_vector":"1"}},{"base_weights":[-7.5049675E-1,-8.489898E-1,1.3747944E-1,-8.703249E-1,-7.924305E-1,-7.752371E-1,1.7277361E-1,-8.567204E-1,-9.8659776E-2,1.6315905E-2,-7.9564035E-1,-5.909795E-1,-9.345137E-1,-8.223999E-2,-8.8651136E-2,-7.2597325E-2,-8.267741E-2,-6.604898E-2,2.2424048E-2,-7.386186E-2,-1.0083964E-1],"categories":[],"categories_nodes":[],"categories_segments":[],"categories_sizes":[],"default_left":[0,0,0,0,0,0,0,0,0,0,0,0,0,0,0,0,0,0,0,0,0],"id":6,"left_children":[1,3,5,7,9,11,-1,13,-1,-1,15,17,19,-1,-1,-1,-1,-1,-1,-1,-1],"loss_changes":[1.5997217E2,1.2957764E0,2.674664E2,1.0286865E0,1.5464478E0,2.8867798E0,0E0,3.6291504E-1,0E0,0E0,3.9852905E-1,3.3809643E0,1.3995743E-1,0E0,0E0,0E0,0E0,0E0,0E0,0E0,0E0],"parents":[2147483647,0,0,1,1,2,2,3,3,4,4,5,5,7,7,10,10,11,11,12,12],"right_children":[2,4,6,8,10,12,-1,14,-1,-1,16,18,20,-1,-1,-1,-1,-1,-1,-1,-1],"split_conditions":[1E0,2.609558E-1,1E0,2.3725754E-1,1.5227666E1,4.3235073E1,1.7277361E-1,2.77142E1,-9.8659776E-2,1.6315905E-2,2.9963074E1,1.1011801E-1,7.0620775E-2,-8.223999E-2,-8.8651136E-2,-7.2597325E-2,-8.267741E-2,-6.604898E-2,2.2424048E-2,-7.386186E-2,-1.0083964E-1],"split_indices":[2,1,4,1,0,0,0,0,0,0,0,1,1,0,0,0,0,0,0,0,0],"split_type":[0,0,0,0,0,0,0,0,0,0,0,0,0,0,0,0,0,0,0,0,0],"sum_hessian":[1.8267651E3,1.6444131E3,1.8235205E2,1.1835647E3,4.6084842E2,1.16182465E2,6.6169586E1,1.0670791E3,1.16485535E2,1.3760045E0,4.594724E2,5.6050922E1,6.0131542E1,5.091365E2,5.579426E2,1.4942511E2,3.100473E2,5.1822083E1,4.228842E0,1.9479664E1,4.065188E1],"tree_param":{"num_deleted":"0","num_feature":"7","num_nodes":"21","size_leaf_vector":"1"}},{"base_weights":[-7.2724926E-1,-8.24336E-1,1.2859827E-1,-8.418681E-1,-7.4881715E-1,-7.4834096E-1,1.5957604E-1,-8.001344E-1,-8.8036865E-1,-2.2475584E-1,-7.611003E-1,-5.606382E-1,-9.154462E-1,-8.0602095E-2,8.5964054E-2,-1.0607203E-1,-8.5967295E-2,2.5178129E-2,-8.0758326E-2,-8.05998E-2,-6.664639E-2,-7.139518E-2,-1.371666E-2,-7.116761E-2,-9.94212E-2],"categories":[],"categories_nodes":[],"categories_segments":[],"categories_sizes":[],"default_left":[0,0,0,0,0,0,0,0,0,0,0,0,0,0,0,0,0,0,0,0,0,0,0,0,0],"id":7,"left_children":[1,3,5,7,9,11,-1,13,15,17,19,21,23,-1,-1,-1,-1,-1,-1,-1,-1,-1,-1,-1,-1],"loss_changes":[1.4179266E2,1.3973389E0,2.2582765E2,1.2799683E0,1.7447662E0,2.935711E0,0E0,6.589966E0,1.4485168E0,2.4905272E0,6.9667053E-1,3.4318104E0,2.0072174E-1,0E0,0E0,0E0,0E0,0E0,0E0,0E0,0E0,0E0,0E0,0E0,0E0],"parents":[2147483647,0,0,1,1,2,2,3,3,4,4,5,5,7,7,8,8,9,9,10,10,11,11,12,12],"right_children":[2,4,6,8,10,12,-1,14,16,18,20,22,24,-1,-1,-1,-1,-1,-1,-1,-1,-1,-1,-1,-1],"split_conditions":[1E0,3.0129817E-1,1E0,2.77142E1,3.0450207E-1,4.3235073E1,1.5957604E-1,1E0,2.871362E1,1E0,3.273344E1,4.28954E1,7.0620775E-2,-8.0602095E-2,8.5964054E-2,-1.0607203E-1,-8.5967295E-2,2.5178129E-2,-8.0758326E-2,-8.05998E-2,-6.664639E-2,-7.139518E-2,-1.371666E-2,-7.116761E-2,-9.94212E-2],"split_indices":[2,1,4,0,1,0,0,4,0,4,0,0,1,0,0,0,0,0,0,0,0,0,0,0,0],"split_type":[0,0,0,0,0,0,0,0,0,0,0,0,0,0,0,0,0,0,0,0,0,0,0,0,0],"sum_hessian":[1.7041903E3,1.5305973E3,1.7359303E2,1.2339758E3,2.9662155E2,1.0895772E2,6.4635315E1,6.0257794E2,6.313978E2,7.2350483E0,2.893865E2,5.336731E1,5.559041E1,6.00961E2,1.6169647E0,5.982257E1,5.7157526E2,4.2929797E0,2.9420686E0,1.911729E2,9.821362E1,3.8678284E1,1.4689026E1,1.8295246E1,3.7295162E1],"tree_param":{"num_deleted":"0","num_feature":"7","num_nodes":"25","size_leaf_vector":"1"}},{"base_weights":[-7.0410705E-1,-7.9943156E-1,1.2060864E-1,-8.230665E-1,-7.3766094E-1,-7.21413E-1,1.490934E-1,-8.0757E-1,-9.5733866E-2,1.9840684E-2,-7.4122465E-1,-5.310671E-1,-8.9634776E-1,-7.917924E-2,-8.964653E-2,-7.285533E-2,-1.0068234E-1,-9.045693E-2,-3.358994E-2,-6.847189E-2,-9.803351E-2],"categories":[],"categories_nodes":[],"categories_segments":[],"categories_sizes":[],"default_left":[0,0,0,0,0,0,0,0,0,0,0,0,0,0,0,0,0,0,0,0,0],"id":8,"left_children":[1,3,5,7,9,11,-1,13,-1,-1,15,17,19,-1,-1,-1,-1,-1,-1,-1,-1],"loss_changes":[1.2526825E2,1.4768066E0,1.9242368E2,1.3569336E0,1.496872E0,2.9667473E0,0E0,5.864258E-1,0E0,0E0,6.2387085E-1,3.484455E0,2.6052475E-1,0E0,0E0,0E0,0E0,0E0,0E0,0E0,0E0],"parents":[2147483647,0,0,1,1,2,2,3,3,4,4,5,5,7,7,10,10,11,11,12,12],"right_children":[2,4,6,8,10,12,-1,14,-1,-1,16,18,20,-1,-1,-1,-1,-1,-1,-1,-1],"split_conditions":[1E0,2.609558E-1,1E0,2.3725754E-1,1.5227666E1,4.3235073E1,1.490934E-1,3.9311718E1,-9.5733866E-2,1.9840684E-2,3.549242E1,4.2424023E1,7.0620775E-2,-7.917924E-2,-8.964653E-2,-7.285533E-2,-1.0068234E-1,-9.045693E-2,-3.358994E-2,-6.847189E-2,-9.803351E-2],"split_indices":[2,1,4,1,0,0,0,0,0,0,0,0,1,0,0,0,0,0,0,0,0],"split_type":[0,0,0,0,0,0,0,0,0,0,0,0,0,0,0,0,0,0,0,0,0],"sum_hessian":[1.5912015E3,1.4263661E3,1.6483537E2,1.0227226E3,4.036435E2,1.02392166E2,6.244321E1,9.231906E2,9.953203E1,1.3235215E0,4.0231998E2,5.0968876E1,5.142329E1,7.9244946E2,1.3074113E2,3.8757245E2,1.47475395E1,1.6245058E1,3.472382E1,1.72102E1,3.4213093E1],"tree_param":{"num_deleted":"0","num_feature":"7","num_nodes":"21","size_leaf_vector":"1"}},{"base_weights":[-6.809943E-1,-7.7423424E-1,1.1323399E-1,-7.935023E-1,-6.925686E-1,-6.946319E-1,1.4053987E-1,-7.4689806E-1,-8.369249E-1,-1.600626E-1,-7.0592284E-1,-5.026181E-1,-8.771072E-1,-7.534837E-2,8.500666E-2,-1.04462765E-1,-8.134606E-2,2.9648647E-2,-7.7082045E-2,-7.557726E-2,-6.021989E-2,-8.843886E-2,-3.120449E-2,-6.577577E-2,-9.666316E-2],"categories":[],"categories_nodes":[],"categories_segments":[],"categories_sizes":[],"default_left":[0,0,0,0,0,0,0,0,0,0,0,0,0,0,0,0,0,0,0,0,0,0,0,0,0],"id":9,"left_children":[1,3,5,7,9,11,-1,13,15,17,19,21,23,-1,-1,-1,-1,-1,-1,-1,-1,-1,-1,-1,-1],"loss_changes":[1.1029498E2,1.5462646E0,1.6510541E2,1.5419922E0,1.7511063E0,2.9722633E0,0E0,6.1703186E0,1.8114624E0,2.377342E0,8.655777E-1,3.3478117E0,3.186493E-1,0E0,0E0,0E0,0E0,0E0,0E0,0E0,0E0,0E0,0E0,0E0,0E0],"parents":[2147483647,0,0,1,1,2,2,3,3,4,4,5,5,7,7,8,8,9,9,10,10,11,11,12,12],"right_children":[2,4,6,8,10,12,-1,14,16,18,20,22,24,-1,-1,-1,-1,-1,-1,-1,-1,-1,-1,-1,-1],"split_conditions":[1E0,3.0129817E-1,1E0,2.77142E1,3.0450207E-1,4.3235073E1,1.4053987E-1,1E0,2.871362E1,1E0,3.273344E1,4.2424023E1,7.0620775E-2,-7.534837E-2,8.500666E-2,-1.04462765E-1,-8.134606E-2,2.9648647E-2,-7.7082045E-2,-7.557726E-2,-6.021989E-2,-8.843886E-2,-3.120449E-2,-6.577577E-2,-9.666316E-2],"split_indices":[2,1,4,0,1,0,0,4,0,4,0,0,1,0,0,0,0,0,0,0,0,0,0,0,0],"split_type":[0,0,0,0,0,0,0,0,0,0,0,0,0,0,0,0,0,0,0,0,0,0,0,0,0],"sum_hessian":[1.4872057E3,1.3309781E3,1.5622757E2,1.069845E3,2.6113327E2,9.641254E1,5.9815033E1,5.24797E2,5.450479E2,6.706201E0,2.5442706E2,4.8807835E1,4.7604706E1,5.231677E2,1.6292759E0,5.090704E1,4.941409E2,4.1320224E0,2.5741785E0,1.6759465E2,8.683241E1,1.5039303E1,3.376853E1,1.6217182E1,3.1387526E1],"tree_param":{"num_deleted":"0","num_feature":"7","num_nodes":"25","size_leaf_vector":"1"}},{"base_weights":[-6.578055E-1,-7.4868214E-1,1.0655188E-1,-7.745887E-1,-6.8203646E-1,-6.678253E-1,1.3340086E-1,-7.5709486E-1,-9.2852306E-1,2.2782376E-2,-6.859545E-1,-4.7486025E-1,-8.576317E-1,-7.395469E-2,-8.5724406E-2,-9.787195E-2,-7.4143775E-2,-6.7186765E-2,-9.865327E-2,-5.5477794E-2,3.5400633E-2,-6.308197E-2,-9.529816E-2],"categories":[],"categories_nodes":[],"categories_segments":[],"categories_sizes":[],"default_left":[0,0,0,0,0,0,0,0,0,0,0,0,0,0,0,0,0,0,0,0,0,0,0],"id":10,"left_children":[1,3,5,7,9,11,-1,13,15,-1,17,19,21,-1,-1,-1,-1,-1,-1,-1,-1,-1,-1],"loss_changes":[9.6817505E1,1.6209717E0,1.423838E2,1.690979E0,1.4282379E0,2.960205E0,0E0,7.785034E-1,8.481598E-2,0E0,8.425598E-1,3.36485E0,3.744049E-1,0E0,0E0,0E0,0E0,0E0,0E0,0E0,0E0,0E0,0E0],"parents":[2147483647,0,0,1,1,2,2,3,3,4,4,5,5,7,7,8,8,10,10,11,11,12,12],"right_children":[2,4,6,8,10,12,-1,14,16,-1,18,20,22,-1,-1,-1,-1,-1,-1,-1,-1,-1,-1],"split_conditions":[1E0,2.609558E-1,1E0,2.3725754E-1,1.5227666E1,4.3235073E1,1.3340086E-1,3.9311718E1,1E0,2.2782376E-2,3.549242E1,1.1011801E-1,7.0620775E-2,-7.395469E-2,-8.5724406E-2,-9.787195E-2,-7.4143775E-2,-6.7186765E-2,-9.865327E-2,-5.5477794E-2,3.5400633E-2,-6.308197E-2,-9.529816E-2],"split_indices":[2,1,4,1,0,0,0,0,5,0,0,1,1,0,0,0,0,0,0,0,0,0,0],"split_type":[0,0,0,0,0,0,0,0,0,0,0,0,0,0,0,0,0,0,0,0,0,0,0],"sum_hessian":[1.3916663E3,1.243807E3,1.478593E2,8.8800037E2,3.5580664E2,9.094187E1,5.6917427E1,8.0269653E2,8.5303825E1,1.2805686E0,3.5452606E2,4.683217E1,4.4109707E1,6.901531E2,1.1254343E2,6.392172E1,2.1382107E1,3.417451E2,1.2780977E1,4.301539E1,3.8167803E0,1.5309158E1,2.8800549E1],"tree_param":{"num_deleted":"0","num_feature":"7","num_nodes":"23","size_leaf_vector":"1"}},{"base_weights":[-6.3449657E-1,-7.227913E-1,1.01130396E-1,-7.497168E-1,-6.5414214E-1,-6.4058226E-1,1.2732424E-1,-7.314638E-1,-9.12748E-1,2.1292647E-2,-6.5814954E-1,-4.466635E-1,-8.378456E-1,-7.132738E-2,-8.363727E-2,-7.623165E-2,-9.895448E-2,-5.6481928E-2,-7.008629E-2,-8.535402E-2,-2.5358437E-2,-6.0394753E-2,-9.392779E-2],"categories":[],"categories_nodes":[],"categories_segments":[],"categories_sizes":[],"default_left":[0,0,0,0,0,0,0,0,0,0,0,0,0,0,0,0,0,0,0,0,0,0,0],"id":11,"left_children":[1,3,5,7,9,11,-1,13,15,-1,17,19,21,-1,-1,-1,-1,-1,-1,-1,-1,-1,-1],"loss_changes":[8.483777E1,1.6635132E0,1.2316226E2,1.8028259E0,1.3081207E0,2.948227E0,0E0,8.377075E-1,1.6469574E-1,0E0,9.389496E-1,3.3926153E0,4.2713356E-1,0E0,0E0,0E0,0E0,0E0,0E0,0E0,0E0,0E0,0E0],"parents":[2147483647,0,0,1,1,2,2,3,3,4,4,5,5,7,7,8,8,10,10,11,11,12,12],"right_children":[2,4,6,8,10,12,-1,14,16,-1,18,20,22,-1,-1,-1,-1,-1,-1,-1,-1,-1,-1],"split_conditions":[1E0,2.609558E-1,1E0,2.3725754E-1,1.5227666E1,4.3235073E1,1.2732424E-1,3.9311718E1,2.4590933E1,2.1292647E-2,2.9963074E1,4.2424023E1,7.0620775E-2,-7.132738E-2,-8.363727E-2,-7.623165E-2,-9.895448E-2,-5.6481928E-2,-7.008629E-2,-8.535402E-2,-2.5358437E-2,-6.0394753E-2,-9.392779E-2],"split_indices":[2,1,4,1,0,0,0,0,0,0,0,0,1,0,0,0,0,0,0,0,0,0,0],"split_type":[0,0,0,0,0,0,0,0,0,0,0,0,0,0,0,0,0,0,0,0,0,0,0],"sum_hessian":[1.3040361E3,1.1643059E3,1.397302E2,8.2916943E2,3.351365E2,8.585477E1,5.387543E1,7.5061676E2,7.855267E1,1.3019689E0,3.3383453E2,4.4940517E1,4.091425E1,6.4634644E2,1.0427035E2,3.0241425E1,4.831125E1,1.0927905E2,2.2455547E2,1.336201E1,3.1578508E1,1.4479467E1,2.6434782E1],"tree_param":{"num_deleted":"0","num_feature":"7","num_nodes":"23","size_leaf_vector":"1"}},{"base_weights":[-6.1106116E-1,-6.965319E-1,9.53582E-2,-7.185214E-1,-6.055916E-1,-6.137927E-1,1.22059934E-1,-6.643543E-1,-7.698184E-1,-5.3412613E-2,-6.2076133E-1,-4.204749E-1,-8.1768966E-1,-6.7213275E-2,9.0634964E-2,-1.0255096E-1,-7.414154E-2,3.9111927E-2,-7.1971826E-2,-6.796851E-2,-5.0002515E-2,-6.2236305E-2,-3.3489063E-3,-5.7719517E-2,-9.2542395E-2],"categories":[],"categories_nodes":[],"categories_segments":[],"categories_sizes":[],"default_left":[0,0,0,0,0,0,0,0,0,0,0,0,0,0,0,0,0,0,0,0,0,0,0,0,0],"id":12,"left_children":[1,3,5,7,9,11,-1,13,15,17,19,21,23,-1,-1,-1,-1,-1,-1,-1,-1,-1,-1,-1,-1],"loss_changes":[7.402124E1,1.7501831E0,1.0694402E2,1.9188232E0,1.8025055E0,2.9001808E0,0E0,5.89592E0,2.4563293E0,2.341131E0,1.1768417E0,3.4405613E0,4.761982E-1,0E0,0E0,0E0,0E0,0E0,0E0,0E0,0E0,0E0,0E0,0E0,0E0],"parents":[2147483647,0,0,1,1,2,2,3,3,4,4,5,5,7,7,8,8,9,9,10,10,11,11,12,12],"right_children":[2,4,6,8,10,12,-1,14,16,18,20,22,24,-1,-1,-1,-1,-1,-1,-1,-1,-1,-1,-1,-1],"split_conditions":[1E0,3.0129817E-1,1E0,2.77142E1,3.0450207E-1,4.3235073E1,1.22059934E-1,1E0,2.871362E1,1E0,3.273344E1,8.9639686E-2,7.0620775E-2,-6.7213275E-2,9.0634964E-2,-1.0255096E-1,-7.414154E-2,3.9111927E-2,-7.1971826E-2,-6.796851E-2,-5.0002515E-2,-6.2236305E-2,-3.3489063E-3,-5.7719517E-2,-9.2542395E-2],"split_indices":[2,1,4,0,1,0,0,4,0,4,0,1,1,0,0,0,0,0,0,0,0,0,0,0,0],"split_type":[0,0,0,0,0,0,0,0,0,0,0,0,0,0,0,0,0,0,0,0,0,0,0,0,0],"sum_hessian":[1.2238606E3,1.0917787E3,1.3208194E2,8.7363153E2,2.1814711E2,8.129967E1,5.078226E1,4.3171387E2,4.4191766E2,5.9536667E0,2.1219344E2,4.3304348E1,3.7995323E1,4.3015573E2,1.5581352E0,4.067203E1,4.0124564E2,3.8188736E0,2.134793E0,1.3948839E2,7.270505E1,2.8058279E1,1.5246066E1,1.3721812E1,2.4273512E1],"tree_param":{"num_deleted":"0","num_feature":"7","num_nodes":"25","size_leaf_vector":"1"}},{"base_weights":[-5.8741426E-1,-6.698951E-1,9.025155E-2,-6.924897E-1,-5.7749087E-1,-5.8680594E-1,1.1742505E-1,-6.3679385E-1,-7.4574506E-1,-5.388435E-2,-5.926638E-1,-3.9449507E-1,-7.9712063E-1,-6.447833E-2,8.096145E-2,-1.0183009E-1,-7.1619414E-2,3.501724E-2,-7.0211075E-2,-6.524401E-2,-4.7216065E-2,-8.233564E-2,-2.0146577E-2,-5.506265E-2,-9.11334E-2],"categories":[],"categories_nodes":[],"categories_segments":[],"categories_sizes":[],"default_left":[0,0,0,0,0,0,0,0,0,0,0,0,0,0,0,0,0,0,0,0,0,0,0,0,0],"id":13,"left_children":[1,3,5,7,9,11,-1,13,15,17,19,21,23,-1,-1,-1,-1,-1,-1,-1,-1,-1,-1,-1,-1],"loss_changes":[6.442035E1,1.7435303E0,9.303317E1,1.9570312E0,1.6184235E0,2.8449574E0,0E0,5.2324066E0,2.5994568E0,2.066226E0,1.1454163E0,3.375877E0,5.210228E-1,0E0,0E0,0E0,0E0,0E0,0E0,0E0,0E0,0E0,0E0,0E0,0E0],"parents":[2147483647,0,0,1,1,2,2,3,3,4,4,5,5,7,7,8,8,9,9,10,10,11,11,12,12],"right_children":[2,4,6,8,10,12,-1,14,16,18,20,22,24,-1,-1,-1,-1,-1,-1,-1,-1,-1,-1,-1,-1],"split_conditions":[1E0,3.0129817E-1,1E0,2.77142E1,3.0450207E-1,4.3235073E1,1.1742505E-1,1E0,2.871362E1,1E0,3.273344E1,4.2424023E1,7.0620775E-2,-6.447833E-2,8.096145E-2,-1.0183009E-1,-7.1619414E-2,3.501724E-2,-7.0211075E-2,-6.524401E-2,-4.7216065E-2,-8.233564E-2,-2.0146577E-2,-5.506265E-2,-9.11334E-2],"split_indices":[2,1,4,0,1,0,0,4,0,4,0,0,1,0,0,0,0,0,0,0,0,0,0,0,0],"split_type":[0,0,0,0,0,0,0,0,0,0,0,0,0,0,0,0,0,0,0,0,0,0,0,0,0],"sum_hessian":[1.150454E3,1.0256324E3,1.2482148E2,8.189015E2,2.0673097E2,7.711482E1,4.770666E1,4.066126E2,4.1228888E2,5.950078E0,2.0078088E2,4.178371E1,3.533111E1,4.0493015E2,1.68247E0,3.705566E1,3.7523322E2,3.948606E0,2.0014718E0,1.3125623E2,6.952466E1,1.1955724E1,2.9827988E1,1.30302925E1,2.2300816E1],"tree_param":{"num_deleted":"0","num_feature":"7","num_nodes":"25","size_leaf_vector":"1"}},{"base_weights":[-5.636489E-1,-6.4296335E-1,8.505792E-2,-6.728409E-1,-5.6877095E-1,-5.602637E-1,1.13282256E-1,-6.5113544E-1,-8.704202E-1,-4.537175E-1,-6.232379E-1,-3.7011042E-1,-7.761109E-1,-6.3005224E-2,-7.751667E-2,-9.366509E-2,-6.345459E-2,-5.0750196E-2,5.478839E-3,-5.885541E-2,-9.814436E-2,-5.7682324E-2,4.9614E-4,-5.2431166E-2,-8.969318E-2],"categories":[],"categories_nodes":[],"categories_segments":[],"categories_sizes":[],"default_left":[0,0,0,0,0,0,0,0,0,0,0,0,0,0,0,0,0,0,0,0,0,0,0,0,0],"id":14,"left_children":[1,3,5,7,9,11,-1,13,15,17,19,21,23,-1,-1,-1,-1,-1,-1,-1,-1,-1,-1,-1,-1],"loss_changes":[5.5851074E1,1.7595215E0,8.11147E1,2.3644714E0,1.4963989E0,2.763527E0,0E0,1.1323853E0,4.1617584E-1,2.6232338E0,1.783104E0,3.2148814E0,5.6108856E-1,0E0,0E0,0E0,0E0,0E0,0E0,0E0,0E0,0E0,0E0,0E0,0E0],"parents":[2147483647,0,0,1,1,2,2,3,3,4,4,5,5,7,7,8,8,9,9,10,10,11,11,12,12],"right_children":[2,4,6,8,10,12,-1,14,16,18,20,22,24,-1,-1,-1,-1,-1,-1,-1,-1,-1,-1,-1,-1],"split_conditions":[1E0,2.609558E-1,1E0,2.3725754E-1,2.9963074E1,4.3235073E1,1.13282256E-1,3.9311718E1,1E0,2.966469E1,5.0116736E-1,8.9639686E-2,7.0620775E-2,-6.3005224E-2,-7.751667E-2,-9.366509E-2,-6.345459E-2,-5.0750196E-2,5.478839E-3,-5.885541E-2,-9.814436E-2,-5.7682324E-2,4.9614E-4,-5.2431166E-2,-8.969318E-2],"split_indices":[2,1,4,1,0,0,0,0,5,0,1,1,1,0,0,0,0,0,0,0,0,0,0,0,0],"split_type":[0,0,0,0,0,0,0,0,0,0,0,0,0,0,0,0,0,0,0,0,0,0,0,0,0],"sum_hessian":[1.0834391E3,9.654114E2,1.1802772E2,6.824981E2,2.8291327E2,7.332927E1,4.4698456E1,6.1881274E2,6.368539E1,9.389784E1,1.8901541E2,4.042822E1,3.290105E1,5.341039E2,8.470883E1,4.7403957E1,1.6281433E1,8.491807E1,8.979776E0,1.747391E2,1.4276304E1,2.5716965E1,1.4711254E1,1.2399401E1,2.0501648E1],"tree_param":{"num_deleted":"0","num_feature":"7","num_nodes":"25","size_leaf_vector":"1"}},{"base_weights":[-5.398218E-1,-6.145498E-1,9.391551E-2,-6.380345E-1,-5.1983976E-1,-5.1399004E-1,1.0908659E-1,-5.798596E-1,-6.938143E-1,-1.8259597E-1,-5.458674E-1,-2.9748255E-1,-7.546481E-1,3.7301306E-2,-5.9522856E-2,-1.007184E-1,-6.6108026E-2,-3.6678676E-2,7.3366106E-2,-3.3012714E-2,-6.01069E-2,-5.1942196E-2,8.898298E-3,-4.9832553E-2,-8.8215075E-2],"categories":[],"categories_nodes":[],"categories_segments":[],"categories_sizes":[],"default_left":[0,0,0,0,0,0,0,0,0,0,0,0,0,0,0,0,0,0,0,0,0,0,0,0,0],"id":15,"left_children":[1,3,5,7,9,11,-1,13,15,17,19,21,23,-1,-1,-1,-1,-1,-1,-1,-1,-1,-1,-1,-1],"loss_changes":[4.8526703E1,1.704956E0,6.6511734E1,1.9642944E0,1.5446548E0,3.3331928E0,0E0,5.5391846E0,3.1011658E0,2.78785E0,1.866703E0,3.270755E0,5.95953E-1,0E0,0E0,0E0,0E0,0E0,0E0,0E0,0E0,0E0,0E0,0E0,0E0],"parents":[2147483647,0,0,1,1,2,2,3,3,4,4,5,5,7,7,8,8,9,9,10,10,11,11,12,12],"right_children":[2,4,6,8,10,12,-1,14,16,18,20,22,24,-1,-1,-1,-1,-1,-1,-1,-1,-1,-1,-1,-1],"split_conditions":[4.2102936E1,3.0129817E-1,1E0,2.77142E1,3.1079602E-1,4.3235073E1,1.0908659E-1,9.222128E-2,2.871362E1,3.3690998E1,3.0122604E1,8.9639686E-2,7.0620775E-2,3.7301306E-2,-5.9522856E-2,-1.007184E-1,-6.6108026E-2,-3.6678676E-2,7.3366106E-2,-3.3012714E-2,-6.01069E-2,-5.1942196E-2,8.898298E-3,-4.9832553E-2,-8.8215075E-2],"split_indices":[0,1,4,0,1,0,0,1,0,0,0,1,1,0,0,0,0,0,0,0,0,0,0,0,0],"split_type":[0,0,0,0,0,0,0,0,0,0,0,0,0,0,0,0,0,0,0,0,0,0,0,0,0],"sum_hessian":[1.0224612E3,9.146404E2,1.07820816E2,7.283092E2,1.8633115E2,6.728016E1,4.0540657E1,3.620788E2,3.662304E2,1.392452E1,1.7240663E2,3.65943E1,3.0685863E1,5.377915E0,3.567009E2,3.1822126E1,3.344083E2,1.2093176E1,1.8313433E0,3.6548275E1,1.3585835E2,2.302657E1,1.3567728E1,1.1824025E1,1.886184E1],"tree_param":{"num_deleted":"0","num_feature":"7","num_nodes":"25","size_leaf_vector":"1"}},{"base_weights":[-5.1562095E-1,-5.8854276E-1,7.724911E-2,-6.199613E-1,-5.119686E-1,-5.0803804E-1,1.0627414E-1,-5.963115E-1,-8.3991253E-1,-4.926827E-1,-9.387302E-2,-3.244723E-1,-7.3273456E-1,-5.736899E-2,-7.318265E-2,-6.421837E-2,-9.467726E-2,-2.921494E-2,-5.241424E-2,-7.838254E-2,-1.3070575E-2,-4.7274422E-2,-8.669341E-2],"categories":[],"categories_nodes":[],"categories_segments":[],"categories_sizes":[],"default_left":[0,0,0,0,0,0,0,0,0,0,0,0,0,0,0,0,0,0,0,0,0,0,0],"id":16,"left_children":[1,3,5,7,9,11,-1,13,15,17,-1,19,21,-1,-1,-1,-1,-1,-1,-1,-1,-1,-1],"loss_changes":[4.1896423E1,1.7567444E0,6.2204514E1,2.654358E0,1.6491165E0,2.556713E0,0E0,1.2696686E0,5.8452606E-1,1.4087257E0,0E0,3.3761873E0,6.252794E-1,0E0,0E0,0E0,0E0,0E0,0E0,0E0,0E0,0E0,0E0],"parents":[2147483647,0,0,1,1,2,2,3,3,4,4,5,5,7,7,8,8,9,9,11,11,12,12],"right_children":[2,4,6,8,10,12,-1,14,16,18,-1,20,22,-1,-1,-1,-1,-1,-1,-1,-1,-1,-1],"split_conditions":[1E0,2.609558E-1,1E0,2.3725754E-1,3.549242E1,4.3235073E1,1.0627414E-1,3.9311718E1,2.4590933E1,2.7650928E-1,-9.387302E-2,4.2424023E1,7.0620775E-2,-5.736899E-2,-7.318265E-2,-6.421837E-2,-9.467726E-2,-2.921494E-2,-5.241424E-2,-7.838254E-2,-1.3070575E-2,-4.7274422E-2,-8.669341E-2],"split_indices":[2,1,4,1,0,0,0,0,0,1,0,0,1,0,0,0,0,0,0,0,0,0,0],"split_type":[0,0,0,0,0,0,0,0,0,0,0,0,0,0,0,0,0,0,0,0,0,0,0],"sum_hessian":[9.6702985E2,8.6112103E2,1.0590886E2,6.055615E2,2.5555952E2,6.675018E1,3.9158672E1,5.5012195E2,5.5439568E1,2.465711E2,8.988406E0,3.8082634E1,2.8667547E1,4.7591095E2,7.421097E1,2.1909262E1,3.3530308E1,3.4831467E1,2.1173964E2,1.0394854E1,2.7687782E1,1.1299416E1,1.7368132E1],"tree_param":{"num_deleted":"0","num_feature":"7","num_nodes":"23","size_leaf_vector":"1"}},{"base_weights":[-4.917494E-1,-5.598488E-1,8.384976E-2,-5.8463424E-1,-4.6167895E-1,-4.620727E-1,1.0237137E-1,-5.2312547E-1,-6.4454293E-1,-3.6421072E-1,-5.708295E-1,-2.5617114E-1,-7.1038705E-1,3.9584886E-2,-5.39454E-2,-9.968248E-2,-6.0879957E-2,-4.9456503E-2,-1.7262994E-3,4.574799E-2,-6.086555E-2,-3.543919E-2,5.6048285E-2,-4.4764362E-2,-8.512342E-2],"categories":[],"categories_nodes":[],"categories_segments":[],"categories_sizes":[],"default_left":[0,0,0,0,0,0,0,0,0,0,0,0,0,0,0,0,0,0,0,0,0,0,0,0,0],"id":17,"left_children":[1,3,5,7,9,11,-1,13,15,17,19,21,23,-1,-1,-1,-1,-1,-1,-1,-1,-1,-1,-1,-1],"loss_changes":[3.600824E1,1.726532E0,5.071924E1,2.0629578E0,1.6022987E0,3.020461E0,0E0,5.1157E0,3.4937286E0,4.1816273E0,3.3319721E0,3.0707138E0,6.4882183E-1,0E0,0E0,0E0,0E0,0E0,0E0,0E0,0E0,0E0,0E0,0E0,0E0],"parents":[2147483647,0,0,1,1,2,2,3,3,4,4,5,5,7,7,8,8,9,9,10,10,11,11,12,12],"right_children":[2,4,6,8,10,12,-1,14,16,18,20,22,24,-1,-1,-1,-1,-1,-1,-1,-1,-1,-1,-1,-1],"split_conditions":[4.2102936E1,3.0129817E-1,1E0,2.77142E1,3.9302734E-1,4.3235073E1,1.0237137E-1,9.222128E-2,2.871362E1,3.3032684E1,2.8045465E1,1.1011801E-1,7.0620775E-2,3.9584886E-2,-5.39454E-2,-9.968248E-2,-6.0879957E-2,-4.9456503E-2,-1.7262994E-3,4.574799E-2,-6.086555E-2,-3.543919E-2,5.6048285E-2,-4.4764362E-2,-8.512342E-2],"split_indices":[0,1,4,0,1,0,0,1,0,0,0,1,1,0,0,0,0,0,0,0,0,0,0,0,0],"split_type":[0,0,0,0,0,0,0,0,0,0,0,0,0,0,0,0,0,0,0,0,0,0,0,0,0],"sum_hessian":[9.1642865E2,8.1950055E2,9.692809E1,6.503481E2,1.6915244E2,6.1635384E1,3.529271E1,3.2569055E2,3.2465756E2,9.164919E1,7.7503235E1,3.4805996E1,2.6829388E1,5.280136E0,3.2041043E2,2.7429365E1,2.9722818E2,6.630992E1,2.533927E1,2.3561554E0,7.514708E1,3.1574505E1,3.2314894E0,1.0821195E1,1.6008194E1],"tree_param":{"num_deleted":"0","num_feature":"7","num_nodes":"25","size_leaf_vector":"1"}},{"base_weights":[-4.6759334E-1,-5.377834E-1,4.2396296E-2,-5.187294E-1,-7.676043E-1,-4.2280847E-1,9.8268606E-2,-5.2599317E-1,1.5898604E-2,-6.986725E-1,-9.516741E-2,7.534773E-1,-4.8385775E-1,-7.2723284E-2,-5.1252075E-2,-4.4085026E-2,1.2877333E-1,-7.507805E-2,-3.0095665E-2,1.7459902E-1,-6.037988E-2,-8.460238E-2,-3.743015E-2],"categories":[],"categories_nodes":[],"categories_segments":[],"categories_sizes":[],"default_left":[0,0,0,0,0,0,0,0,0,0,0,0,0,0,0,0,0,0,0,0,0,0,0],"id":18,"left_children":[1,3,5,7,9,11,-1,13,15,17,-1,19,21,-1,-1,-1,-1,-1,-1,-1,-1,-1,-1],"loss_changes":[3.121791E1,2.9566193E0,4.6938736E1,2.767685E0,5.286026E-2,5.5244246E0,0E0,1.5279541E0,6.6643667E0,7.049408E-1,0E0,6.356757E0,2.4177704E0,0E0,0E0,0E0,0E0,0E0,0E0,0E0,0E0,0E0,0E0],"parents":[2147483647,0,0,1,1,2,2,3,3,4,4,5,5,7,7,8,8,9,9,11,11,12,12],"right_children":[2,4,6,8,10,12,-1,14,16,18,-1,20,22,-1,-1,-1,-1,-1,-1,-1,-1,-1,-1],"split_conditions":[4.150275E1,3.9311718E1,1E0,3.8958828E1,4.100556E1,4.163657E1,9.8268606E-2,1.9754585E1,9.773685E-2,4.075292E1,-9.516741E-2,7.867735E-2,6.307306E-2,-7.2723284E-2,-5.1252075E-2,-4.4085026E-2,1.2877333E-1,-7.507805E-2,-3.0095665E-2,1.7459902E-1,-6.037988E-2,-8.460238E-2,-3.743015E-2],"split_indices":[0,0,4,0,0,0,0,0,1,0,0,1,1,0,0,0,0,0,0,0,0,0,0],"split_type":[0,0,0,0,0,0,0,0,0,0,0,0,0,0,0,0,0,0,0,0,0,0,0],"sum_hessian":[8.7046436E2,7.651078E2,1.0535654E2,7.095384E2,5.5569427E1,7.085275E1,3.4503788E1,7.0004333E2,9.495049E0,4.3918278E1,1.1651151E1,2.936215E0,6.7916534E1,4.060099E1,6.594423E2,7.466875E0,2.0281742E0,3.804585E1,5.87243E0,1.53058E0,1.4056348E0,1.421221E1,5.370433E1],"tree_param":{"num_deleted":"0","num_feature":"7","num_nodes":"23","size_leaf_vector":"1"}},{"base_weights":[-4.4359285E-1,-5.104046E-1,4.097909E-2,-4.9124026E-1,-7.4642706E-1,-3.9674518E-1,9.5114954E-2,-4.9851063E-1,2.0278603E-2,-6.746869E-1,-9.41931E-2,6.6805977E-1,-4.5727882E-1,-5.2642066E-2,-4.0326584E-2,-4.175959E-2,1.1025292E-1,-7.283883E-2,-2.8230214E-2,1.4741737E-1,-5.8841493E-2,-8.2756564E-2,-3.4959774E-2],"categories":[],"categories_nodes":[],"categories_segments":[],"categories_sizes":[],"default_left":[0,0,0,0,0,0,0,0,0,0,0,0,0,0,0,0,0,0,0,0,0,0,0],"id":19,"left_children":[1,3,5,7,9,11,-1,13,15,17,-1,19,21,-1,-1,-1,-1,-1,-1,-1,-1,-1,-1],"loss_changes":[2.6874786E1,2.9308624E0,4.0788376E1,2.5285797E0,1.0538292E-1,4.7657604E0,0E0,1.5628052E0,5.413178E0,6.829338E-1,0E0,5.049148E0,2.345068E0,0E0,0E0,0E0,0E0,0E0,0E0,0E0,0E0,0E0,0E0],"parents":[2147483647,0,0,1,1,2,2,3,3,4,4,5,5,7,7,8,8,9,9,11,11,12,12],"right_children":[2,4,6,8,10,12,-1,14,16,18,-1,20,22,-1,-1,-1,-1,-1,-1,-1,-1,-1,-1],"split_conditions":[4.150275E1,3.9311718E1,1E0,3.8958828E1,4.100556E1,4.163657E1,9.5114954E-2,3.0129817E-1,9.773685E-2,4.075292E1,-9.41931E-2,7.867735E-2,6.307306E-2,-5.2642066E-2,-4.0326584E-2,-4.175959E-2,1.1025292E-1,-7.283883E-2,-2.8230214E-2,1.4741737E-1,-5.8841493E-2,-8.2756564E-2,-3.4959774E-2],"split_indices":[0,0,4,0,0,0,0,1,1,0,0,1,1,0,0,0,0,0,0,0,0,0,0],"split_type":[0,0,0,0,0,0,0,0,0,0,0,0,0,0,0,0,0,0,0,0,0,0,0],"sum_hessian":[8.284605E2,7.280282E2,1.0043232E2,6.7620374E2,5.1824482E1,6.8198166E1,3.223415E1,6.6675244E2,9.451302E0,4.116866E1,1.0655822E1,3.1286204E0,6.506955E1,5.121481E2,1.5460434E2,7.166075E0,2.2852259E0,3.545941E1,5.7092505E0,1.8003267E0,1.3282938E0,1.3153341E1,5.1916206E1],"tree_param":{"num_deleted":"0","num_feature":"7","num_nodes":"23","size_leaf_vector":"1"}},{"base_weights":[-4.1983554E-1,-4.7493267E-1,1.1509651E-1,-5.052936E-1,-3.3867088E-1,-3.3012065E-1,9.165408E-1,-8.5741416E-2,-4.861543E-1,9.1518235E-1,-4.0297946E-1,-1.7068896E-2,-6.529902E-1,1.7606132E-2,9.446465E-2,-1.0710939E-2,-5.1114876E-2,1.625179E-1,3.702655E-2,8.4651776E-2,-4.5888178E-2,-3.6571976E-2,5.037402E-2,-3.455821E-2,-8.205282E-2],"categories":[],"categories_nodes":[],"categories_segments":[],"categories_sizes":[],"default_left":[0,0,0,0,0,0,0,0,0,0,0,0,0,0,0,0,0,0,0,0,0,0,0,0,0],"id":20,"left_children":[1,3,5,7,9,11,13,-1,15,17,19,21,23,-1,-1,-1,-1,-1,-1,-1,-1,-1,-1,-1,-1],"loss_changes":[2.3376297E1,2.7975464E0,2.6955046E1,3.5243378E0,1.1156489E1,4.9167256E0,3.943615E-1,0E0,5.221924E0,2.0417523E0,9.325998E0,4.8654675E0,9.511671E-1,0E0,0E0,0E0,0E0,0E0,0E0,0E0,0E0,0E0,0E0,0E0,0E0],"parents":[2147483647,0,0,1,1,2,2,3,3,4,4,5,5,6,6,8,8,9,9,10,10,11,11,12,12],"right_children":[2,4,6,8,10,12,14,-1,16,18,20,22,24,-1,-1,-1,-1,-1,-1,-1,-1,-1,-1,-1,-1],"split_conditions":[4.2424023E1,1E0,1E0,5.9796665E-2,7.5386874E-2,4.3235073E1,4.257677E1,-8.5741416E-2,7.443618E-2,4.4640686E-2,2.8045465E1,8.9639686E-2,7.0620775E-2,1.7606132E-2,9.446465E-2,-1.0710939E-2,-5.1114876E-2,1.625179E-1,3.702655E-2,8.4651776E-2,-4.5888178E-2,-3.6571976E-2,5.037402E-2,-3.455821E-2,-8.205282E-2],"split_indices":[0,4,4,1,1,0,0,0,1,1,0,1,1,0,0,0,0,0,0,0,0,0,0,0,0],"split_type":[0,0,0,0,0,0,0,0,0,0,0,0,0,0,0,0,0,0,0,0,0,0,0,0,0],"sum_hessian":[7.90282E2,7.1658685E2,7.369514E1,5.8380023E2,1.3278659E2,4.7754642E1,2.5940496E1,2.7838356E1,5.559619E2,5.8327036E0,1.2695389E2,2.4780518E1,2.2974125E1,1.214236E0,2.4726261E1,3.4719612E1,5.212423E2,1.671889E0,4.160815E0,4.8310094E0,1.2212288E2,1.5021978E1,9.75854E0,9.184533E0,1.3789592E1],"tree_param":{"num_deleted":"0","num_feature":"7","num_nodes":"25","size_leaf_vector":"1"}},{"base_weights":[-3.9617082E-1,-4.4824636E-1,1.0841309E-1,-4.7821167E-1,-3.1520864E-1,-3.0942202E-1,8.8893336E-1,-8.407856E-2,-4.5913824E-1,8.89172E-1,-3.75537E-1,5.411092E-2,-5.6742805E-1,1.6767504E-2,9.179368E-2,-9.770036E-3,-4.8389412E-2,1.5163046E-1,3.4967307E-2,7.257741E-2,-4.3019157E-2,-5.184081E-2,4.963296E-2,-1.0719762E-2,-7.050639E-2],"categories":[],"categories_nodes":[],"categories_segments":[],"categories_sizes":[],"default_left":[0,0,0,0,0,0,0,0,0,0,0,0,0,0,0,0,0,0,0,0,0,0,0,0,0],"id":21,"left_children":[1,3,5,7,9,11,13,-1,15,17,19,21,23,-1,-1,-1,-1,-1,-1,-1,-1,-1,-1,-1,-1],"loss_changes":[1.9928566E1,2.583969E0,2.362012E1,3.4724426E0,9.709786E0,4.4732666E0,3.736E-1,0E0,4.715271E0,1.6528597E0,7.7511997E0,5.466363E0,1.6847925E0,0E0,0E0,0E0,0E0,0E0,0E0,0E0,0E0,0E0,0E0,0E0,0E0],"parents":[2147483647,0,0,1,1,2,2,3,3,4,4,5,5,6,6,8,8,9,9,10,10,11,11,12,12],"right_children":[2,4,6,8,10,12,14,-1,16,18,20,22,24,-1,-1,-1,-1,-1,-1,-1,-1,-1,-1,-1,-1],"split_conditions":[4.2424023E1,1E0,1E0,5.9796665E-2,6.605369E-2,4.3071106E1,4.257677E1,-8.407856E-2,7.443618E-2,4.4640686E-2,2.8045465E1,8.0947414E-2,6.408567E-2,1.6767504E-2,9.179368E-2,-9.770036E-3,-4.8389412E-2,1.5163046E-1,3.4967307E-2,7.257741E-2,-4.3019157E-2,-5.184081E-2,4.963296E-2,-1.0719762E-2,-7.050639E-2],"split_indices":[0,4,4,1,1,0,0,0,1,1,0,1,1,0,0,0,0,0,0,0,0,0,0,0,0],"split_type":[0,0,0,0,0,0,0,0,0,0,0,0,0,0,0,0,0,0,0,0,0,0,0,0,0],"sum_hessian":[7.555689E2,6.849866E2,7.0582344E1,5.56946E2,1.2804056E2,4.6365253E1,2.4217094E1,2.5681183E1,5.3126483E2,5.4523487E0,1.2258821E2,1.9574656E1,2.6790598E1,1.1983244E0,2.301877E1,3.4372322E1,4.968925E2,1.6841056E0,3.768243E0,5.215451E0,1.17372765E2,8.455475E0,1.1119181E1,6.5770206E0,2.0213577E1],"tree_param":{"num_deleted":"0","num_feature":"7","num_nodes":"25","size_leaf_vector":"1"}},{"base_weights":[-3.7289315E-1,-4.2198092E-1,1.0206829E-1,-4.5146278E-1,-2.9253557E-1,-2.8935567E-1,8.619066E-1,-8.235577E-1,-4.325382E-1,7.9863477E-1,-3.5271636E-1,-8.534836E-3,-6.083805E-1,1.5968397E-2,8.918265E-2,-9.492644E-2,-6.274549E-2,-8.904013E-3,-4.5693807E-2,1.4023088E-1,3.212374E-2,6.274208E-2,-4.06363E-2,-3.223053E-2,4.0912893E-2,-7.953799E-2,-2.8648874E-2],"categories":[],"categories_nodes":[],"categories_segments":[],"categories_sizes":[],"default_left":[0,0,0,0,0,0,0,0,0,0,0,0,0,0,0,0,0,0,0,0,0,0,0,0,0,0,0],"id":22,"left_children":[1,3,5,7,9,11,13,15,17,19,21,23,25,-1,-1,-1,-1,-1,-1,-1,-1,-1,-1,-1,-1,-1,-1],"loss_changes":[1.6948982E1,2.376709E0,2.0690054E1,3.4012299E0,8.47632E0,4.1256294E0,3.53817E-1,1.37348175E-2,4.2327576E0,1.5176129E0,6.510041E0,3.4784875E0,1.0706153E0,0E0,0E0,0E0,0E0,0E0,0E0,0E0,0E0,0E0,0E0,0E0,0E0,0E0,0E0],"parents":[2147483647,0,0,1,1,2,2,3,3,4,4,5,5,6,6,7,7,8,8,9,9,10,10,11,11,12,12],"right_children":[2,4,6,8,10,12,14,16,18,20,22,24,26,-1,-1,-1,-1,-1,-1,-1,-1,-1,-1,-1,-1,-1,-1],"split_conditions":[4.2424023E1,1E0,1E0,5.9796665E-2,7.5386874E-2,4.3235073E1,4.257677E1,3.8625626E1,7.443618E-2,4.4640686E-2,2.8045465E1,8.9639686E-2,4.473661E1,1.5968397E-2,8.918265E-2,-9.492644E-2,-6.274549E-2,-8.904013E-3,-4.5693807E-2,1.4023088E-1,3.212374E-2,6.274208E-2,-4.06363E-2,-3.223053E-2,4.0912893E-2,-7.953799E-2,-2.8648874E-2],"split_indices":[0,4,4,1,1,0,0,0,1,1,0,1,0,0,0,0,0,0,0,0,0,0,0,0,0,0,0],"split_type":[0,0,0,0,0,0,0,0,0,0,0,0,0,0,0,0,0,0,0,0,0,0,0,0,0,0,0],"sum_hessian":[7.2411475E2,6.563879E2,6.772682E1,5.3259814E2,1.2378974E2,4.5108677E1,2.2618145E1,2.3718897E1,5.0887924E2,5.8290734E0,1.1796067E2,2.453689E1,2.0571785E1,1.183289E0,2.1434856E1,1.2113318E1,1.1605579E1,3.4058365E1,4.748209E2,1.7185483E0,4.1105256E0,5.566368E0,1.123943E2,1.4141434E1,1.0395457E1,1.2081955E1,8.48983E0],"tree_param":{"num_deleted":"0","num_feature":"7","num_nodes":"27","size_leaf_vector":"1"}},{"base_weights":[-3.502279E-1,-4.0379646E-1,3.5523873E-2,-3.8121435E-1,-6.8546546E-1,-3.0621648E-1,8.3639246E-1,-3.8934788E-1,1.4600539E-1,-6.0255414E-1,-9.186722E-2,7.508135E-1,-3.7274867E-1,2.460303E-2,8.6253613E-1,-6.312159E-2,-3.7370525E-2,-3.261488E-2,1.15189016E-1,-6.63731E-2,-1.9246994E-2,1.4351583E-1,-5.36151E-2,-7.788981E-2,-2.6262922E-2,1.0218427E-1,6.465375E-2],"categories":[],"categories_nodes":[],"categories_segments":[],"categories_sizes":[],"default_left":[0,0,0,0,0,0,0,0,0,0,0,0,0,0,0,0,0,0,0,0,0,0,0,0,0,0,0],"id":23,"left_children":[1,3,5,7,9,11,13,15,17,19,-1,21,23,-1,25,-1,-1,-1,-1,-1,-1,-1,-1,-1,-1,-1,-1],"loss_changes":[1.4409767E1,3.630005E0,2.3756067E1,2.4951782E0,3.0018997E-1,4.563798E0,1.8828964E-1,1.8837967E0,4.824012E0,7.623491E-1,0E0,4.2385206E0,2.3884153E0,0E0,1.8064117E-1,0E0,0E0,0E0,0E0,0E0,0E0,0E0,0E0,0E0,0E0,0E0,0E0],"parents":[2147483647,0,0,1,1,2,2,3,3,4,4,5,5,6,6,7,7,8,8,9,9,11,11,12,12,14,14],"right_children":[2,4,6,8,10,12,14,16,18,20,-1,22,24,-1,26,-1,-1,-1,-1,-1,-1,-1,-1,-1,-1,-1,-1],"split_conditions":[4.150275E1,3.9311718E1,1E0,3.8958828E1,4.100556E1,4.163657E1,4.2102936E1,1.9754585E1,9.773685E-2,4.075292E1,-9.186722E-2,7.867735E-2,6.307306E-2,2.460303E-2,4.8916917E-2,-6.312159E-2,-3.7370525E-2,-3.261488E-2,1.15189016E-1,-6.63731E-2,-1.9246994E-2,1.4351583E-1,-5.36151E-2,-7.788981E-2,-2.6262922E-2,1.0218427E-1,6.465375E-2],"split_indices":[0,0,4,0,0,0,0,0,1,0,0,1,1,0,1,0,0,0,0,0,0,0,0,0,0,0,0],"split_type":[0,0,0,0,0,0,0,0,0,0,0,0,0,0,0,0,0,0,0,0,0,0,0,0,0,0,0],"sum_hessian":[6.9563684E2,6.107732E2,8.4863655E1,5.676191E2,4.31541E1,5.991489E1,2.4948767E1,5.5925287E2,8.366221E0,3.447949E1,8.674611E0,2.9388568E0,5.6976032E1,1.499459E0,2.3449306E1,3.1581692E1,5.276712E2,6.1535525E0,2.2126687E0,2.9465294E1,5.014194E0,1.8434502E0,1.0954065E0,1.0857505E1,4.6118526E1,1.134856E1,1.2100747E1],"tree_param":{"num_deleted":"0","num_feature":"7","num_nodes":"27","size_leaf_vector":"1"}},{"base_weights":[-3.2812226E-1,-3.7188676E-1,9.77757E-2,-4.0106007E-1,-2.4559474E-1,-2.4356197E-1,8.0861807E-1,-3.3567926E-1,-5.212264E-1,4.111295E-1,-3.3987936E-1,2.3962958E-2,-5.6713724E-1,9.9776365E-2,5.547438E-1,-3.6484387E-2,5.2410107E-2,-9.120316E-2,-4.4808995E-2,2.4349685E-1,-1.1725565E-2,-6.837826E-2,-2.1987254E-2,-3.7791017E-2,2.9973406E-2,-2.2741593E-2,-7.6790445E-2,-1.948574E-2,6.8159424E-2],"categories":[],"categories_nodes":[],"categories_segments":[],"categories_sizes":[],"default_left":[0,0,0,0,0,0,0,0,0,0,0,0,0,0,0,0,0,0,0,0,0,0,0,0,0,0,0,0,0],"id":24,"left_children":[1,3,5,7,9,11,13,15,17,19,21,23,25,-1,27,-1,-1,-1,-1,-1,-1,-1,-1,-1,-1,-1,-1,-1,-1],"loss_changes":[1.2540039E1,2.1435165E0,1.5556214E1,3.6964035E0,7.370038E0,3.782111E0,4.437151E-1,8.263718E0,4.50235E0,1.6446182E1,4.086424E0,2.8606951E0,1.1719785E0,0E0,1.1900508E0,0E0,0E0,0E0,0E0,0E0,0E0,0E0,0E0,0E0,0E0,0E0,0E0,0E0,0E0],"parents":[2147483647,0,0,1,1,2,2,3,3,4,4,5,5,6,6,7,7,8,8,9,9,10,10,11,11,12,12,14,14],"right_children":[2,4,6,8,10,12,14,16,18,20,22,24,26,-1,28,-1,-1,-1,-1,-1,-1,-1,-1,-1,-1,-1,-1,-1,-1],"split_conditions":[4.2424023E1,1E0,1E0,3.1530151E1,2.1180882E-1,4.3235073E1,4.8916917E-2,3.0992342E1,3.289808E1,3.0122604E1,3.0450207E-1,8.0947414E-2,7.0620775E-2,9.9776365E-2,5.0560415E-2,-3.6484387E-2,5.2410107E-2,-9.120316E-2,-4.4808995E-2,2.4349685E-1,-1.1725565E-2,-6.837826E-2,-2.1987254E-2,-3.7791017E-2,2.9973406E-2,-2.2741593E-2,-7.6790445E-2,-1.948574E-2,6.8159424E-2],"split_indices":[0,4,4,0,1,0,1,0,0,0,1,1,1,0,1,0,0,0,0,0,0,0,0,0,0,0,0,0,0],"split_type":[0,0,0,0,0,0,0,0,0,0,0,0,0,0,0,0,0,0,0,0,0,0,0,0,0,0,0,0,0],"sum_hessian":[6.6982605E2,6.075247E2,6.2301346E1,4.9175436E2,1.15770355E2,4.253428E1,1.9767069E1,3.209328E2,1.7082155E2,1.4112376E1,1.0165798E2,2.379064E1,1.8743637E1,9.648463E0,1.0118607E1,3.109604E2,9.972417E0,2.5120378E1,1.4570117E2,2.1746469E0,1.1937729E1,2.5082184E1,7.65758E1,9.531007E0,1.4259634E1,7.754633E0,1.0989004E1,1.3868904E0,8.731716E0],"tree_param":{"num_deleted":"0","num_feature":"7","num_nodes":"29","size_leaf_vector":"1"}},{"base_weights":[-3.065456E-1,-3.5452503E-1,3.8661756E-2,-3.3190563E-1,-6.4634746E-1,-2.6450187E-1,7.898895E-1,-3.4023225E-1,1.8315755E-1,-5.5769247E-1,-9.02993E-2,7.146757E-1,-3.3154428E-1,2.3859812E-2,8.1685656E-1,-5.903333E-2,-3.2445576E-2,1.4028631E-1,-1.5470283E-2,-6.2247302E-2,-1.4885822E-2,-5.5095416E-2,1.3929495E-1,-7.5042E-2,-2.2346785E-2,9.901809E-2,5.9522193E-2],"categories":[],"categories_nodes":[],"categories_segments":[],"categories_sizes":[],"default_left":[0,0,0,0,0,0,0,0,0,0,0,0,0,0,0,0,0,0,0,0,0,0,0,0,0,0,0],"id":25,"left_children":[1,3,5,7,9,11,13,15,17,19,-1,21,23,-1,25,-1,-1,-1,-1,-1,-1,-1,-1,-1,-1,-1,-1],"loss_changes":[1.0744328E1,3.5407867E0,1.8419346E1,2.3355331E0,4.035492E-1,4.025956E0,1.506195E-1,1.8679771E0,3.9598541E0,7.614126E-1,0E0,4.2145567E0,2.3087382E0,0E0,2.4594116E-1,0E0,0E0,0E0,0E0,0E0,0E0,0E0,0E0,0E0,0E0,0E0,0E0],"parents":[2147483647,0,0,1,1,2,2,3,3,4,4,5,5,6,6,7,7,8,8,9,9,11,11,12,12,14,14],"right_children":[2,4,6,8,10,12,14,16,18,20,-1,22,24,-1,26,-1,-1,-1,-1,-1,-1,-1,-1,-1,-1,-1,-1],"split_conditions":[4.150275E1,3.9311718E1,1E0,3.8958828E1,4.100556E1,4.163657E1,4.2102936E1,1.9754585E1,6.082879E-2,4.075292E1,-9.02993E-2,6.971774E-2,6.307306E-2,2.3859812E-2,4.8916917E-2,-5.903333E-2,-3.2445576E-2,1.4028631E-1,-1.5470283E-2,-6.2247302E-2,-1.4885822E-2,-5.5095416E-2,1.3929495E-1,-7.5042E-2,-2.2346785E-2,9.901809E-2,5.9522193E-2],"split_indices":[0,0,4,0,0,0,0,0,1,0,0,1,1,0,1,0,0,0,0,0,0,0,0,0,0,0,0],"split_type":[0,0,0,0,0,0,0,0,0,0,0,0,0,0,0,0,0,0,0,0,0,0,0,0,0,0,0],"sum_hessian":[6.4687286E2,5.6791315E2,7.89597E1,5.290439E2,3.886925E1,5.671845E1,2.2241251E1,5.2096136E2,8.082545E0,3.1248024E1,7.621229E0,3.01553E0,5.370292E1,1.4964693E0,2.0744781E1,2.8751614E1,4.9220975E2,1.0694696E0,7.0130754E0,2.6522871E1,4.725153E0,1.1176863E0,1.8978437E0,9.795341E0,4.390758E1,9.695225E0,1.1049558E1],"tree_param":{"num_deleted":"0","num_feature":"7","num_nodes":"27","size_leaf_vector":"1"}},{"base_weights":[-2.8580654E-1,-3.2456717E-1,9.390227E-2,-3.531332E-1,-2.0312843E-1,-2.024458E-1,7.5681686E-1,-7.778739E-1,-3.3247185E-1,7.850634E-1,-2.5844845E-1,4.907513E-2,-5.2638936E-1,9.6494816E-2,4.954263E-1,-9.287747E-2,-5.497201E-2,3.5468393E-3,-3.5956897E-2,1.4665258E-1,3.6292087E-2,6.3195854E-2,-3.1412702E-2,-2.3731528E-2,3.8208574E-2,-1.718389E-2,-7.432707E-2,-2.2186417E-2,6.291558E-2],"categories":[],"categories_nodes":[],"categories_segments":[],"categories_sizes":[],"default_left":[0,0,0,0,0,0,0,0,0,0,0,0,0,0,0,0,0,0,0,0,0,0,0,0,0,0,0,0,0],"id":26,"left_children":[1,3,5,7,9,11,13,15,17,19,21,23,25,-1,27,-1,-1,-1,-1,-1,-1,-1,-1,-1,-1,-1,-1,-1,-1],"loss_changes":[9.252567E0,1.9013901E0,1.1707418E1,3.77042E0,6.252856E0,3.4017618E0,5.2191067E-1,1.9697094E-1,4.395233E0,1.2267914E0,5.431577E0,2.402335E0,1.2713671E0,0E0,1.1182885E0,0E0,0E0,0E0,0E0,0E0,0E0,0E0,0E0,0E0,0E0,0E0,0E0,0E0,0E0],"parents":[2147483647,0,0,1,1,2,2,3,3,4,4,5,5,6,6,7,7,8,8,9,9,10,10,11,11,12,12,14,14],"right_children":[2,4,6,8,10,12,14,16,18,20,22,24,26,-1,28,-1,-1,-1,-1,-1,-1,-1,-1,-1,-1,-1,-1,-1,-1],"split_conditions":[4.2424023E1,1E0,1E0,5.9796665E-2,6.605369E-2,4.3235073E1,4.8916917E-2,3.8625626E1,7.443618E-2,3.9854576E1,2.8045465E1,8.9639686E-2,7.0620775E-2,9.6494816E-2,5.0560415E-2,-9.287747E-2,-5.497201E-2,3.5468393E-3,-3.5956897E-2,1.4665258E-1,3.6292087E-2,6.3195854E-2,-3.1412702E-2,-2.3731528E-2,3.8208574E-2,-1.718389E-2,-7.432707E-2,-2.2186417E-2,6.291558E-2],"split_indices":[0,4,4,1,1,0,1,0,1,0,0,1,1,0,1,0,0,0,0,0,0,0,0,0,0,0,0,0,0],"split_type":[0,0,0,0,0,0,0,0,0,0,0,0,0,0,0,0,0,0,0,0,0,0,0,0,0,0,0,0,0],"sum_hessian":[6.255963E2,5.6778235E2,5.7813953E1,4.581126E2,1.0966974E2,4.043333E1,1.7380627E1,1.95509E1,4.385617E2,5.1146398E0,1.045551E2,2.3238592E1,1.7194736E1,8.177624E0,9.203002E0,9.919394E0,9.631507E0,3.0061394E1,4.085003E2,1.010075E0,4.1045647E0,5.544106E0,9.9010994E1,1.2648337E1,1.0590255E1,7.2063494E0,9.988387E0,1.3425981E0,7.860404E0],"tree_param":{"num_deleted":"0","num_feature":"7","num_nodes":"29","size_leaf_vector":"1"}},{"base_weights":[-2.6577982E-1,-3.019358E-1,8.8318236E-2,-3.4121856E-1,-2.0959471E-1,-1.8830174E-1,7.318742E-1,-3.0534774E-1,-6.993926E-1,-1.8076414E-1,-8.733709E-2,1.0272403E-1,-4.3983138E-1,9.492743E-2,4.685773E-1,-3.2711636E-2,9.385022E-3,-3.9443444E-2,-8.756734E-2,1.3531287E-2,-2.3215786E-2,-7.844092E-2,3.1468164E-2,1.0911188E-2,-6.152406E-2,1.3217713E-2,8.4221706E-2],"categories":[],"categories_nodes":[],"categories_segments":[],"categories_sizes":[],"default_left":[0,0,0,0,0,0,0,0,0,0,0,0,0,0,0,0,0,0,0,0,0,0,0,0,0,0,0],"id":27,"left_children":[1,3,5,7,9,11,13,15,17,19,-1,21,23,-1,25,-1,-1,-1,-1,-1,-1,-1,-1,-1,-1,-1,-1],"loss_changes":[7.8033714E0,1.9285469E0,1.0293861E1,4.7358246E0,3.0408554E0,3.0241299E0,5.4859066E-1,3.0889893E0,1.4981422E0,2.6540956E0,0E0,3.9467952E0,2.1872482E0,0E0,1.1234379E0,0E0,0E0,0E0,0E0,0E0,0E0,0E0,0E0,0E0,0E0,0E0,0E0],"parents":[2147483647,0,0,1,1,2,2,3,3,4,4,5,5,6,6,7,7,8,8,9,9,11,11,12,12,14,14],"right_children":[2,4,6,8,10,12,14,16,18,20,-1,22,24,-1,26,-1,-1,-1,-1,-1,-1,-1,-1,-1,-1,-1,-1],"split_conditions":[4.2424023E1,2.609558E-1,1E0,2.3725754E-1,3.549242E1,4.3071106E1,4.8916917E-2,1E0,2.4590933E1,2.7650928E-1,-8.733709E-2,6.792606E-2,6.408567E-2,9.492743E-2,5.614179E-2,-3.2711636E-2,9.385022E-3,-3.9443444E-2,-8.756734E-2,1.3531287E-2,-2.3215786E-2,-7.844092E-2,3.1468164E-2,1.0911188E-2,-6.152406E-2,1.3217713E-2,8.4221706E-2],"split_indices":[0,1,4,1,0,0,1,4,0,1,0,1,1,0,1,0,0,0,0,0,0,0,0,0,0,0,0],"split_type":[0,0,0,0,0,0,0,0,0,0,0,0,0,0,0,0,0,0,0,0,0,0,0,0,0,0,0],"sum_hessian":[6.064243E2,5.5037445E2,5.604989E1,3.8422595E2,1.661485E2,3.9695118E1,1.6354767E1,3.5093283E2,3.3293114E1,1.6045174E2,5.696763E0,1.8676994E1,2.1018124E1,7.5311117E0,8.823656E0,3.3295697E2,1.7975876E1,1.3381399E1,1.9911713E1,2.221209E1,1.3823965E2,3.080982E0,1.5596013E1,5.1812744E0,1.583685E1,5.3555937E0,3.468062E0],"tree_param":{"num_deleted":"0","num_feature":"7","num_nodes":"27","size_leaf_vector":"1"}},{"base_weights":[-2.4682577E-1,-2.8655744E-1,3.8260862E-2,-2.628522E-1,-5.998636E-1,-2.1351461E-1,7.2018653E-1,-1.479412E-1,-3.0577314E-1,-5.04641E-1,-8.847996E-2,-7.4138176E-1,-8.391714E-2,1.9826058E-2,7.513468E-1,-7.359141E-2,-9.699696E-3,-9.3773685E-2,-2.8302891E-2,-8.607477E-2,-3.8725883E-2,2.7724026E-2,-9.17022E-2,7.706058E-2,-2.4234036E-2,9.465627E-2,5.2553456E-2],"categories":[],"categories_nodes":[],"categories_segments":[],"categories_sizes":[],"default_left":[0,0,0,0,0,0,0,0,0,0,0,0,0,0,0,0,0,0,0,0,0,0,0,0,0,0,0],"id":28,"left_children":[1,3,5,7,9,11,13,15,17,19,-1,21,23,-1,25,-1,-1,-1,-1,-1,-1,-1,-1,-1,-1,-1,-1],"loss_changes":[6.699974E0,3.692646E0,1.2707334E1,2.3405914E0,5.217285E-1,3.643696E0,1.7540836E-1,3.9270043E0,4.7833214E0,8.819995E-1,0E0,2.1418471E0,6.227416E0,0E0,3.1642342E-1,0E0,0E0,0E0,0E0,0E0,0E0,0E0,0E0,0E0,0E0,0E0,0E0],"parents":[2147483647,0,0,1,1,2,2,3,3,4,4,5,5,6,6,7,7,8,8,9,9,11,11,12,12,14,14],"right_children":[2,4,6,8,10,12,14,16,18,20,-1,22,24,-1,26,-1,-1,-1,-1,-1,-1,-1,-1,-1,-1,-1,-1],"split_conditions":[4.150275E1,3.9311718E1,1E0,1.6616777E-1,4.100556E1,6.307306E-2,4.2102936E1,2.0727745E1,1.7170314E-1,3.9651978E1,-8.847996E-2,4.2323004E-2,7.0620775E-2,1.9826058E-2,4.8916917E-2,-7.359141E-2,-9.699696E-3,-9.3773685E-2,-2.8302891E-2,-8.607477E-2,-3.8725883E-2,2.7724026E-2,-9.17022E-2,7.706058E-2,-2.4234036E-2,9.465627E-2,5.2553456E-2],"split_indices":[0,0,4,1,0,1,0,0,1,0,0,1,1,0,1,0,0,0,0,0,0,0,0,0,0,0,0],"split_type":[0,0,0,0,0,0,0,0,0,0,0,0,0,0,0,0,0,0,0,0,0,0,0,0,0,0,0],"sum_hessian":[5.895385E2,5.174218E2,7.21167E1,4.8273618E2,3.4685646E1,5.317187E1,1.8944824E1,1.3248497E2,3.5025122E2,2.8074512E1,6.611132E0,9.550561E0,4.362131E1,1.4821328E0,1.746269E1,9.491648E0,1.22993324E2,1.0770004E1,3.394812E2,5.389952E0,2.268456E1,1.3195282E0,8.231032E0,6.2179475E0,3.7403362E1,7.653977E0,9.808715E0],"tree_param":{"num_deleted":"0","num_feature":"7","num_nodes":"27","size_leaf_vector":"1"}},{"base_weights":[-2.2908726E-1,-2.6613966E-1,3.734116E-2,-2.4329194E-1,-5.765234E-1,-1.9711427E-1,6.9463384E-1,-2.51937E-1,2.5108084E-1,-4.8040104E-1,-8.7320395E-2,7.2984695E-1,-2.6672262E-1,1.8670043E-2,7.2701025E-1,-2.2712132E-2,-4.3972336E-2,-2.4710473E-2,1.1889237E-1,-8.4787704E-2,-3.6353853E-2,1.3520654E-1,-5.228115E-2,-6.952515E-2,-1.6701268E-2,9.316707E-2,4.9843397E-2],"categories":[],"categories_nodes":[],"categories_segments":[],"categories_sizes":[],"default_left":[0,0,0,0,0,0,0,0,0,0,0,0,0,0,0,0,0,0,0,0,0,0,0,0,0,0,0],"id":29,"left_children":[1,3,5,7,9,11,13,15,17,19,-1,21,23,-1,25,-1,-1,-1,-1,-1,-1,-1,-1,-1,-1,-1,-1],"loss_changes":[5.686289E0,3.440445E0,1.1090802E1,2.0806866E0,5.469656E-1,3.625487E0,1.7523003E-1,2.0643635E0,4.318166E0,8.864522E-1,0E0,3.8101861E0,2.0284107E0,0E0,3.5103607E-1,0E0,0E0,0E0,0E0,0E0,0E0,0E0,0E0,0E0,0E0,0E0,0E0],"parents":[2147483647,0,0,1,1,2,2,3,3,4,4,5,5,6,6,7,7,8,8,9,9,11,11,12,12,14,14],"right_children":[2,4,6,8,10,12,14,16,18,20,-1,22,24,-1,26,-1,-1,-1,-1,-1,-1,-1,-1,-1,-1,-1,-1],"split_conditions":[4.150275E1,3.9311718E1,1E0,3.8958828E1,4.100556E1,4.163657E1,4.2102936E1,3.515461E1,9.773685E-2,3.9651978E1,-8.7320395E-2,7.867735E-2,6.307306E-2,1.8670043E-2,4.8916917E-2,-2.2712132E-2,-4.3972336E-2,-2.4710473E-2,1.1889237E-1,-8.4787704E-2,-3.6353853E-2,1.3520654E-1,-5.228115E-2,-6.952515E-2,-1.6701268E-2,9.316707E-2,4.9843397E-2],"split_indices":[0,0,4,0,0,0,0,0,1,0,0,1,1,0,1,0,0,0,0,0,0,0,0,0,0,0,0],"split_type":[0,0,0,0,0,0,0,0,0,0,0,0,0,0,0,0,0,0,0,0,0,0,0,0,0,0,0],"sum_hessian":[5.740061E2,5.0392584E2,7.008024E1,4.710362E2,3.2889664E1,5.217102E1,1.7909222E1,4.6342273E2,7.613456E0,2.6819565E1,6.070097E0,2.9815285E0,4.918949E1,1.4786195E0,1.6430601E1,4.112819E2,5.2140846E1,5.4532094E0,2.1602466E0,4.961794E0,2.185777E1,1.9390233E0,1.0425051E0,8.157559E0,4.1031933E1,7.045921E0,9.384681E0],"tree_param":{"num_deleted":"0","num_feature":"7","num_nodes":"27","size_leaf_vector":"1"}},{"base_weights":[-2.1188466E-1,-2.3840776E-1,1.2200867E-1,-5.031707E-1,-2.2455996E-1,-1.3252625E-1,6.8417495E-1,-6.213891E-2,-7.207454E-1,1.762809E-1,-2.506214E-1,3.807091E-1,-3.8805726E-1,8.850958E-2,4.4428667E-1,-3.447333E-2,6.5244034E-2,-9.067776E-2,-4.516531E-2,-1.4788042E-2,8.539737E-2,-2.9183153E-2,-1.1157124E-2,-7.3558636E-2,8.124151E-2,2.1618856E-2,-5.8162082E-2,-4.091021E-2,6.327518E-2],"categories":[],"categories_nodes":[],"categories_segments":[],"categories_sizes":[],"default_left":[0,0,0,0,0,0,0,0,0,0,0,0,0,0,0,0,0,0,0,0,0,0,0,0,0,0,0,0,0],"id":30,"left_children":[1,3,5,7,9,11,13,15,17,19,21,23,25,-1,27,-1,-1,-1,-1,-1,-1,-1,-1,-1,-1,-1,-1,-1,-1],"loss_changes":[4.9943466E0,1.7926197E0,6.0892634E0,2.3567615E0,5.222765E0,4.04202E0,2.443161E-1,2.1154945E0,4.2469788E-1,6.9034615E0,2.6370296E0,5.5973186E0,2.5022655E0,0E0,1.5514902E0,0E0,0E0,0E0,0E0,0E0,0E0,0E0,0E0,0E0,0E0,0E0,0E0,0E0,0E0],"parents":[2147483647,0,0,1,1,2,2,3,3,4,4,5,5,6,6,7,7,8,8,9,9,10,10,11,11,12,12,14,14],"right_children":[2,4,6,8,10,12,14,16,18,20,22,24,26,-1,28,-1,-1,-1,-1,-1,-1,-1,-1,-1,-1,-1,-1,-1,-1],"split_conditions":[4.273286E1,1.9754585E1,1E0,1.7585236E1,2.1700563E1,4.3071106E1,4.8916917E-2,1.7133099E1,1.880442E1,1E0,3.0129817E-1,7.443618E-2,6.408567E-2,8.850958E-2,5.0560415E-2,-3.447333E-2,6.5244034E-2,-9.067776E-2,-4.516531E-2,-1.4788042E-2,8.539737E-2,-2.9183153E-2,-1.1157124E-2,-7.3558636E-2,8.124151E-2,2.1618856E-2,-5.8162082E-2,-4.091021E-2,6.327518E-2],"split_indices":[0,0,4,0,0,0,1,0,0,5,1,1,1,0,1,0,0,0,0,0,0,0,0,0,0,0,0,0,0],"split_type":[0,0,0,0,0,0,0,0,0,0,0,0,0,0,0,0,0,0,0,0,0,0,0,0,0,0,0,0,0],"sum_hessian":[5.596736E2,5.187521E2,4.0921535E1,2.4027246E1,4.9472482E2,2.8693907E1,1.2227629E1,8.362252E0,1.5664994E1,2.9849966E1,4.6487485E2,9.374765E0,1.9319141E1,5.190585E0,7.0370436E0,6.3633227E0,1.9989294E0,7.8608007E0,7.804193E0,2.07205E1,9.129465E0,3.5775012E2,1.07124725E2,2.4181256E0,6.9566402E0,4.658828E0,1.4660313E1,1.0611857E0,5.9758577E0],"tree_param":{"num_deleted":"0","num_feature":"7","num_nodes":"29","size_leaf_vector":"1"}},{"base_weights":[-1.9542465E-1,-2.2844322E-1,4.256266E-2,-2.0627862E-1,-5.398152E-1,-1.6600952E-1,6.560434E-1,-8.742666E-2,-2.5107345E-1,-4.4055414E-1,-8.5711665E-2,-7.037254E-1,-4.4130992E-2,1.9283345E-2,6.8707234E-1,1.2756253E-2,-2.336272E-2,-9.232024E-2,-2.2831237E-2,-8.30008E-2,-3.2156516E-2,2.9271213E-2,-8.984654E-2,2.3227002E-2,-5.094728E-2,9.070956E-2,4.5609605E-2],"categories":[],"categories_nodes":[],"categories_segments":[],"categories_sizes":[],"default_left":[0,0,0,0,0,0,0,0,0,0,0,0,0,0,0,0,0,0,0,0,0,0,0,0,0,0,0],"id":31,"left_children":[1,3,5,7,9,11,13,15,17,19,-1,21,23,-1,25,-1,-1,-1,-1,-1,-1,-1,-1,-1,-1,-1,-1],"loss_changes":[4.3185787E0,3.2129917E0,8.765209E0,2.3807354E0,6.1108494E-1,3.3299356E0,1.17115974E-1,3.9608588E0,4.795307E0,9.365125E-1,0E0,2.0888433E0,5.632995E0,0E0,3.936057E-1,0E0,0E0,0E0,0E0,0E0,0E0,0E0,0E0,0E0,0E0,0E0,0E0],"parents":[2147483647,0,0,1,1,2,2,3,3,4,4,5,5,6,6,7,7,8,8,9,9,11,11,12,12,14,14],"right_children":[2,4,6,8,10,12,14,16,18,20,-1,22,24,-1,26,-1,-1,-1,-1,-1,-1,-1,-1,-1,-1,-1,-1],"split_conditions":[4.150275E1,3.9311718E1,1E0,1.6616777E-1,4.100556E1,6.307306E-2,4.2102936E1,2.77142E1,1.7170314E-1,3.9651978E1,-8.5711665E-2,4.2323004E-2,9.322747E-2,1.9283345E-2,4.8916917E-2,1.2756253E-2,-2.336272E-2,-9.232024E-2,-2.2831237E-2,-8.30008E-2,-3.2156516E-2,2.9271213E-2,-8.984654E-2,2.3227002E-2,-5.094728E-2,9.070956E-2,4.5609605E-2],"split_indices":[0,0,4,1,0,1,0,0,1,0,0,1,1,0,1,0,0,0,0,0,0,0,0,0,0,0,0],"split_type":[0,0,0,0,0,0,0,0,0,0,0,0,0,0,0,0,0,0,0,0,0,0,0,0,0,0,0],"sum_hessian":[5.4733984E2,4.8068875E2,6.6651115E1,4.502974E2,3.0391348E1,5.0284653E1,1.6366459E1,1.2406729E2,3.262301E2,2.4968819E1,5.422528E0,8.409368E0,4.1875286E1,1.48045E0,1.4886009E1,5.0270927E1,7.3796364E1,9.389833E0,3.1684027E2,4.4449353E0,2.0523884E1,1.292559E0,7.116809E0,2.6585217E1,1.529007E1,6.1246104E0,8.761399E0],"tree_param":{"num_deleted":"0","num_feature":"7","num_nodes":"27","size_leaf_vector":"1"}},{"base_weights":[-1.8050909E-1,-2.2364178E-1,-1.03868265E-2,-6.8635935E-1,-1.9919181E-1,5.5838394E-1,-1.858998E-1,-4.4236112E-1,-9.161016E-2,1.0715737E-1,-2.3157476E-1,2.1675725E0,3.0140564E-1,-8.966702E-2,-1.0758576E-1,-8.396553E-2,-7.878373E-3,1.6513547E-1,-6.9530844E-3,-5.5613693E-2,-2.0458478E-2,3.2236602E-2,3.042277E-1,-8.409418E-2,6.2011745E-2,7.909999E-2,-1.5282454E-2],"categories":[],"categories_nodes":[],"categories_segments":[],"categories_sizes":[],"default_left":[0,0,0,0,0,0,0,0,0,0,0,0,0,0,0,0,0,0,0,0,0,0,0,0,0,0,0],"id":32,"left_children":[1,3,5,7,9,11,13,15,-1,17,19,21,23,-1,25,-1,-1,-1,-1,-1,-1,-1,-1,-1,-1,-1,-1],"loss_changes":[3.936964E0,4.7078724E0,1.1047857E1,7.765627E-1,4.073694E0,1.0140659E1,4.608656E0,1.6900027E0,0E0,1.0947001E1,3.1224194E0,4.559965E0,9.139026E0,0E0,3.2622042E0,0E0,0E0,0E0,0E0,0E0,0E0,0E0,0E0,0E0,0E0,0E0,0E0],"parents":[2147483647,0,0,1,1,2,2,3,3,4,4,5,5,6,6,7,7,9,9,10,10,11,11,12,12,14,14],"right_children":[2,4,6,8,10,12,14,16,-1,18,20,22,24,-1,26,-1,-1,-1,-1,-1,-1,-1,-1,-1,-1,-1,-1],"split_conditions":[1E0,5.9796665E-2,2.1180882E-1,5.2087743E-2,7.626532E-2,3.0122604E1,2.6279312E-1,3.8625626E1,-9.161016E-2,3.470045E1,8.705873E-2,1.8608299E-1,3.3780422E1,-8.966702E-2,2.7279112E-1,-8.396553E-2,-7.878373E-3,1.6513547E-1,-6.9530844E-3,-5.5613693E-2,-2.0458478E-2,3.2236602E-2,3.042277E-1,-8.409418E-2,6.2011745E-2,7.909999E-2,-1.5282454E-2],"split_indices":[4,1,1,1,1,0,1,0,0,0,1,1,0,0,1,0,0,0,0,0,0,0,0,0,0,0,0],"split_type":[0,0,0,0,0,0,0,0,0,0,0,0,0,0,0,0,0,0,0,0,0,0,0,0,0,0,0],"sum_hessian":[5.358462E2,4.272156E2,1.0863059E2,2.008242E1,4.0713318E2,2.5102264E1,8.352833E1,1.1157763E1,8.924658E0,3.8701378E1,3.6843182E2,2.4328706E0,2.2669394E1,7.252815E0,7.627551E1,4.7059617E0,6.4518013E0,3.1166575E0,3.5584717E1,2.678073E1,3.416511E2,1.2225083E0,1.2103623E0,4.587612E0,1.8081781E1,2.8658402E0,7.3409676E1],"tree_param":{"num_deleted":"0","num_feature":"7","num_nodes":"27","size_leaf_vector":"1"}},{"base_weights":[-1.660112E-1,-2.0624694E-1,-7.7256947E-3,-6.6579115E-1,-1.828811E-1,5.236263E-1,-1.7103611E-1,-4.2136678E-1,-9.061902E-2,9.861785E-2,-2.1352084E-1,1.8159107E0,2.8191173E-1,-5.7760924E-1,-3.9541572E-2,-8.262218E-2,-7.2460654E-3,1.3446686E-1,-6.3193897E-3,-5.3030323E-2,-1.88001E-2,2.994972E-2,2.4386428E-1,-8.2696885E-2,5.8074713E-2,-2.1201847E-2,-9.2023954E-2,5.7741772E-2,-1.7684346E-2],"categories":[],"categories_nodes":[],"categories_segments":[],"categories_sizes":[],"default_left":[0,0,0,0,0,0,0,0,0,0,0,0,0,0,0,0,0,0,0,0,0,0,0,0,0,0,0,0,0],"id":33,"left_children":[1,3,5,7,9,11,13,15,-1,17,19,21,23,25,27,-1,-1,-1,-1,-1,-1,-1,-1,-1,-1,-1,-1,-1,-1],"loss_changes":[3.3484259E0,4.3811817E0,9.430854E0,7.8819466E-1,3.474948E0,7.4701633E0,4.419618E0,1.5988472E0,0E0,8.148458E0,2.8223991E0,2.8984451E0,8.006079E0,2.3394036E0,5.511824E0,0E0,0E0,0E0,0E0,0E0,0E0,0E0,0E0,0E0,0E0,0E0,0E0,0E0,0E0],"parents":[2147483647,0,0,1,1,2,2,3,3,4,4,5,5,6,6,7,7,9,9,10,10,11,11,12,12,13,13,14,14],"right_children":[2,4,6,8,10,12,14,16,-1,18,20,22,24,26,28,-1,-1,-1,-1,-1,-1,-1,-1,-1,-1,-1,-1,-1,-1],"split_conditions":[1E0,5.9796665E-2,2.1180882E-1,5.2087743E-2,7.626532E-2,3.0122604E1,3.0450207E-1,3.8625626E1,-9.061902E-2,3.470045E1,8.705873E-2,1.8608299E-1,3.3780422E1,3.19773E1,3.366825E-1,-8.262218E-2,-7.2460654E-3,1.3446686E-1,-6.3193897E-3,-5.3030323E-2,-1.88001E-2,2.994972E-2,2.4386428E-1,-8.2696885E-2,5.8074713E-2,-2.1201847E-2,-9.2023954E-2,5.7741772E-2,-1.7684346E-2],"split_indices":[4,1,1,1,1,0,1,0,0,0,1,1,0,0,1,0,0,0,0,0,0,0,0,0,0,0,0,0,0],"split_type":[0,0,0,0,0,0,0,0,0,0,0,0,0,0,0,0,0,0,0,0,0,0,0,0,0,0,0,0,0],"sum_hessian":[5.250101E2,4.1836087E2,1.0664921E2,1.8912275E1,3.994486E2,2.4553812E1,8.20954E1,1.074259E1,8.169684E0,3.8992344E1,3.6045627E2,2.8427784E0,2.1711035E1,1.9233608E1,6.286179E1,4.3393593E0,6.403231E0,3.6413805E0,3.5350964E1,2.5398607E1,3.3505765E2,1.2586888E0,1.5840895E0,4.233732E0,1.7477303E1,1.0088185E1,9.145422E0,1.0859535E1,5.2002254E1],"tree_param":{"num_deleted":"0","num_feature":"7","num_nodes":"29","size_leaf_vector":"1"}},{"base_weights":[-1.5263802E-1,3.250903E-1,-1.6483226E-1,-3.4947622E-1,1.032079E-1,-4.5061484E-1,-1.5097418E-1,-5.464118E-1,4.2092774E-2,-7.3830844E-3,-6.836698E-1,2.1819963E-1,-1.7491885E-1,-8.254095E-2,4.0862057E-2,-4.274932E-2,4.331702E-2,-8.893003E-2,-3.9994117E-2,-4.156401E-3,1.0159468E-1,-3.946924E-2,-1.5520791E-2],"categories":[],"categories_nodes":[],"categories_segments":[],"categories_sizes":[],"default_left":[0,0,0,0,0,0,0,0,0,0,0,0,0,0,0,0,0,0,0,0,0,0,0],"id":34,"left_children":[1,3,5,7,-1,9,11,13,-1,15,17,19,21,-1,-1,-1,-1,-1,-1,-1,-1,-1,-1],"loss_changes":[3.061531E0,6.6502705E0,1.9286032E0,1.3672742E0,0E0,2.3514314E0,4.301902E0,2.0438952E0,0E0,1.8272798E0,5.159931E-1,6.222501E0,1.9033337E0,0E0,0E0,0E0,0E0,0E0,0E0,0E0,0E0,0E0,0E0],"parents":[2147483647,0,0,1,1,2,2,3,3,5,5,6,6,7,7,9,9,10,10,11,11,12,12],"right_children":[2,4,6,8,-1,10,12,14,-1,16,18,20,22,-1,-1,-1,-1,-1,-1,-1,-1,-1,-1],"split_conditions":[4.6898965E-2,1E0,1.9754585E1,4.3071106E1,1.032079E-1,1.7585236E1,2.1700563E1,4.4640686E-2,4.2092774E-2,1.6353235E1,1.880442E1,2.1376541E1,2.3408033E1,-8.254095E-2,4.0862057E-2,-4.274932E-2,4.331702E-2,-8.893003E-2,-3.9994117E-2,-4.156401E-3,1.0159468E-1,-3.946924E-2,-1.5520791E-2],"split_indices":[1,4,0,0,0,0,0,1,0,0,0,0,0,0,0,0,0,0,0,0,0,0,0],"split_type":[0,0,0,0,0,0,0,0,0,0,0,0,0,0,0,0,0,0,0,0,0,0,0],"sum_hessian":[5.153379E2,1.2188173E1,5.0314972E2,6.4958773E0,5.692296E0,2.1812572E1,4.8133716E2,5.40497E0,1.0909069E0,7.872351E0,1.3940221E1,2.8823877E1,4.5251328E2,4.288019E0,1.116951E0,4.0448456E0,3.8275058E0,6.845012E0,7.0952086E0,2.245873E1,6.3651476E0,3.5678642E1,4.1683466E2],"tree_param":{"num_deleted":"0","num_feature":"7","num_nodes":"23","size_leaf_vector":"1"}},{"base_weights":[-1.3976648E-1,-1.6310914E-1,9.724333E-2,-1.1175143E-1,-2.4021725E-1,-5.4949097E-2,5.4346323E-1,1.1005386E0,-1.3830599E-1,-5.087259E-1,-1.6230527E-1,1.7095108E-1,-3.9395252E-1,8.405284E-2,2.6890835E-1,2.2757101E-1,1.1818546E-2,-1.6409855E-2,6.372403E-2,-2.6785702E-2,-8.405126E-2,-2.607737E-2,1.5579604E-2,4.3303672E-2,-2.7664084E-2,-6.717285E-2,2.4985939E-3,-1.0613534E-2,7.515464E-2],"categories":[],"categories_nodes":[],"categories_segments":[],"categories_sizes":[],"default_left":[0,0,0,0,0,0,0,0,0,0,0,0,0,0,0,0,0,0,0,0,0,0,0,0,0,0,0,0,0],"id":35,"left_children":[1,3,5,7,9,11,13,15,17,19,21,23,25,-1,27,-1,-1,-1,-1,-1,-1,-1,-1,-1,-1,-1,-1,-1,-1],"loss_changes":[2.828601E0,1.8074684E0,3.1679986E0,9.162466E0,3.7731323E0,2.7756488E0,7.3998904E-1,6.7859282E0,5.6011095E0,3.0501127E0,4.561263E0,2.6912153E0,1.6977494E0,0E0,1.4600954E0,0E0,0E0,0E0,0E0,0E0,0E0,0E0,0E0,0E0,0E0,0E0,0E0,0E0,0E0],"parents":[2147483647,0,0,1,1,2,2,3,3,4,4,5,5,6,6,7,7,8,8,9,9,10,10,11,11,12,12,14,14],"right_children":[2,4,6,8,10,12,14,16,18,20,22,24,26,-1,28,-1,-1,-1,-1,-1,-1,-1,-1,-1,-1,-1,-1,-1,-1],"split_conditions":[4.2424023E1,3.1384882E1,1E0,9.222128E-2,3.273344E1,4.3235073E1,4.8916917E-2,1E0,3.1127304E1,1E0,3.0450207E-1,9.322747E-2,4.473661E1,8.405284E-2,5.614179E-2,2.2757101E-1,1.1818546E-2,-1.6409855E-2,6.372403E-2,-2.6785702E-2,-8.405126E-2,-2.607737E-2,1.5579604E-2,4.3303672E-2,-2.7664084E-2,-6.717285E-2,2.4985939E-3,-1.0613534E-2,7.515464E-2],"split_indices":[0,0,4,1,0,0,1,6,0,6,1,1,0,0,1,0,0,0,0,0,0,0,0,0,0,0,0,0,0],"split_type":[0,0,0,0,0,0,0,0,0,0,0,0,0,0,0,0,0,0,0,0,0,0,0,0,0,0,0,0,0],"sum_hessian":[5.0740848E2,4.6219916E2,4.520934E1,2.7889255E2,1.833066E2,3.436523E1,1.0844109E1,5.1111226E0,2.7378143E2,3.9983097E1,1.433235E2,2.0920353E1,1.3444877E1,4.2184134E0,6.625695E0,1.7277068E0,3.3834157E0,2.657323E2,8.049122E0,2.4212639E1,1.5770456E1,1.0958242E2,3.3741077E1,1.3214926E1,7.705427E0,7.7216516E0,5.723225E0,4.1674147E0,2.4582806E0],"tree_param":{"num_deleted":"0","num_feature":"7","num_nodes":"29","size_leaf_vector":"1"}},{"base_weights":[-1.2759562E-1,-1.458918E-1,1.4924674E-1,-4.2027664E-1,-1.3232335E-1,8.495618E-1,-3.14167E-2,5.4573524E-3,-6.580086E-1,1.7466046E-1,-1.5994881E-1,-3.268535E-1,1.6303805E0,4.5434675E-1,-4.5603237E-1,-2.7351746E-2,6.110421E-2,-8.761423E-2,-3.696045E-2,8.138472E-2,-6.5693944E-3,-4.715206E-2,-1.375098E-2,6.5884897E-3,-5.2511334E-2,2.709192E-1,5.4475293E-3,2.154704E-2,1.4527969E-1,-6.4919226E-2,-1.2484903E-3],"categories":[],"categories_nodes":[],"categories_segments":[],"categories_sizes":[],"default_left":[0,0,0,0,0,0,0,0,0,0,0,0,0,0,0,0,0,0,0,0,0,0,0,0,0,0,0,0,0,0,0],"id":36,"left_children":[1,3,5,7,9,11,13,15,17,19,21,23,25,27,29,-1,-1,-1,-1,-1,-1,-1,-1,-1,-1,-1,-1,-1,-1,-1,-1],"loss_changes":[2.5580568E0,1.6949139E0,4.0166116E0,2.1994789E0,3.8399463E0,6.5060625E0,5.576807E0,1.648072E0,5.525384E-1,5.828288E0,2.821968E0,3.0145252E-1,6.7812147E0,2.702417E0,1.2247477E0,0E0,0E0,0E0,0E0,0E0,0E0,0E0,0E0,0E0,0E0,0E0,0E0,0E0,0E0,0E0,0E0],"parents":[2147483647,0,0,1,1,2,2,3,3,4,4,5,5,6,6,7,7,8,8,9,9,10,10,11,11,12,12,13,13,14,14],"right_children":[2,4,6,8,10,12,14,16,18,20,22,24,26,28,30,-1,-1,-1,-1,-1,-1,-1,-1,-1,-1,-1,-1,-1,-1,-1,-1],"split_conditions":[4.28954E1,1.9754585E1,4.3071106E1,1.7585236E1,2.2102886E1,8.0947414E-2,6.408567E-2,1.7133099E1,1.880442E1,1.625108E-1,2.3408033E1,6.508966E-2,9.322747E-2,6.082879E-2,4.473661E1,-2.7351746E-2,6.110421E-2,-8.761423E-2,-3.696045E-2,8.138472E-2,-6.5693944E-3,-4.715206E-2,-1.375098E-2,6.5884897E-3,-5.2511334E-2,2.709192E-1,5.4475293E-3,2.154704E-2,1.4527969E-1,-6.4919226E-2,-1.2484903E-3],"split_indices":[0,0,0,0,0,1,1,0,0,1,0,1,1,1,0,0,0,0,0,0,0,0,0,0,0,0,0,0,0,0,0],"split_type":[0,0,0,0,0,0,0,0,0,0,0,0,0,0,0,0,0,0,0,0,0,0,0,0,0,0,0,0,0,0,0],"sum_hessian":[4.9973096E2,4.6919537E2,3.0535563E1,2.069623E1,4.4849915E2,5.502701E0,2.5032862E1,7.7659287E0,1.2930301E1,3.6588833E1,4.1191034E2,2.427189E0,3.0755117E0,1.1643077E1,1.3389785E1,5.6920934E0,2.0738358E0,6.2017355E0,6.728565E0,9.346684E0,2.7242146E1,2.6327837E1,3.855825E2,1.0382248E0,1.3889643E0,1.398804E0,1.6767077E0,1.0376366E1,1.2667111E0,9.004703E0,4.3850827E0],"tree_param":{"num_deleted":"0","num_feature":"7","num_nodes":"31","size_leaf_vector":"1"}},{"base_weights":[-1.162109E-1,3.0954173E-1,-1.2681195E-1,-3.1351778E-1,9.7715557E-1,-4.2034832E-1,-1.1444293E-1,-7.3689505E-2,1.03151694E-1,1.4402492E-1,6.05827E-1,-7.6286334E-1,1.2641169E-1,4.986684E-1,-1.2886131E-1,-6.0150307E-2,6.331577E-2,-1.7413235E-3,7.797714E-2,-3.7949674E-2,-8.9116514E-2,2.556177E-2,-2.0274466E-2,2.012509E-2,1.4703311E-1,-6.8263635E-2,-1.2155707E-2],"categories":[],"categories_nodes":[],"categories_segments":[],"categories_sizes":[],"default_left":[0,0,0,0,0,0,0,0,0,0,0,0,0,0,0,0,0,0,0,0,0,0,0,0,0,0,0],"id":37,"left_children":[1,3,5,7,9,11,13,-1,15,-1,17,19,21,23,25,-1,-1,-1,-1,-1,-1,-1,-1,-1,-1,-1,-1],"loss_changes":[2.270286E0,5.422579E0,1.7055883E0,1.3319046E0,1.9025087E-1,3.6838462E0,4.173606E0,0E0,2.0484881E0,0E0,5.7254946E-1,2.4810982E-1,4.0209436E-1,2.8500438E0,1.7573252E0,0E0,0E0,0E0,0E0,0E0,0E0,0E0,0E0,0E0,0E0,0E0,0E0],"parents":[2147483647,0,0,1,1,2,2,3,3,4,4,5,5,6,6,8,8,10,10,11,11,12,12,13,13,14,14],"right_children":[2,4,6,8,10,12,14,-1,16,-1,18,20,22,24,26,-1,-1,-1,-1,-1,-1,-1,-1,-1,-1,-1,-1],"split_conditions":[4.6898965E-2,1E0,5.9796665E-2,3.8958828E1,4.087677E1,1E0,6.408567E-2,-7.3689505E-2,3.871661E-2,1.4402492E-1,4.2424023E1,5.2087743E-2,5.4702774E-2,4.3642277E1,6.605369E-2,-6.0150307E-2,6.331577E-2,-1.7413235E-3,7.797714E-2,-3.7949674E-2,-8.9116514E-2,2.556177E-2,-2.0274466E-2,2.012509E-2,1.4703311E-1,-6.8263635E-2,-1.2155707E-2],"split_indices":[1,4,1,0,0,4,1,0,1,0,0,1,1,0,1,0,0,0,0,0,0,0,0,0,0,0,0],"split_type":[0,0,0,0,0,0,0,0,0,0,0,0,0,0,0,0,0,0,0,0,0,0,0,0,0,0,0],"sum_hessian":[4.9331018E2,1.1299703E1,4.8201047E2,6.119235E0,5.1804676E0,1.8156E1,4.6385446E2,2.653987E0,3.4652483E0,1.0243435E0,4.156124E0,1.0919987E1,7.2360144E0,9.886033E0,4.5396844E2,1.4296278E0,2.0356205E0,1.1032146E0,3.0529094E0,3.7306426E0,7.189344E0,5.3567195E0,1.8792945E0,8.493398E0,1.3926352E0,4.7062182E0,4.492622E2],"tree_param":{"num_deleted":"0","num_feature":"7","num_nodes":"27","size_leaf_vector":"1"}},{"base_weights":[-1.0587054E-1,5.903505E-2,-1.330747E-1,1.263624E0,-1.2371356E-2,-4.740953E-1,-1.1196175E-1,4.408249E-3,2.2743002E-1,-1.5785311E-1,4.6623677E-1,-1.870588E-1,-9.133101E-2,2.785536E-1,-1.4333813E-1,-5.9040386E-2,4.1477084E-3,-1.8953634E-2,6.0600497E-2,-5.43152E-2,4.45171E-2,8.319038E-2,-1.110338E-2,-1.1668288E-2,-5.077916E-2],"categories":[],"categories_nodes":[],"categories_segments":[],"categories_sizes":[],"default_left":[0,0,0,0,0,0,0,0,0,0,0,0,0,0,0,0,0,0,0,0,0,0,0,0,0],"id":38,"left_children":[1,3,5,7,9,11,13,-1,-1,15,17,19,-1,21,23,-1,-1,-1,-1,-1,-1,-1,-1,-1,-1],"loss_changes":[2.1974869E0,6.0203543E0,2.9657154E0,4.726884E0,4.7313094E0,2.8719373E0,4.8938704E0,0E0,0E0,4.512005E0,1.5672908E0,3.8110485E0,0E0,6.5168834E0,3.5093431E0,0E0,0E0,0E0,0E0,0E0,0E0,0E0,0E0,0E0,0E0],"parents":[2147483647,0,0,1,1,2,2,3,3,4,4,5,5,6,6,9,9,10,10,11,11,13,13,14,14],"right_children":[2,4,6,8,10,12,14,-1,-1,16,18,20,-1,22,24,-1,-1,-1,-1,-1,-1,-1,-1,-1,-1],"split_conditions":[7.626532E-2,3.0122604E1,8.705873E-2,6.892281E-2,1E0,8.333564E-2,1.0089195E-1,4.408249E-3,2.2743002E-1,5.9796665E-2,1E0,4.150275E1,-9.133101E-2,3.918286E1,3.549242E1,-5.9040386E-2,4.1477084E-3,-1.8953634E-2,6.0600497E-2,-5.43152E-2,4.45171E-2,8.319038E-2,-1.110338E-2,-1.1668288E-2,-5.077916E-2],"split_indices":[1,0,1,1,4,1,1,0,0,1,2,0,0,0,0,0,0,0,0,0,0,0,0,0,0],"split_type":[0,0,0,0,0,0,0,0,0,0,0,0,0,0,0,0,0,0,0,0,0,0,0,0,0],"sum_hessian":[4.8709012E2,6.8809875E1,4.1828024E2,2.9163496E0,6.5893524E1,2.3135513E1,3.9514474E2,1.7945529E0,1.1217966E0,5.1047024E1,1.48465E1,1.4853995E1,8.281518E0,2.8801306E1,3.6634344E2,1.548415E1,3.5562874E1,2.5458148E0,1.2300685E1,9.592225E0,5.2617702E0,1.1430564E1,1.737074E1,3.426062E2,2.3737234E1],"tree_param":{"num_deleted":"0","num_feature":"7","num_nodes":"25","size_leaf_vector":"1"}},{"base_weights":[-9.662036E-2,3.2128832E-1,-1.0667025E-1,-2.6488817E-1,9.296925E-1,-4.1205046E-1,-9.470691E-2,-7.1044706E-2,1.4190264E-1,1.4016642E-1,5.37865E-1,-7.309274E-1,7.462888E-2,1.7715238E-1,-1.2180421E-1,-5.715535E-2,6.285526E-2,-1.3475602E-2,7.598629E-2,-3.317301E-2,-8.7310255E-2,2.0309426E-2,-2.2630101E-2,9.635674E-2,5.5794013E-3,-4.510429E-2,-1.0203527E-2],"categories":[],"categories_nodes":[],"categories_segments":[],"categories_sizes":[],"default_left":[0,0,0,0,0,0,0,0,0,0,0,0,0,0,0,0,0,0,0,0,0,0,0,0,0,0,0],"id":39,"left_children":[1,3,5,7,9,11,13,-1,15,-1,17,19,21,23,25,-1,-1,-1,-1,-1,-1,-1,-1,-1,-1,-1,-1],"loss_changes":[2.0579634E0,4.370511E0,1.682713E0,1.3093953E0,3.3651686E-1,2.7653952E0,3.3719754E0,0E0,1.8588889E0,0E0,8.2576215E-1,3.1458282E-1,3.483495E-1,3.9194062E0,2.6497197E0,0E0,0E0,0E0,0E0,0E0,0E0,0E0,0E0,0E0,0E0,0E0,0E0],"parents":[2147483647,0,0,1,1,2,2,3,3,4,4,5,5,6,6,8,8,10,10,11,11,12,12,13,13,14,14],"right_children":[2,4,6,8,10,12,14,-1,16,-1,18,20,22,24,26,-1,-1,-1,-1,-1,-1,-1,-1,-1,-1,-1,-1],"split_conditions":[4.6898965E-2,1E0,5.9796665E-2,3.8958828E1,4.052587E1,1E0,7.626532E-2,-7.1044706E-2,3.871661E-2,1.4016642E-1,4.2278545E1,5.2087743E-2,5.4702774E-2,3.470045E1,8.705873E-2,-5.715535E-2,6.285526E-2,-1.3475602E-2,7.598629E-2,-3.317301E-2,-8.7310255E-2,2.0309426E-2,-2.2630101E-2,9.635674E-2,5.5794013E-3,-4.510429E-2,-1.0203527E-2],"split_indices":[1,4,1,0,0,4,1,0,1,0,0,1,1,0,1,0,0,0,0,0,0,0,0,0,0,0,0],"split_type":[0,0,0,0,0,0,0,0,0,0,0,0,0,0,0,0,0,0,0,0,0,0,0,0,0,0,0],"sum_hessian":[4.8083823E2,1.05644245E1,4.702738E2,5.668061E0,4.8963633E0,1.6467829E1,4.5380597E2,2.3488703E0,3.3191907E0,1.0519731E0,3.8443902E0,9.645886E0,6.8219433E0,4.063085E1,4.1317514E2,1.2752042E0,2.0439866E0,1.0514959E0,2.7928944E0,3.4085777E0,6.2373085E0,5.0088167E0,1.8131266E0,4.504081E0,3.612677E1,2.2167887E1,3.9100723E2],"tree_param":{"num_deleted":"0","num_feature":"7","num_nodes":"27","size_leaf_vector":"1"}},{"base_weights":[-8.793918E-2,-1.1059984E-1,7.997436E-2,-8.878516E-2,-4.382974E-1,2.2272384E-1,-3.9183578E-1,-1.0558907E-1,3.281632E-1,-3.2546422E-1,-8.202602E-2,9.845431E-2,1.2240275E0,-7.3167175E-1,3.716715E-1,-7.734598E-3,-3.9466225E-2,-9.084614E-3,1.3130084E-1,-1.9254623E-2,-7.8981236E-2,2.4065925E-2,-8.471794E-2,-5.939847E-2,2.0795059E-1,-9.262314E-2,4.2437773E-2,8.078938E-2,-5.5742245E-2],"categories":[],"categories_nodes":[],"categories_segments":[],"categories_sizes":[],"default_left":[0,0,0,0,0,0,0,0,0,0,0,0,0,0,0,0,0,0,0,0,0,0,0,0,0,0,0,0,0],"id":40,"left_children":[1,3,5,7,9,11,13,15,17,19,-1,21,23,25,27,-1,-1,-1,-1,-1,-1,-1,-1,-1,-1,-1,-1,-1,-1],"loss_changes":[1.8233798E0,2.9677453E0,3.945424E0,2.806341E0,8.5346174E-1,5.4311438E0,3.8184524E0,3.0802999E0,6.5440326E0,1.1888909E0,0E0,5.6874175E0,8.760213E0,2.5962448E0,2.425362E0,0E0,0E0,0E0,0E0,0E0,0E0,0E0,0E0,0E0,0E0,0E0,0E0,0E0,0E0],"parents":[2147483647,0,0,1,1,2,2,3,3,4,4,5,5,6,6,7,7,8,8,9,9,11,11,12,12,13,13,14,14],"right_children":[2,4,6,8,10,12,14,16,18,20,-1,22,24,26,28,-1,-1,-1,-1,-1,-1,-1,-1,-1,-1,-1,-1,-1,-1],"split_conditions":[4.150275E1,3.9311718E1,9.322747E-2,3.835191E1,4.100556E1,8.9639686E-2,1.1011801E-1,3.515461E1,9.773685E-2,9.864872E-2,-8.202602E-2,8.333564E-2,4.257677E1,4.441492E1,4.3071106E1,-7.734598E-3,-3.9466225E-2,-9.084614E-3,1.3130084E-1,-1.9254623E-2,-7.8981236E-2,2.4065925E-2,-8.471794E-2,-5.939847E-2,2.0795059E-1,-9.262314E-2,4.2437773E-2,8.078938E-2,-5.5742245E-2],"split_indices":[0,0,1,0,0,1,1,0,1,1,0,1,0,0,0,0,0,0,0,0,0,0,0,0,0,0,0,0,0],"split_type":[0,0,0,0,0,0,0,0,0,0,0,0,0,0,0,0,0,0,0,0,0,0,0,0,0,0,0,0,0],"sum_hessian":[4.7587772E2,4.1959314E2,5.6284576E1,3.94596E2,2.4997143E1,4.3616142E1,1.2668433E1,3.8002686E2,1.4569144E1,2.0726534E1,4.2706094E0,3.9777744E1,3.8383994E0,8.795338E0,3.8730958E0,3.4735687E2,3.2669975E1,1.0857499E1,3.7116446E0,1.7213802E1,3.5127308E0,3.522595E1,4.551793E0,1.3260424E0,2.512357E0,7.6985E0,1.0968373E0,2.7244017E0,1.1486942E0],"tree_param":{"num_deleted":"0","num_feature":"7","num_nodes":"29","size_leaf_vector":"1"}},{"base_weights":[-8.039735E-2,-3.7495932E-1,-6.7087546E-2,4.1850943E-2,-6.227694E-1,2.3506609E-1,-8.78487E-2,-2.3821954E-1,6.1718877E-2,-8.588774E-2,-3.2571465E-1,-7.501522E-2,8.148774E-1,-1.2437365E-1,3.6205374E-2,-7.198148E-2,2.3019698E-2,2.0064313E-2,-7.71372E-2,-3.7391946E-2,1.1935138E-1,-1.766911E-2,1.743243E-1,-5.5835385E-2,-1.0274563E-2,-1.2836891E-2,3.6627784E-2],"categories":[],"categories_nodes":[],"categories_segments":[],"categories_sizes":[],"default_left":[0,0,0,0,0,0,0,0,0,0,0,0,0,0,0,0,0,0,0,0,0,0,0,0,0,0,0],"id":41,"left_children":[1,3,5,7,9,11,13,15,-1,-1,17,19,21,23,25,-1,-1,-1,-1,-1,-1,-1,-1,-1,-1,-1,-1],"loss_changes":[1.8273103E0,2.1134515E0,2.8641694E0,1.5121902E0,6.135769E-1,5.3496943E0,1.9296424E0,1.6139228E0,0E0,0E0,1.8557599E0,8.060518E0,9.820907E0,3.0255957E0,5.33878E0,0E0,0E0,0E0,0E0,0E0,0E0,0E0,0E0,0E0,0E0,0E0,0E0],"parents":[2147483647,0,0,1,1,2,2,3,3,4,4,5,5,6,6,7,7,10,10,11,11,12,12,13,13,14,14],"right_children":[2,4,6,8,10,12,14,16,-1,-1,18,20,22,24,26,-1,-1,-1,-1,-1,-1,-1,-1,-1,-1,-1,-1],"split_conditions":[1.9754585E1,1.7585236E1,2.1700563E1,2.315912E-1,1.880442E1,1E0,1E0,1.6353235E1,6.1718877E-2,-8.588774E-2,1.935235E1,2.1477682E1,2.0444115E-1,5.9796665E-2,3.3524906E1,-7.198148E-2,2.3019698E-2,2.0064313E-2,-7.71372E-2,-3.7391946E-2,1.1935138E-1,-1.766911E-2,1.743243E-1,-5.5835385E-2,-1.0274563E-2,-1.2836891E-2,3.6627784E-2],"split_indices":[0,0,0,1,0,5,4,0,0,0,0,0,1,1,0,0,0,0,0,0,0,0,0,0,0,0,0],"split_type":[0,0,0,0,0,0,0,0,0,0,0,0,0,0,0,0,0,0,0,0,0,0,0,0,0,0,0],"sum_hessian":[4.714997E2,1.9209044E1,4.5229065E2,7.472167E0,1.17368765E1,2.8415462E1,4.2387518E2,5.419796E0,2.0523713E0,5.485516E0,6.2513604E0,1.9081406E1,9.334056E0,3.2745947E2,9.641571E1,2.407679E0,3.0121167E0,3.1182425E0,3.133118E0,1.6013393E1,3.068012E0,4.9049034E0,4.429153E0,1.4366676E1,3.130928E2,6.474494E1,3.1670767E1],"tree_param":{"num_deleted":"0","num_feature":"7","num_nodes":"27","size_leaf_vector":"1"}},{"base_weights":[-7.3282585E-2,3.3045313E-1,-8.274883E-2,-2.1179229E-1,8.660145E-1,-4.0334862E-1,-7.101378E-2,-6.772754E-2,1.7389187E-1,1.3369974E-1,4.6185583E-1,-6.950113E-1,2.0515883E-2,4.4388717E-1,-8.3824866E-2,-5.4407723E-2,6.215951E-2,-1.8865602E-2,7.3040284E-2,-2.8051615E-2,-8.528548E-2,-2.5497887E-2,1.5594477E-2,1.7041674E-2,1.3185345E-1,-6.725254E-2,-7.619013E-3],"categories":[],"categories_nodes":[],"categories_segments":[],"categories_sizes":[],"default_left":[0,0,0,0,0,0,0,0,0,0,0,0,0,0,0,0,0,0,0,0,0,0,0,0,0,0,0],"id":42,"left_children":[1,3,5,7,9,11,13,-1,15,-1,17,19,21,23,25,-1,-1,-1,-1,-1,-1,-1,-1,-1,-1,-1,-1],"loss_changes":[1.8167357E0,3.3565211E0,1.6954944E0,1.236752E0,4.6628952E-1,1.9883528E0,2.9614398E0,0E0,1.6896125E0,0E0,9.3997335E-1,3.8151693E-1,3.188534E-1,2.387447E0,1.8966353E0,0E0,0E0,0E0,0E0,0E0,0E0,0E0,0E0,0E0,0E0,0E0,0E0],"parents":[2147483647,0,0,1,1,2,2,3,3,4,4,5,5,6,6,8,8,10,10,11,11,12,12,13,13,14,14],"right_children":[2,4,6,8,10,12,14,-1,16,-1,18,20,22,24,26,-1,-1,-1,-1,-1,-1,-1,-1,-1,-1,-1,-1],"split_conditions":[4.6898965E-2,1E0,5.9796665E-2,3.8958828E1,4.0315956E1,1E0,6.408567E-2,-6.772754E-2,3.871661E-2,1.3369974E-1,4.2278545E1,5.2087743E-2,4.257677E1,4.3642277E1,6.605369E-2,-5.4407723E-2,6.215951E-2,-1.8865602E-2,7.3040284E-2,-2.8051615E-2,-8.528548E-2,-2.5497887E-2,1.5594477E-2,1.7041674E-2,1.3185345E-1,-6.725254E-2,-7.619013E-3],"split_indices":[1,4,1,0,0,4,1,0,1,0,0,1,0,0,1,0,0,0,0,0,0,0,0,0,0,0,0],"split_type":[0,0,0,0,0,0,0,0,0,0,0,0,0,0,0,0,0,0,0,0,0,0,0,0,0,0,0],"sum_hessian":[4.6719913E2,9.926458E0,4.5727264E2,5.2328453E0,4.6936126E0,1.4968345E1,4.4230432E2,2.028549E0,3.2042966E0,1.1016794E0,3.5919333E0,8.488012E0,6.4803324E0,9.920796E0,4.323835E2,1.148007E0,2.0562897E0,1.1364821E0,2.4554513E0,3.1067913E0,5.381221E0,1.8448056E0,4.6355267E0,8.468E0,1.4527959E0,4.420744E0,4.2796277E2],"tree_param":{"num_deleted":"0","num_feature":"7","num_nodes":"27","size_leaf_vector":"1"}},{"base_weights":[-6.644943E-2,4.2786874E-2,-1.01813026E-1,-1.1604223E-2,9.1861427E-1,-7.6261714E-2,-4.646084E-1,8.007577E-1,-6.754731E-2,1.8717144E0,-7.11446E-2,-1.4947508E-1,3.8485713E-2,-7.3473704E-1,3.6009148E-1,1.6882293E-1,2.1029923E-3,-8.3987E-2,-2.3439082E-3,-5.5838834E-2,2.932497E-1,-8.750146E-3,-5.7852335E-2,4.0995818E-2,-2.4849423E-3,-9.197675E-2,-4.109751E-2,-1.1255171E-2,6.537479E-2],"categories":[],"categories_nodes":[],"categories_segments":[],"categories_sizes":[],"default_left":[0,0,0,0,0,0,0,0,0,0,0,0,0,0,0,0,0,0,0,0,0,0,0,0,0,0,0,0,0],"id":43,"left_children":[1,3,5,7,9,11,13,15,17,19,-1,21,23,25,27,-1,-1,-1,-1,-1,-1,-1,-1,-1,-1,-1,-1,-1,-1],"loss_changes":[1.7983606E0,5.4546685E0,3.2194867E0,4.988891E0,1.1732445E1,2.7715592E0,5.367483E0,4.8594418E0,3.4724736E0,1.3237462E1,0E0,5.2989535E0,3.0459495E0,6.753435E-1,9.5114577E-1,0E0,0E0,0E0,0E0,0E0,0E0,0E0,0E0,0E0,0E0,0E0,0E0,0E0,0E0],"parents":[2147483647,0,0,1,1,2,2,3,3,4,4,5,5,6,6,7,7,8,8,9,9,11,11,12,12,13,13,14,14],"right_children":[2,4,6,8,10,12,14,16,18,20,-1,22,24,26,28,-1,-1,-1,-1,-1,-1,-1,-1,-1,-1,-1,-1,-1,-1],"split_conditions":[1.0089195E-1,9.773685E-2,3.549242E1,3.0122604E1,4.087677E1,2.609558E-1,4.2424023E1,1E0,3.4450714E1,3.645457E1,-7.11446E-2,2.3725754E-1,2.7650928E-1,3.8722614E1,1.1011801E-1,1.6882293E-1,2.1029923E-3,-8.3987E-2,-2.3439082E-3,-5.5838834E-2,2.932497E-1,-8.750146E-3,-5.7852335E-2,4.0995818E-2,-2.4849423E-3,-9.197675E-2,-4.109751E-2,-1.1255171E-2,6.537479E-2],"split_indices":[1,1,0,0,0,1,0,6,0,0,0,1,1,0,1,0,0,0,0,0,0,0,0,0,0,0,0,0,0],"split_type":[0,0,0,0,0,0,0,0,0,0,0,0,0,0,0,0,0,0,0,0,0,0,0,0,0,0,0,0,0],"sum_hessian":[4.6340836E2,1.13280594E2,3.5012778E2,1.0758598E2,5.694611E0,3.2822165E2,2.1906115E1,6.073761E0,1.0151222E2,3.4999397E0,2.1946716E0,2.0018994E2,1.2803171E2,1.6583359E1,5.322757E0,2.2956936E0,3.7780674E0,4.5095825E0,9.700264E1,1.2074497E0,2.29249E0,1.7597525E2,2.42147E1,1.7852224E1,1.1017949E2,9.3811455E0,7.202213E0,2.2760897E0,3.046667E0],"tree_param":{"num_deleted":"0","num_feature":"7","num_nodes":"29","size_leaf_vector":"1"}},{"base_weights":[-6.0438156E-2,-3.466175E-1,-4.779659E-2,5.1274102E-2,-5.966967E-1,2.017063E-1,-7.018075E-2,-3.504302E-1,4.0724578E-1,-8.447108E-2,-2.9873404E-1,7.501061E-1,-2.2731889E-2,-4.0869045E-1,-4.82994E-2,-7.23805E-2,4.6670448E-2,8.333234E-2,-7.958982E-3,1.986117E-2,-7.5279586E-2,-5.4452557E-2,2.1250582E-1,-4.8908982E-2,3.935519E-2,-5.5699598E-2,1.3450551E-2,1.4339426E-1,-5.9272656E-3],"categories":[],"categories_nodes":[],"categories_segments":[],"categories_sizes":[],"default_left":[0,0,0,0,0,0,0,0,0,0,0,0,0,0,0,0,0,0,0,0,0,0,0,0,0,0,0,0,0],"id":44,"left_children":[1,3,5,7,9,11,13,15,17,-1,19,21,23,25,27,-1,-1,-1,-1,-1,-1,-1,-1,-1,-1,-1,-1,-1,-1],"loss_changes":[1.6531012E0,1.9574585E0,2.4891434E0,1.3430835E0,6.322346E-1,4.5394077E0,2.9979916E0,1.7050648E0,1.0854449E0,0E0,1.7268324E0,2.0203346E1,5.442516E0,2.0568566E0,6.3276873E0,0E0,0E0,0E0,0E0,0E0,0E0,0E0,0E0,0E0,0E0,0E0,0E0,0E0,0E0],"parents":[2147483647,0,0,1,1,2,2,3,3,4,4,5,5,6,6,7,7,8,8,10,10,11,11,12,12,13,13,14,14],"right_children":[2,4,6,8,10,12,14,16,18,-1,20,22,24,26,28,-1,-1,-1,-1,-1,-1,-1,-1,-1,-1,-1,-1,-1,-1],"split_conditions":[1.9754585E1,1.7585236E1,2.2102886E1,1.6353235E1,1.880442E1,1.625108E-1,2.3408033E1,2.534332E-1,1.9070509E-1,-8.447108E-2,1.935235E1,2.1376541E1,2.1545981E-1,2.428583E-1,2.349234E1,-7.23805E-2,4.6670448E-2,8.333234E-2,-7.958982E-3,1.986117E-2,-7.5279586E-2,-5.4452557E-2,2.1250582E-1,-4.8908982E-2,3.935519E-2,-5.5699598E-2,1.3450551E-2,1.4339426E-1,-5.9272656E-3],"split_indices":[0,0,0,0,0,1,0,1,1,0,0,0,1,1,0,0,0,0,0,0,0,0,0,0,0,0,0,0,0],"split_type":[0,0,0,0,0,0,0,0,0,0,0,0,0,0,0,0,0,0,0,0,0,0,0,0,0,0,0,0,0],"sum_hessian":[4.6052063E2,1.83646E1,4.4215604E2,7.394484E0,1.0970116E1,3.5742672E1,4.0641336E2,3.4813938E0,3.9130902E0,4.9854445E0,5.984671E0,9.699772E0,2.6042898E1,2.3602316E1,3.8281104E2,2.4679327E0,1.013461E0,1.7072203E0,2.20587E0,3.1246974E0,2.8599737E0,5.306875E0,4.3928967E0,1.2200228E1,1.384267E1,1.8520397E1,5.0819187E0,1.8602234E0,3.809508E2],"tree_param":{"num_deleted":"0","num_feature":"7","num_nodes":"29","size_leaf_vector":"1"}},{"base_weights":[-5.4842275E-2,3.1670108E-1,-6.365544E-2,-1.9636458E-1,8.124815E-1,-3.7802354E-1,-5.2416116E-2,-6.581427E-2,1.6185638E-1,1.412106E-1,3.7736765E-1,-6.7323107E-1,2.5315411E-2,1.9187462E-1,-7.641633E-2,-5.2815177E-2,5.6428965E-2,-4.075502E-2,7.381654E-2,-2.6067842E-2,-8.4031515E-2,1.5277805E-2,-2.4856381E-2,7.9538785E-2,9.358917E-3,-3.6344253E-2,-5.8462094E-3],"categories":[],"categories_nodes":[],"categories_segments":[],"categories_sizes":[],"default_left":[0,0,0,0,0,0,0,0,0,0,0,0,0,0,0,0,0,0,0,0,0,0,0,0,0,0,0],"id":45,"left_children":[1,3,5,7,9,11,13,-1,15,-1,17,19,21,23,25,-1,-1,-1,-1,-1,-1,-1,-1,-1,-1,-1,-1],"loss_changes":[1.5231063E0,2.9073513E0,1.5672882E0,1.1179041E0,9.51257E-1,1.844038E0,2.5641532E0,0E0,1.4769905E0,0E0,1.6208503E0,3.941474E-1,2.9798675E-1,2.249821E0,2.0228643E0,0E0,0E0,0E0,0E0,0E0,0E0,0E0,0E0,0E0,0E0,0E0,0E0],"parents":[2147483647,0,0,1,1,2,2,3,3,4,4,5,5,6,6,8,8,10,10,11,11,12,12,13,13,14,14],"right_children":[2,4,6,8,10,12,14,-1,16,-1,18,20,22,24,26,-1,-1,-1,-1,-1,-1,-1,-1,-1,-1,-1,-1],"split_conditions":[4.6898965E-2,1E0,5.9796665E-2,3.8958828E1,3.9651978E1,1E0,7.5386874E-2,-6.581427E-2,3.871661E-2,1.412106E-1,4.2102936E1,3.8722614E1,5.4702774E-2,1E0,8.705873E-2,-5.2815177E-2,5.6428965E-2,-4.075502E-2,7.381654E-2,-2.6067842E-2,-8.4031515E-2,1.5277805E-2,-2.4856381E-2,7.9538785E-2,9.358917E-3,-3.6344253E-2,-5.8462094E-3],"split_indices":[1,4,1,0,0,4,1,0,1,0,0,0,1,6,1,0,0,0,0,0,0,0,0,0,0,0,0],"split_type":[0,0,0,0,0,0,0,0,0,0,0,0,0,0,0,0,0,0,0,0,0,0,0,0,0,0,0],"sum_hessian":[4.5798846E2,9.802498E0,4.4818597E2,5.114063E0,4.6884346E0,1.4344042E1,4.3384192E2,1.868347E0,3.2457159E0,1.0273232E0,3.6611114E0,7.89585E0,6.448191E0,3.818401E1,3.956579E2,1.0805756E0,2.1651402E0,1.1121157E0,2.5489955E0,3.0140142E0,4.881836E0,4.702043E0,1.746148E0,4.3542833E0,3.3829727E1,2.215961E1,3.734983E2],"tree_param":{"num_deleted":"0","num_feature":"7","num_nodes":"27","size_leaf_vector":"1"}},{"base_weights":[-4.9720865E-2,2.0313336E-2,-9.639472E-2,-2.0832246E-2,6.3774574E-1,-8.915981E-2,-7.174945E-2,-6.559639E-2,4.1001478E-1,6.579285E-2,1.6239638E0,2.3076537E-1,-9.5836684E-2,-4.940419E-2,-2.519269E-3,8.953138E-2,1.8475715E-2,1.2799788E-1,-3.1550076E-2,2.251622E-1,2.329876E-2,-3.0506656E-2,-2.657087E-3],"categories":[],"categories_nodes":[],"categories_segments":[],"categories_sizes":[],"default_left":[0,0,0,0,0,0,0,0,0,0,0,0,0,0,0,0,0,0,0,0,0,0,0],"id":46,"left_children":[1,3,5,7,9,-1,11,13,15,17,19,-1,21,-1,-1,-1,-1,-1,-1,-1,-1,-1,-1],"loss_changes":[1.4919851E0,4.6654925E0,5.3002615E0,3.3567452E0,6.3645015E0,0E0,1.5499313E1,2.7099185E0,1.6260521E0,4.2480826E0,3.1151628E0,0E0,3.8303921E0,0E0,0E0,0E0,0E0,0E0,0E0,0E0,0E0,0E0,0E0],"parents":[2147483647,0,0,1,1,2,2,3,3,4,4,6,6,7,7,8,8,9,9,10,10,12,12],"right_children":[2,4,6,8,10,-1,12,14,16,18,20,-1,22,-1,-1,-1,-1,-1,-1,-1,-1,-1,-1],"split_conditions":[1.6616777E-1,1.5856569E-1,1.7170314E-1,1E0,1E0,-8.915981E-2,1.7274068E-1,5.9796665E-2,4.4640686E-2,1.59886E-1,2.5710066E1,2.3076537E-1,2.099129E-1,-4.940419E-2,-2.519269E-3,8.953138E-2,1.8475715E-2,1.2799788E-1,-3.1550076E-2,2.251622E-1,2.329876E-2,-3.0506656E-2,-2.657087E-3],"split_indices":[1,1,1,4,5,0,1,1,1,1,0,0,1,0,0,0,0,0,0,0,0,0,0],"split_type":[0,0,0,0,0,0,0,0,0,0,0,0,0,0,0,0,0,0,0,0,0,0,0],"sum_hessian":[4.548378E2,1.8212447E2,2.7271335E2,1.7165189E2,1.04725895E1,7.140513E0,2.655728E2,1.562641E2,1.5387776E1,7.303607E0,3.1689827E0,1.7114067E0,2.6386142E2,1.2498708E1,1.437654E2,3.9351661E0,1.145261E1,1.1821735E0,6.1214337E0,1.7572939E0,1.4116888E0,6.477937E1,1.9908205E2],"tree_param":{"num_deleted":"0","num_feature":"7","num_nodes":"23","size_leaf_vector":"1"}},{"base_weights":[-4.4322066E-2,-3.6127515E-2,-4.5275125E-1,-4.5494005E-2,8.095781E-1,1.2226955E-1,-8.863891E-2,-3.1755236E-1,-3.345428E-2,-6.405103E-2,1.7572272E0,6.371276E-3,-5.6999046E-2,2.3711093E-2,-5.345797E-3,2.2446826E-1,4.1938975E-2],"categories":[],"categories_nodes":[],"categories_segments":[],"categories_sizes":[],"default_left":[0,0,0,0,0,0,0,0,0,0,0,0,0,0,0,0,0],"id":47,"left_children":[1,3,5,7,9,-1,-1,11,13,-1,15,-1,-1,-1,-1,-1,-1],"loss_changes":[1.4986396E0,3.5605462E0,7.4893575E0,1.4335968E0,7.894719E0,0E0,0E0,1.8233771E0,2.3039594E0,0E0,1.1755991E0,0E0,0E0,0E0,0E0,0E0,0E0],"parents":[2147483647,0,0,1,1,2,2,3,3,4,4,7,7,8,8,10,10],"right_children":[2,4,6,8,10,-1,-1,12,14,-1,16,-1,-1,-1,-1,-1,-1],"split_conditions":[5.0116736E-1,4.8115712E-1,2.9598715E1,1.9754585E1,3.1923092E1,1.2226955E-1,-8.863891E-2,1.7585236E1,2.1700563E1,-6.405103E-2,4.9011323E-1,6.371276E-3,-5.6999046E-2,2.3711093E-2,-5.345797E-3,2.2446826E-1,4.1938975E-2],"split_indices":[1,1,0,0,0,0,0,0,0,0,1,0,0,0,0,0,0],"split_type":[0,0,0,0,0,0,0,0,0,0,0,0,0,0,0,0,0],"sum_hessian":[4.516576E2,4.43841E2,7.8165812E0,4.39915E2,3.9260082E0,1.2330031E0,6.583578E0,1.7567675E1,4.2234732E2,1.6797572E0,2.2462509E0,7.2959642E0,1.027171E1,2.832856E1,3.9401877E2,1.1495544E0,1.0966965E0],"tree_param":{"num_deleted":"0","num_feature":"7","num_nodes":"17","size_leaf_vector":"1"}},{"base_weights":[-3.9822027E-2,5.7170708E-2,-7.154902E-2,6.431553E-3,8.012984E-1,-4.7094118E-2,-4.3027487E-1,6.717205E-1,-4.4389818E-2,1.5258632E0,-6.90234E-2,-9.818164E-2,8.5745595E-2,-7.0898396E-1,3.457584E-1,-4.6840214E-4,1.3691287E-1,-8.2476355E-2,-1.9472753E-4,-5.410106E-2,2.2502597E-1,4.4670637E-4,-3.1164631E-2,-1.7164104E-3,5.032397E-2,-9.080115E-2,-3.7760984E-2,-9.321342E-3,6.014217E-2],"categories":[],"categories_nodes":[],"categories_segments":[],"categories_sizes":[],"default_left":[0,0,0,0,0,0,0,0,0,0,0,0,0,0,0,0,0,0,0,0,0,0,0,0,0,0,0,0,0],"id":48,"left_children":[1,3,5,7,9,11,13,15,17,19,-1,21,23,25,27,-1,-1,-1,-1,-1,-1,-1,-1,-1,-1,-1,-1,-1,-1],"loss_changes":[1.3910797E0,4.2103267E0,2.963025E0,3.5978987E0,8.746664E0,2.1766095E0,4.912741E0,3.5686083E0,3.2766874E0,8.857498E0,0E0,5.0677123E0,3.8442504E0,7.2594357E-1,7.7148825E-1,0E0,0E0,0E0,0E0,0E0,0E0,0E0,0E0,0E0,0E0,0E0,0E0,0E0,0E0],"parents":[2147483647,0,0,1,1,2,2,3,3,4,4,5,5,6,6,7,7,8,8,9,9,11,11,12,12,13,13,14,14],"right_children":[2,4,6,8,10,12,14,16,18,20,-1,22,24,26,28,-1,-1,-1,-1,-1,-1,-1,-1,-1,-1,-1,-1,-1,-1],"split_conditions":[1.0089195E-1,9.773685E-2,3.549242E1,3.0122604E1,4.087677E1,3.0129817E-1,4.2424023E1,2.5391628E1,3.4450714E1,3.645457E1,-6.90234E-2,2.77142E1,3.3524906E1,3.8722614E1,1.1011801E-1,-4.6840214E-4,1.3691287E-1,-8.2476355E-2,-1.9472753E-4,-5.410106E-2,2.2502597E-1,4.4670637E-4,-3.1164631E-2,-1.7164104E-3,5.032397E-2,-9.080115E-2,-3.7760984E-2,-9.321342E-3,6.014217E-2],"split_indices":[1,1,0,0,0,1,0,0,0,0,0,0,0,0,1,0,0,0,0,0,0,0,0,0,0,0,0,0,0],"split_type":[0,0,0,0,0,0,0,0,0,0,0,0,0,0,0,0,0,0,0,0,0,0,0,0,0,0,0,0,0],"sum_hessian":[4.4971808E2,1.1064939E2,3.390687E2,1.0453051E2,6.118883E0,3.1848813E2,2.0580553E1,6.551343E0,9.7979164E1,4.1027904E0,2.016093E0,2.3021349E2,8.827465E1,1.520584E1,5.374714E0,3.8299866E0,2.7213564E0,4.103181E0,9.3875984E1,1.1304648E0,2.9723253E0,1.5611945E2,7.409405E1,7.158763E1,1.668702E1,8.412841E0,6.7929993E0,2.2120488E0,3.162665E0],"tree_param":{"num_deleted":"0","num_feature":"7","num_nodes":"29","size_leaf_vector":"1"}},{"base_weights":[-3.6241565E-2,-2.863831E-2,-4.2864755E-1,-3.7426855E-2,7.195444E-1,1.0807041E-1,-8.7550156E-2,-2.9773548E-1,-2.6150493E-2,-6.244747E-2,1.4820777E0,5.751801E-3,-5.4639835E-2,2.090594E-2,-4.4104005E-3,1.885568E-1,3.58046E-2],"categories":[],"categories_nodes":[],"categories_segments":[],"categories_sizes":[],"default_left":[0,0,0,0,0,0,0,0,0,0,0,0,0,0,0,0,0],"id":49,"left_children":[1,3,5,7,9,-1,-1,11,13,-1,15,-1,-1,-1,-1,-1,-1],"loss_changes":[1.3273718E0,2.9302914E0,6.6541395E0,1.2760429E0,6.230049E0,0E0,0E0,1.627135E0,1.7841108E0,0E0,9.57037E-1,0E0,0E0,0E0,0E0,0E0,0E0],"parents":[2147483647,0,0,1,1,2,2,3,3,4,4,7,7,8,8,10,10],"right_children":[2,4,6,8,10,-1,-1,12,14,-1,16,-1,-1,-1,-1,-1,-1],"split_conditions":[5.0116736E-1,4.8115712E-1,2.9598715E1,1.9754585E1,3.1923092E1,1.0807041E-1,-8.7550156E-2,1.7585236E1,2.1700563E1,-6.244747E-2,3.3608032E1,5.751801E-3,-5.4639835E-2,2.090594E-2,-4.4104005E-3,1.885568E-1,3.58046E-2],"split_indices":[1,1,0,0,0,0,0,0,0,0,0,0,0,0,0,0,0],"split_type":[0,0,0,0,0,0,0,0,0,0,0,0,0,0,0,0,0],"sum_hessian":[4.4800943E2,4.405464E2,7.46304E0,4.3637054E2,4.1758604E0,1.3807542E0,6.0822854E0,1.7063585E1,4.1930695E2,1.5771224E0,2.598738E0,7.342448E0,9.721137E0,2.898099E1,3.9032596E2,1.4137455E0,1.1849923E0],"tree_param":{"num_deleted":"0","num_feature":"7","num_nodes":"17","size_leaf_vector":"1"}},{"base_weights":[-3.25792E-2,3.0171E-1,-4.0405873E-2,-1.4742345E-1,7.1213156E-1,-3.450293E-1,-2.999067E-2,-6.275721E-2,1.9580916E-1,1.3296197E-1,2.70186E-1,-6.343126E-1,1.520947E-2,4.011354E-1,-4.1358687E-2,4.6277415E-2,-4.3978314E-3,-5.676178E-2,7.226252E-2,-1.9189095E-2,-8.198978E-2,-2.384245E-2,1.418093E-2,1.4636164E-2,1.20154455E-1,-6.482621E-2,-3.376547E-3],"categories":[],"categories_nodes":[],"categories_segments":[],"categories_sizes":[],"default_left":[0,0,0,0,0,0,0,0,0,0,0,0,0,0,0,0,0,0,0,0,0,0,0,0,0,0,0],"id":50,"left_children":[1,3,5,7,9,11,13,-1,15,-1,17,19,21,23,25,-1,-1,-1,-1,-1,-1,-1,-1,-1,-1,-1,-1],"loss_changes":[1.1828834E0,2.0136728E0,1.3795999E0,1.0742196E0,1.1640432E0,1.5090603E0,2.0980945E0,0E0,2.8463233E-1,0E0,2.1191244E0,4.998064E-1,2.7093673E-1,2.0682116E0,1.8892002E0,0E0,0E0,0E0,0E0,0E0,0E0,0E0,0E0,0E0,0E0,0E0,0E0],"parents":[2147483647,0,0,1,1,2,2,3,3,4,4,5,5,6,6,8,8,10,10,11,11,12,12,13,13,14,14],"right_children":[2,4,6,8,10,12,14,-1,16,-1,18,20,22,24,26,-1,-1,-1,-1,-1,-1,-1,-1,-1,-1,-1,-1],"split_conditions":[4.6898965E-2,1E0,5.9796665E-2,3.8958828E1,3.908009E1,1E0,6.408567E-2,-6.275721E-2,4.063924E1,1.3296197E-1,1E0,5.2087743E-2,4.257677E1,4.3642277E1,6.605369E-2,4.6277415E-2,-4.3978314E-3,-5.676178E-2,7.226252E-2,-1.9189095E-2,-8.198978E-2,-2.384245E-2,1.418093E-2,1.4636164E-2,1.20154455E-1,-6.482621E-2,-3.376547E-3],"split_indices":[1,4,1,0,0,4,1,0,0,0,2,1,0,0,1,0,0,0,0,0,0,0,0,0,0,0,0],"split_type":[0,0,0,0,0,0,0,0,0,0,0,0,0,0,0,0,0,0,0,0,0,0,0,0,0,0,0],"sum_hessian":[4.4644858E2,9.354506E0,4.370941E2,4.772572E0,4.581933E0,1.338823E1,4.2370584E2,1.6441509E0,3.1284213E0,1.0734891E0,3.5084438E0,7.0034347E0,6.384795E0,1.0004491E1,4.1370135E2,1.04029E0,2.0881314E0,1.1410091E0,2.3674347E0,2.6706865E0,4.3327484E0,1.8317397E0,4.553056E0,8.486166E0,1.5183256E0,4.069438E0,4.0963193E2],"tree_param":{"num_deleted":"0","num_feature":"7","num_nodes":"27","size_leaf_vector":"1"}},{"base_weights":[-2.934304E-2,3.3495966E-2,-7.162288E-2,-6.122871E-3,6.027823E-1,-8.780132E-2,-4.836454E-2,-4.6009757E-2,3.7655115E-1,8.608959E-2,1.3939918E0,1.8880751E0,-7.142885E-2,-4.440234E-2,-1.1305881E-3,7.9254806E-2,1.817392E-2,1.1891434E-1,-2.9053668E-2,-5.2248485E-2,2.1090913E-1,4.258068E-2,2.465357E-1,-2.9771015E-2,-1.5148589E-3],"categories":[],"categories_nodes":[],"categories_segments":[],"categories_sizes":[],"default_left":[0,0,0,0,0,0,0,0,0,0,0,0,0,0,0,0,0,0,0,0,0,0,0,0,0],"id":51,"left_children":[1,3,5,7,9,-1,11,13,15,17,19,21,23,-1,-1,-1,-1,-1,-1,-1,-1,-1,-1,-1,-1],"loss_changes":[1.1861115E0,4.0608025E0,4.9587517E0,2.5994282E0,4.6688643E0,0E0,1.1757828E1,2.1233587E0,1.1588666E0,3.7322416E0,7.3539114E0,1.5667257E0,3.2829404E0,0E0,0E0,0E0,0E0,0E0,0E0,0E0,0E0,0E0,0E0,0E0,0E0],"parents":[2147483647,0,0,1,1,2,2,3,3,4,4,6,6,7,7,8,8,9,9,10,10,11,11,12,12],"right_children":[2,4,6,8,10,-1,12,14,16,18,20,22,24,-1,-1,-1,-1,-1,-1,-1,-1,-1,-1,-1,-1],"split_conditions":[1.6616777E-1,1.5856569E-1,1.7170314E-1,1E0,1E0,-8.780132E-2,1.7274068E-1,5.9796665E-2,4.4640686E-2,2.1584963E1,2.2962503E1,2.5710066E1,2.0356436E-1,-4.440234E-2,-1.1305881E-3,7.9254806E-2,1.817392E-2,1.1891434E-1,-2.9053668E-2,-5.2248485E-2,2.1090913E-1,4.258068E-2,2.465357E-1,-2.9771015E-2,-1.5148589E-3],"split_indices":[1,1,1,4,5,0,1,1,1,0,0,0,1,0,0,0,0,0,0,0,0,0,0,0,0],"split_type":[0,0,0,0,0,0,0,0,0,0,0,0,0,0,0,0,0,0,0,0,0,0,0,0,0],"sum_hessian":[4.4453683E2,1.7888068E2,2.6565616E2,1.6816655E2,1.0714115E1,6.4171343E0,2.59239E2,1.530895E2,1.5077059E1,7.152223E0,3.561892E0,2.099592E0,2.5713943E2,1.1331826E1,1.4175768E2,3.830094E0,1.1246964E1,1.2713546E0,5.8808684E0,1.0410955E0,2.5207965E0,1.0860949E0,1.013497E0,5.036228E1,2.0677715E2],"tree_param":{"num_deleted":"0","num_feature":"7","num_nodes":"25","size_leaf_vector":"1"}},{"base_weights":[-2.5830181E-2,-1.8825024E-2,-4.006961E-1,-2.713408E-2,6.5163E-1,9.6160345E-2,-8.626804E-2,6.1093684E-2,-5.7212662E-2,-6.0788732E-2,1.2845032E0,1.4726836E-3,6.876098E-2,-2.763708E-4,-2.0072281E-2,1.6732757E-1,2.8783727E-2],"categories":[],"categories_nodes":[],"categories_segments":[],"categories_sizes":[],"default_left":[0,0,0,0,0,0,0,0,0,0,0,0,0,0,0,0,0],"id":52,"left_children":[1,3,5,7,9,-1,-1,11,13,-1,15,-1,-1,-1,-1,-1,-1],"loss_changes":[1.156751E0,2.4481783E0,5.9173503E0,1.1496773E0,5.0699325E0,0E0,0E0,3.1938446E0,2.520348E0,0E0,1.030498E0,0E0,0E0,0E0,0E0,0E0,0E0],"parents":[2147483647,0,0,1,1,2,2,3,3,4,4,7,7,8,8,10,10],"right_children":[2,4,6,8,10,-1,-1,12,14,-1,16,-1,-1,-1,-1,-1,-1],"split_conditions":[5.0116736E-1,4.8115712E-1,2.9598715E1,1.0089195E-1,3.1923092E1,9.6160345E-2,-8.626804E-2,9.773685E-2,3.1384882E1,-6.0788732E-2,4.9011323E-1,1.4726836E-3,6.876098E-2,-2.763708E-4,-2.0072281E-2,1.6732757E-1,2.8783727E-2],"split_indices":[1,1,0,1,0,0,0,1,0,0,1,0,0,0,0,0,0],"split_type":[0,0,0,0,0,0,0,0,0,0,0,0,0,0,0,0,0],"sum_hessian":[4.4237256E2,4.3528848E2,7.084063E0,4.309077E2,4.380779E0,1.520107E0,5.563956E0,1.0929319E2,3.2161453E2,1.4782698E0,2.902509E0,1.0271502E2,6.5781684E0,2.3389287E2,8.772166E1,1.5996542E0,1.3028549E0],"tree_param":{"num_deleted":"0","num_feature":"7","num_nodes":"17","size_leaf_vector":"1"}},{"base_weights":[-2.3059722E-2,-2.7082005E-1,-1.2866475E-2,6.2178995E-2,-5.1754004E-1,6.5592065E-2,-5.6101926E-2,-2.0347367E-1,5.5978965E-2,-8.10509E-2,-1.9001848E-1,-1.7670939E-3,7.052034E-1,-7.2366494E-1,-1.2008297E-2,2.3674844E-2,-6.957747E-2,3.1586077E-2,-7.074057E-2,1.920267E-2,-1.2877208E-2,2.13302E-1,3.2513957E-2,-9.462797E-2,4.107498E-2,9.383311E-2,-2.9092617E-3],"categories":[],"categories_nodes":[],"categories_segments":[],"categories_sizes":[],"default_left":[0,0,0,0,0,0,0,0,0,0,0,0,0,0,0,0,0,0,0,0,0,0,0,0,0,0,0],"id":53,"left_children":[1,3,5,7,9,11,13,15,-1,-1,17,19,21,23,25,-1,-1,-1,-1,-1,-1,-1,-1,-1,-1,-1,-1],"loss_changes":[1.1130774E0,1.4634289E0,1.4477266E0,1.2119886E0,8.1646466E-1,6.537163E0,8.085854E0,1.4973527E0,0E0,0E0,1.8152232E0,3.4273531E0,7.1514735E0,4.6872625E0,4.23196E0,0E0,0E0,0E0,0E0,0E0,0E0,0E0,0E0,0E0,0E0,0E0,0E0],"parents":[2147483647,0,0,1,1,2,2,3,3,4,4,5,5,6,6,7,7,10,10,11,11,12,12,13,13,14,14],"right_children":[2,4,6,8,10,12,14,16,-1,-1,18,20,22,24,26,-1,-1,-1,-1,-1,-1,-1,-1,-1,-1,-1,-1],"split_conditions":[1.9754585E1,1.7585236E1,2.77142E1,2.315912E-1,1.880442E1,2.708856E1,2.871362E1,1.9070509E-1,5.5978965E-2,-8.10509E-2,1.935235E1,1.8398303E-1,1.4499916E-1,3.5211107E-1,2.8881573E1,2.3674844E-2,-6.957747E-2,3.1586077E-2,-7.074057E-2,1.920267E-2,-1.2877208E-2,2.13302E-1,3.2513957E-2,-9.462797E-2,4.107498E-2,9.383311E-2,-2.9092617E-3],"split_indices":[0,0,0,1,0,0,0,1,0,0,0,1,1,1,0,0,0,0,0,0,0,0,0,0,0,0,0],"split_type":[0,0,0,0,0,0,0,0,0,0,0,0,0,0,0,0,0,0,0,0,0,0,0,0,0,0,0],"sum_hessian":[4.4111826E2,1.6420788E1,4.2469748E2,7.306776E0,9.114011E0,1.5070285E2,2.7399463E2,5.149031E0,2.157745E0,4.0323696E0,5.081641E0,1.372463E2,1.3456533E1,1.6021555E1,2.5797305E2,2.9923396E0,2.1566916E0,2.7663398E0,2.3153014E0,5.413345E1,8.311286E1,1.8592962E0,1.1597237E1,1.3531927E1,2.489628E0,3.603434E0,2.5436963E2],"tree_param":{"num_deleted":"0","num_feature":"7","num_nodes":"27","size_leaf_vector":"1"}},{"base_weights":[-2.0776534E-2,-1.4307103E-2,-3.784806E-1,-2.2073172E-2,5.844631E-1,8.302586E-2,-8.497443E-2,-1.3497469E-2,-3.052197E-1,-6.0025312E-2,1.1287447E0,-2.8247598E-3,8.7394774E-2,-5.7796236E-2,1.3341476E-3,1.5714137E-1,1.9308593E-2],"categories":[],"categories_nodes":[],"categories_segments":[],"categories_sizes":[],"default_left":[0,0,0,0,0,0,0,0,0,0,0,0,0,0,0,0,0],"id":54,"left_children":[1,3,5,7,9,-1,-1,11,13,-1,15,-1,-1,-1,-1,-1,-1],"loss_changes":[1.0154581E0,2.0326586E0,5.147251E0,1.0393913E0,4.2870803E0,0E0,0E0,5.498414E0,1.1013366E0,0E0,1.4290357E0,0E0,0E0,0E0,0E0,0E0,0E0],"parents":[2147483647,0,0,1,1,2,2,3,3,4,4,7,7,8,8,10,10],"right_children":[2,4,6,8,10,-1,-1,12,14,-1,16,-1,-1,-1,-1,-1,-1],"split_conditions":[5.0116736E-1,4.8115712E-1,2.9598715E1,4.3869537E-1,1E0,8.302586E-2,-8.497443E-2,4.221825E-1,4.5854014E-1,-6.0025312E-2,4.9011323E-1,-2.8247598E-3,8.7394774E-2,-5.7796236E-2,1.3341476E-3,1.5714137E-1,