{"learner":{"attributes":{"scikit_learn":"{\"_estimator_type\": \"classifier\"}"},"feature_names":["LST","SSM","Heat_Anomaly","Drought_Anomaly","Is_Kharif_Critical","Is_Rabi_Critical","CSI_Event"],"feature_types":["float","float","int","int","int","int","int"],"gradient_booster":{"model":{"cats":{"enc":[],"feature_segments":[],"sorted_idx":[]},"gbtree_model_param":{"num_parallel_tree":"1","num_trees":"150"},"iteration_indptr":[0,1,2,3,4,5,6,7,8,9,10,11,12,13,14,15,16,17,18,19,20,21,22,23,24,25,26,27,28,29,30,31,32,33,34,35,36,37,38,39,40,41,42,43,44,45,46,47,48,49,50,51,52,53,54,55,56,57,58,59,60,61,62,63,64,65,66,67,68,69,70,71,72,73,74,75,76,77,78,79,80,81,82,83,84,85,86,87,88,89,90,91,92,93,94,95,96,97,98,99,100,101,102,103,104,105,106,107,108,109,110,111,112,113,114,115,116,117,118,119,120,121,122,123,124,125,126,127,128,129,130,131,132,133,134,135,136,137,138,139,140,141,142,143,144,145,146,147,148,149,150],"tree_info":[0,0,0,0,0,0,0,0,0,0,0,0,0,0,0,0,0,0,0,0,0,0,0,0,0,0,0,0,0,0,0,0,0,0,0,0,0,0,0,0,0,0,0,0,0,0,0,0,0,0,0,0,0,0,0,0,0,0,0,0,0,0,0,0,0,0,0,0,0,0,0,0,0,0,0,0,0,0,0,0,0,0,0,0,0,0,0,0,0,0,0,0,0,0,0,0,0,0,0,0,0,0,0,0,0,0,0,0,0,0,0,0,0,0,0,0,0,0,0,0,0,0,0,0,0,0,0,0,0,0,0,0,0,0,0,0,0,0,0,0,0,0,0,0,0,0,0,0,0,0],"trees":[{"base_weights":[-1.953565E-1,-8.6095244E-1,2.0966533E-1,-8.4654003E-1,-8.707294E-1,-8.5936946E-1,-8.1857127E-1,-9.6376896E-1,-8.6319864E-1,-8.4352034E-1,-9.111774E-1,-7.670194E-1,-8.307152E-1,-5.455289E-1,-9.6884E-1,-7.163624E-1,-8.6408615E-1,-4.4706874E-2,-4.1690264E-2,-4.746057E-2,-4.398933E-2,-3.9503835E-2,-3.2314196E-2,-4.4757895E-2,-4.071537E-2,-5.873239E-2,-6.837548E-3,-5.4209482E-2,-4.7359202E-2,-4.4313252E-2,-1.8918432E-2,-4.328398E-2,-3.9346296E-2],"categories":[],"categories_nodes":[],"categories_segments":[],"categories_sizes":[],"default_left":[0,0,0,0,0,0,0,0,0,0,0,0,0,0,0,0,0,0,0,0,0,0,0,0,0,0,0,0,0,0,0,0,0],"id":0,"left_children":[1,3,-1,5,7,9,11,13,15,17,19,21,23,25,27,29,31,-1,-1,-1,-1,-1,-1,-1,-1,-1,-1,-1,-1,-1,-1,-1,-1],"loss_changes":[1.6627645E5,6.2265625E0,0E0,6.4765625E0,1.9777344E1,1.0480469E1,3.3164062E0,4.124634E0,2.9277344E0,4.419922E0,2.9816895E0,2.8771362E0,4.661621E0,7.187044E0,4.3847656E0,9.392311E0,2.6445312E0,0E0,0E0,0E0,0E0,0E0,0E0,0E0,0E0,0E0,0E0,0E0,0E0,0E0,0E0,0E0,0E0],"parents":[2147483647,0,0,1,1,3,3,4,4,5,5,6,6,7,7,8,8,9,9,10,10,11,11,12,12,13,13,14,14,15,15,16,16],"right_children":[2,4,-1,6,8,10,12,14,16,18,20,22,24,26,28,30,32,-1,-1,-1,-1,-1,-1,-1,-1,-1,-1,-1,-1,-1,-1,-1,-1],"split_conditions":[1E0,2.967E1,2.0966533E-1,2.846E1,3.007E1,2.768E1,2.871E1,3.8E-1,3.01E1,5E-1,6.8E-1,2.867E1,2.892E1,3.5E-1,6E-1,8.7E-1,4.357E1,-4.4706874E-2,-4.1690264E-2,-4.746057E-2,-4.398933E-2,-3.9503835E-2,-3.2314196E-2,-4.4757895E-2,-4.071537E-2,-5.873239E-2,-6.837548E-3,-5.4209482E-2,-4.7359202E-2,-4.4313252E-2,-1.8918432E-2,-4.328398E-2,-3.9346296E-2],"split_indices":[6,0,0,0,0,0,0,1,0,1,1,0,0,1,1,1,0,0,0,0,0,0,0,0,0,0,0,0,0,0,0,0,0],"split_type":[0,0,0,0,0,0,0,0,0,0,0,0,0,0,0,0,0,0,0,0,0,0,0,0,0,0,0,0,0,0,0,0,0],"sum_hessian":[5.6920773E4,4.9425566E4,7.4952056E3,2.00124E4,2.9413168E4,1.3698922E4,6.3134785E3,2.1929653E3,2.7220201E4,1.0503095E4,3.1958276E3,1.2159292E3,5.0975493E3,2.75713E1,2.165394E3,1.6839433E2,2.7051807E4,1.6766143E3,8.82648E3,1.4317881E3,1.7640397E3,1.0162991E3,1.9963017E2,1.0236281E3,4.0739211E3,1.012111E1,1.745019E1,3.3452014E2,1.8308739E3,1.1098321E2,5.7411125E1,2.649445E4,5.573591E2],"tree_param":{"num_deleted":"0","num_feature":"7","num_nodes":"33","size_leaf_vector":"1"}},{"base_weights":[-1.886819E-1,-8.3828336E-1,1.783912E-1,-8.239089E-1,-8.4804124E-1,-8.3670324E-1,-7.9604894E-1,-9.466159E-1,-8.4091103E-1,-8.2089263E-1,-8.884838E-1,-7.448279E-1,-8.081369E-1,-1.0015503E0,-9.1007006E-1,-8.342257E-1,-8.594435E-1,-4.3571837E-2,-4.0560406E-2,-4.632962E-2,-4.2854678E-2,-3.8385686E-2,-3.127408E-2,-4.36233E-2,-3.958976E-2,-4.7255438E-2,-5.6504216E-2,-3.406074E-2,-4.6722326E-2,-4.1806433E-2,-3.6957767E-2,-3.9977908E-2,-4.3979254E-2],"categories":[],"categories_nodes":[],"categories_segments":[],"categories_sizes":[],"default_left":[0,0,0,0,0,0,0,0,0,0,0,0,0,0,0,0,0,0,0,0,0,0,0,0,0,0,0,0,0,0,0,0,0],"id":1,"left_children":[1,3,-1,5,7,9,11,13,15,17,19,21,23,25,27,29,31,-1,-1,-1,-1,-1,-1,-1,-1,-1,-1,-1,-1,-1,-1,-1,-1],"loss_changes":[1.381194E5,6.0703125E0,0E0,6.301758E0,1.9382812E1,1.022168E1,3.2194824E0,2.9603271E0,2.6015625E0,4.315918E0,2.934082E0,2.7735596E0,4.546631E0,4.4492188E0,5.885437E0,2.9492188E0,7.8203125E0,0E0,0E0,0E0,0E0,0E0,0E0,0E0,0E0,0E0,0E0,0E0,0E0,0E0,0E0,0E0,0E0],"parents":[2147483647,0,0,1,1,3,3,4,4,5,5,6,6,7,7,8,8,9,9,10,10,11,11,12,12,13,13,14,14,15,15,16,16],"right_children":[2,4,-1,6,8,10,12,14,16,18,20,22,24,26,28,30,32,-1,-1,-1,-1,-1,-1,-1,-1,-1,-1,-1,-1,-1,-1,-1,-1],"split_conditions":[1E0,2.967E1,1.783912E-1,2.846E1,3.003E1,2.768E1,2.871E1,7.3E-1,3.915E1,5E-1,6.8E-1,2.867E1,2.892E1,2.992E1,7.7E-1,3.887E1,4.8E-1,-4.3571837E-2,-4.0560406E-2,-4.632962E-2,-4.2854678E-2,-3.8385686E-2,-3.127408E-2,-4.36233E-2,-3.958976E-2,-4.7255438E-2,-5.6504216E-2,-3.406074E-2,-4.6722326E-2,-4.1806433E-2,-3.6957767E-2,-3.9977908E-2,-4.3979254E-2],"split_indices":[6,0,0,0,0,0,0,1,0,1,1,0,0,0,1,0,1,0,0,0,0,0,0,0,0,0,0,0,0,0,0,0,0],"split_type":[0,0,0,0,0,0,0,0,0,0,0,0,0,0,0,0,0,0,0,0,0,0,0,0,0,0,0,0,0,0,0,0,0],"sum_hessian":[5.6598715E4,4.8254914E4,8.343803E3,1.9546375E4,2.8708537E4,1.3375039E4,6.1713354E3,1.9276049E3,2.6780932E4,1.0259324E4,3.115715E3,1.1902863E3,4.9810493E3,7.595179E2,1.168087E3,1.971501E4,7.065923E3,1.635359E3,8.623965E3,1.3943843E3,1.7213308E3,9.942053E2,1.9608095E2,9.984117E2,3.9826377E3,5.335706E2,2.2594725E2,1.15228134E2,1.0528589E3,1.932049E4,3.9451877E2,1.7886305E3,5.2772925E3],"tree_param":{"num_deleted":"0","num_feature":"7","num_nodes":"33","size_leaf_vector":"1"}},{"base_weights":[-1.8226145E-1,-8.161922E-1,1.5643708E-1,-8.018486E-1,-8.2593626E-1,-8.146139E-1,-7.740855E-1,-9.247581E-1,-8.188103E-1,-7.988335E-1,-8.6639905E-1,-7.2318E-1,-7.8612185E-1,-9.8006076E-1,-8.880659E-1,-8.2040215E-1,-7.408459E-1,-4.2466614E-2,-3.9458744E-2,-4.5353275E-2,-4.1841127E-2,-3.7294958E-2,-3.0260233E-2,-4.251855E-2,-3.849197E-2,-4.6162624E-2,-5.550615E-2,-3.3019807E-2,-4.5624908E-2,-4.0964432E-2,-5.265779E-2,-2.7698874E-2,-4.1292753E-2],"categories":[],"categories_nodes":[],"categories_segments":[],"categories_sizes":[],"default_left":[0,0,0,0,0,0,0,0,0,0,0,0,0,0,0,0,0,0,0,0,0,0,0,0,0,0,0,0,0,0,0,0,0],"id":2,"left_children":[1,3,-1,5,7,9,11,13,15,17,19,21,23,25,27,29,31,-1,-1,-1,-1,-1,-1,-1,-1,-1,-1,-1,-1,-1,-1,-1,-1],"loss_changes":[1.1782429E5,5.919922E0,0E0,6.1367188E0,1.897461E1,9.980469E0,3.128418E0,2.9384766E0,2.6386719E0,4.2182617E0,2.895752E0,2.6746826E0,4.4387207E0,4.4352417E0,5.7331543E0,5.7753906E0,8.017059E0,0E0,0E0,0E0,0E0,0E0,0E0,0E0,0E0,0E0,0E0,0E0,0E0,0E0,0E0,0E0,0E0],"parents":[2147483647,0,0,1,1,3,3,4,4,5,5,6,6,7,7,8,8,9,9,10,10,11,11,12,12,13,13,14,14,15,15,16,16],"right_children":[2,4,-1,6,8,10,12,14,16,18,20,22,24,26,28,30,32,-1,-1,-1,-1,-1,-1,-1,-1,-1,-1,-1,-1,-1,-1,-1,-1],"split_conditions":[1E0,2.967E1,1.5643708E-1,2.846E1,3.003E1,2.768E1,2.871E1,7.3E-1,4.357E1,5E-1,6.6E-1,2.867E1,2.892E1,2.992E1,7.7E-1,1E0,4.39E1,-4.2466614E-2,-3.9458744E-2,-4.5353275E-2,-4.1841127E-2,-3.7294958E-2,-3.0260233E-2,-4.251855E-2,-3.849197E-2,-4.6162624E-2,-5.550615E-2,-3.3019807E-2,-4.5624908E-2,-4.0964432E-2,-5.265779E-2,-2.7698874E-2,-4.1292753E-2],"split_indices":[6,0,0,0,0,0,0,1,0,1,1,0,0,0,1,2,0,0,0,0,0,0,0,0,0,0,0,0,0,0,0,0,0],"split_type":[0,0,0,0,0,0,0,0,0,0,0,0,0,0,0,0,0,0,0,0,0,0,0,0,0,0,0,0,0,0,0,0,0],"sum_hessian":[5.613274E4,4.7113125E4,9.019613E3,1.9092012E4,2.8021115E4,1.3059151E4,6.0328594E3,1.8760104E3,2.6145105E4,1.0021687E4,3.0374646E3,1.1653407E3,4.867519E3,7.3799274E2,1.1380176E3,2.5612625E4,5.324802E2,1.5950834E3,8.426604E3,1.2664633E3,1.7710012E3,9.727004E2,1.9264035E2,9.73793E2,3.8937258E3,5.192811E2,2.1871161E2,1.1300643E2,1.0250111E3,2.5495172E4,1.1745368E2,1.6884315E2,3.636371E2],"tree_param":{"num_deleted":"0","num_feature":"7","num_nodes":"33","size_leaf_vector":"1"}},{"base_weights":[-1.7613795E-1,-7.9462785E-1,1.401129E-1,-7.803104E-1,-8.0436134E-1,-7.9305047E-1,-7.52637E-1,-8.982802E-1,-7.968242E-1,-7.772949E-1,-8.448627E-1,-7.0203954E-1,-7.646241E-1,-4.6094278E-1,-9.0367305E-1,-6.4430445E-1,-7.977524E-1,-4.1388355E-2,-3.8382966E-2,-4.585923E-2,-4.13805E-2,-3.622968E-2,-2.9271567E-2,-4.1440777E-2,-3.741984E-2,-5.6338485E-2,-2.1733884E-3,-5.1232647E-2,-4.4057336E-2,-4.1087333E-2,-1.4880276E-2,-3.9968695E-2,-3.598338E-2],"categories":[],"categories_nodes":[],"categories_segments":[],"categories_sizes":[],"default_left":[0,0,0,0,0,0,0,0,0,0,0,0,0,0,0,0,0,0,0,0,0,0,0,0,0,0,0,0,0,0,0,0,0],"id":3,"left_children":[1,3,-1,5,7,9,11,13,15,17,19,21,23,25,27,29,31,-1,-1,-1,-1,-1,-1,-1,-1,-1,-1,-1,-1,-1,-1,-1,-1],"loss_changes":[1.0233943E5,5.78125E0,0E0,5.9785156E0,1.8648438E1,9.753418E0,3.041504E0,4.357422E0,3.0732422E0,4.126465E0,2.9370117E0,2.5795288E0,4.3356934E0,7.372006E0,4.543457E0,9.500496E0,2.6103516E0,0E0,0E0,0E0,0E0,0E0,0E0,0E0,0E0,0E0,0E0,0E0,0E0,0E0,0E0,0E0,0E0],"parents":[2147483647,0,0,1,1,3,3,4,4,5,5,6,6,7,7,8,8,9,9,10,10,11,11,12,12,13,13,14,14,15,15,16,16],"right_children":[2,4,-1,6,8,10,12,14,16,18,20,22,24,26,28,30,32,-1,-1,-1,-1,-1,-1,-1,-1,-1,-1,-1,-1,-1,-1,-1,-1],"split_conditions":[1E0,2.967E1,1.401129E-1,2.846E1,3.007E1,2.768E1,2.871E1,3.8E-1,3.01E1,5E-1,2.784E1,2.867E1,2.892E1,3.5E-1,6E-1,8.7E-1,4.357E1,-4.1388355E-2,-3.8382966E-2,-4.585923E-2,-4.13805E-2,-3.622968E-2,-2.9271567E-2,-4.1440777E-2,-3.741984E-2,-5.6338485E-2,-2.1733884E-3,-5.1232647E-2,-4.4057336E-2,-4.1087333E-2,-1.4880276E-2,-3.9968695E-2,-3.598338E-2],"split_indices":[6,0,0,0,0,0,0,1,0,1,0,0,0,1,1,1,0,0,0,0,0,0,0,0,0,0,0,0,0,0,0,0,0],"split_type":[0,0,0,0,0,0,0,0,0,0,0,0,0,0,0,0,0,0,0,0,0,0,0,0,0,0,0,0,0,0,0,0,0],"sum_hessian":[5.5553406E4,4.6001523E4,9.551885E3,1.8649818E4,2.7351705E4,1.2751627E4,5.898191E3,2.0231735E3,2.5328531E4,9.790443E3,2.9611838E3,1.1411127E3,4.757078E3,2.5697443E1,1.9974761E3,1.5740718E2,2.5171123E4,1.5558398E3,8.234604E3,5.603007E2,2.400883E3,9.518032E2,1.8930942E2,9.498043E2,3.807274E3,9.248341E0,1.6449102E1,3.065627E2,1.6909133E3,1.0321237E2,5.4194805E1,2.4650008E4,5.2111694E2],"tree_param":{"num_deleted":"0","num_feature":"7","num_nodes":"33","size_leaf_vector":"1"}},{"base_weights":[-1.7031205E-1,-7.7354556E-1,1.274678E-1,-7.5925237E-1,-7.832701E-1,-7.7196896E-1,-7.3166615E-1,-8.8286096E-1,-7.761353E-1,-7.562357E-1,-8.238204E-1,-6.813759E-1,-7.4360466E-1,-9.3971443E-1,-8.4531295E-1,-7.6907533E-1,-7.9572374E-1,-3.702208E-2,-3.9400186E-2,-4.316246E-2,-3.9574925E-2,-3.5188194E-2,-2.8307168E-2,-3.5541963E-2,-3.882411E-2,-4.4040345E-2,-5.3774454E-2,-3.0634617E-2,-4.3525413E-2,-3.810012E-2,-3.99708E-2,-3.667457E-2,-4.083639E-2],"categories":[],"categories_nodes":[],"categories_segments":[],"categories_sizes":[],"default_left":[0,0,0,0,0,0,0,0,0,0,0,0,0,0,0,0,0,0,0,0,0,0,0,0,0,0,0,0,0,0,0,0,0],"id":4,"left_children":[1,3,-1,5,7,9,11,13,15,17,19,21,23,25,27,29,31,-1,-1,-1,-1,-1,-1,-1,-1,-1,-1,-1,-1,-1,-1,-1,-1],"loss_changes":[9.004609E4,5.6484375E0,0E0,5.8271484E0,1.8288086E1,9.536133E0,2.956543E0,3.0006104E0,2.834961E0,4.216797E0,2.9973145E0,2.4874268E0,4.458252E0,4.63678E0,5.800232E0,3.3291016E0,7.994629E0,0E0,0E0,0E0,0E0,0E0,0E0,0E0,0E0,0E0,0E0,0E0,0E0,0E0,0E0,0E0,0E0],"parents":[2147483647,0,0,1,1,3,3,4,4,5,5,6,6,7,7,8,8,9,9,10,10,11,11,12,12,13,13,14,14,15,15,16,16],"right_children":[2,4,-1,6,8,10,12,14,16,18,20,22,24,26,28,30,32,-1,-1,-1,-1,-1,-1,-1,-1,-1,-1,-1,-1,-1,-1,-1,-1],"split_conditions":[1E0,2.967E1,1.274678E-1,2.846E1,3.003E1,2.768E1,2.871E1,7.3E-1,3.915E1,6.7E-1,6.8E-1,2.867E1,8E-1,2.992E1,7.7E-1,1E0,4.8E-1,-3.702208E-2,-3.9400186E-2,-4.316246E-2,-3.9574925E-2,-3.5188194E-2,-2.8307168E-2,-3.5541963E-2,-3.882411E-2,-4.4040345E-2,-5.3774454E-2,-3.0634617E-2,-4.3525413E-2,-3.810012E-2,-3.99708E-2,-3.667457E-2,-4.083639E-2],"split_indices":[6,0,0,0,0,0,0,1,0,1,1,0,1,0,1,3,1,0,0,0,0,0,0,0,0,0,0,0,0,0,0,0,0],"split_type":[0,0,0,0,0,0,0,0,0,0,0,0,0,0,0,0,0,0,0,0,0,0,0,0,0,0,0,0,0,0,0,0,0],"sum_hessian":[5.4884047E4,4.4921082E4,9.962965E3,1.8220184E4,2.6700898E4,1.2452753E4,5.767431E3,1.776797E3,2.4924102E4,9.565788E3,2.8869648E3,1.1176158E3,4.6498154E3,6.9716113E2,1.0796359E3,1.835054E4,6.573563E3,6.405476E3,3.1603123E3,1.2889255E3,1.5980393E3,9.315274E2,1.8608841E2,2.3402107E3,2.3096045E3,4.9143356E2,2.0572754E2,1.0798271E2,9.7165314E2,1.4902565E4,3.447974E3,1.6678513E3,4.905712E3],"tree_param":{"num_deleted":"0","num_feature":"7","num_nodes":"33","size_leaf_vector":"1"}},{"base_weights":[-1.6477045E-1,-7.5290793E-1,1.1736628E-1,-7.386376E-1,-7.626248E-1,-7.5133115E-1,-7.1113867E-1,-8.5732776E-1,-7.550735E-1,-7.3561907E-1,-8.032298E-1,-6.611634E-1,-7.2302717E-1,-4.1316476E-1,-8.6289626E-1,-6.0067314E-1,-7.560191E-1,-3.9388087E-2,-3.628416E-2,-4.3883674E-2,-3.9276507E-2,-3.4169074E-2,-2.7366241E-2,-3.9440207E-2,-3.532252E-2,-5.4893352E-2,6.716923E-5,-4.9385127E-2,-4.1991126E-2,-3.9063904E-2,-1.2705103E-2,-3.7883747E-2,-3.3827983E-2],"categories":[],"categories_nodes":[],"categories_segments":[],"categories_sizes":[],"default_left":[0,0,0,0,0,0,0,0,0,0,0,0,0,0,0,0,0,0,0,0,0,0,0,0,0,0,0,0,0,0,0,0,0],"id":5,"left_children":[1,3,-1,5,7,9,11,13,15,17,19,21,23,25,27,29,31,-1,-1,-1,-1,-1,-1,-1,-1,-1,-1,-1,-1,-1,-1,-1,-1],"loss_changes":[7.999794E4,5.5214844E0,0E0,5.680664E0,1.7996094E1,9.327148E0,2.8737793E0,4.386963E0,3.0732422E0,4.272461E0,3.020752E0,2.397644E0,4.400635E0,7.2856665E0,4.6224365E0,9.3089485E0,2.6445312E0,0E0,0E0,0E0,0E0,0E0,0E0,0E0,0E0,0E0,0E0,0E0,0E0,0E0,0E0,0E0,0E0],"parents":[2147483647,0,0,1,1,3,3,4,4,5,5,6,6,7,7,8,8,9,9,10,10,11,11,12,12,13,13,14,14,15,15,16,16],"right_children":[2,4,-1,6,8,10,12,14,16,18,20,22,24,26,28,30,32,-1,-1,-1,-1,-1,-1,-1,-1,-1,-1,-1,-1,-1,-1,-1,-1],"split_conditions":[1E0,2.967E1,1.1736628E-1,2.846E1,3.007E1,2.768E1,2.871E1,3.8E-1,3.01E1,5E-1,2.784E1,2.867E1,2.892E1,3.5E-1,6E-1,8.7E-1,4.357E1,-3.9388087E-2,-3.628416E-2,-4.3883674E-2,-3.9276507E-2,-3.4169074E-2,-2.7366241E-2,-3.9440207E-2,-3.532252E-2,-5.4893352E-2,6.716923E-5,-4.9385127E-2,-4.1991126E-2,-3.9063904E-2,-1.2705103E-2,-3.7883747E-2,-3.3827983E-2],"split_indices":[6,0,0,0,0,0,0,1,0,1,0,0,0,1,1,1,0,0,0,0,0,0,0,0,0,0,0,0,0,0,0,0,0],"split_type":[0,0,0,0,0,0,0,0,0,0,0,0,0,0,0,0,0,0,0,0,0,0,0,0,0,0,0,0,0,0,0,0,0],"sum_hessian":[5.414347E4,4.3872617E4,1.0270854E4,1.7803389E4,2.6069227E4,1.2162728E4,5.640661E3,1.9168694E3,2.4152357E4,9.347875E3,2.8148533E3,1.0948583E3,4.545803E3,2.4665316E1,1.8922041E3,1.5089471E2,2.4001463E4,1.4836372E3,7.8642373E3,5.313672E2,2.283486E3,9.1188116E2,1.8297716E2,9.056373E2,3.6401658E3,8.679518E0,1.5985799E1,2.8871854E2,1.6034856E3,9.8375175E1,5.251953E1,2.350316E4,4.983032E2],"tree_param":{"num_deleted":"0","num_feature":"7","num_nodes":"33","size_leaf_vector":"1"}},{"base_weights":[-1.594909E-1,-7.3268276E-1,1.09099746E-1,-7.1843797E-1,-7.4239033E-1,-7.311065E-1,-6.910313E-1,-8.428524E-1,-7.3524374E-1,-7.154178E-1,-7.830488E-1,-6.413799E-1,-7.02868E-1,-9.0139073E-1,-8.0438733E-1,-7.279871E-1,-7.5539505E-1,-3.4960296E-2,-3.740329E-2,-4.13146E-2,-3.7588976E-2,-3.3171132E-2,-2.644813E-2,-3.3476867E-2,-3.6819495E-2,-4.2011987E-2,-5.216939E-2,-2.833949E-2,-4.151904E-2,-3.6504254E-2,-3.1186601E-2,-3.460243E-2,-3.8842272E-2],"categories":[],"categories_nodes":[],"categories_segments":[],"categories_sizes":[],"default_left":[0,0,0,0,0,0,0,0,0,0,0,0,0,0,0,0,0,0,0,0,0,0,0,0,0,0,0,0,0,0,0,0,0],"id":6,"left_children":[1,3,-1,5,7,9,11,13,15,17,19,21,23,25,27,29,31,-1,-1,-1,-1,-1,-1,-1,-1,-1,-1,-1,-1,-1,-1,-1,-1],"loss_changes":[7.1601016E4,5.392578E0,0E0,5.536133E0,1.7657227E1,9.123047E0,2.7929688E0,3.0665283E0,2.9277344E0,4.3134766E0,3.091919E0,2.3099976E0,4.4746094E0,4.849304E0,5.862549E0,3.3740234E0,7.9797363E0,0E0,0E0,0E0,0E0,0E0,0E0,0E0,0E0,0E0,0E0,0E0,0E0,0E0,0E0,0E0,0E0],"parents":[2147483647,0,0,1,1,3,3,4,4,5,5,6,6,7,7,8,8,9,9,10,10,11,11,12,12,13,13,14,14,15,15,16,16],"right_children":[2,4,-1,6,8,10,12,14,16,18,20,22,24,26,28,30,32,-1,-1,-1,-1,-1,-1,-1,-1,-1,-1,-1,-1,-1,-1,-1,-1],"split_conditions":[1E0,2.967E1,1.09099746E-1,2.846E1,3.003E1,2.768E1,2.871E1,7.3E-1,3.915E1,6.7E-1,6.6E-1,2.867E1,8E-1,2.992E1,7.7E-1,3.887E1,4.8E-1,-3.4960296E-2,-3.740329E-2,-4.13146E-2,-3.7588976E-2,-3.3171132E-2,-2.644813E-2,-3.3476867E-2,-3.6819495E-2,-4.2011987E-2,-5.216939E-2,-2.833949E-2,-4.151904E-2,-3.6504254E-2,-3.1186601E-2,-3.460243E-2,-3.8842272E-2],"split_indices":[6,0,0,0,0,0,0,1,0,1,1,0,1,0,1,0,1,0,0,0,0,0,0,0,0,0,0,0,0,0,0,0,0],"split_type":[0,0,0,0,0,0,0,0,0,0,0,0,0,0,0,0,0,0,0,0,0,0,0,0,0,0,0,0,0,0,0,0,0],"sum_hessian":[5.334698E4,4.2856473E4,1.0490507E4,1.7399564E4,2.5456908E4,1.1881665E4,5.517899E3,1.6828969E3,2.3774012E4,9.136758E3,2.744908E3,1.072844E3,4.4450547E3,6.584288E2,1.024468E3,1.7506832E4,6.26718E3,6.12013E3,3.0166277E3,1.1412367E3,1.6036711E3,8.9286914E2,1.7997488E2,2.2393984E3,2.2056562E3,4.6506583E2,1.9336298E2,1.03274536E2,9.2119354E2,1.7155602E4,3.5122955E2,1.59377E3,4.6734097E3],"tree_param":{"num_deleted":"0","num_feature":"7","num_nodes":"33","size_leaf_vector":"1"}},{"base_weights":[-1.5445234E-1,-7.1284235E-1,1.0220163E-1,-6.986254E-1,-7.2253925E-1,-7.1126634E-1,-6.7131734E-1,-8.180487E-1,-7.149763E-1,-6.956039E-1,-7.632462E-1,-6.220072E-1,-6.830984E-1,-3.6736274E-1,-8.237988E-1,-5.586019E-1,-7.1594036E-1,-3.7470803E-2,-3.42685E-2,-4.199514E-2,-3.725434E-2,-3.219335E-2,-2.5552278E-2,-3.7522033E-2,-3.3309147E-2,-5.3576052E-2,2.1659818E-3,-4.763749E-2,-4.0007196E-2,-3.711608E-2,-1.0634372E-2,-3.4986954E-2,-3.623179E-2],"categories":[],"categories_nodes":[],"categories_segments":[],"categories_sizes":[],"default_left":[0,0,0,0,0,0,0,0,0,0,0,0,0,0,0,0,0,0,0,0,0,0,0,0,0,0,0,0,0,0,0,0,0],"id":7,"left_children":[1,3,-1,5,7,9,11,13,15,17,19,21,23,25,27,29,31,-1,-1,-1,-1,-1,-1,-1,-1,-1,-1,-1,-1,-1,-1,-1,-1],"loss_changes":[6.446166E4,5.2695312E0,0E0,5.3935547E0,1.7375E1,8.921875E0,2.7121582E0,4.4073486E0,3.0751953E0,4.40625E0,3.102295E0,2.2240295E0,4.4539795E0,7.189868E0,4.7094727E0,9.106468E0,2.7197266E0,0E0,0E0,0E0,0E0,0E0,0E0,0E0,0E0,0E0,0E0,0E0,0E0,0E0,0E0,0E0,0E0],"parents":[2147483647,0,0,1,1,3,3,4,4,5,5,6,6,7,7,8,8,9,9,10,10,11,11,12,12,13,13,14,14,15,15,16,16],"right_children":[2,4,-1,6,8,10,12,14,16,18,20,22,24,26,28,30,32,-1,-1,-1,-1,-1,-1,-1,-1,-1,-1,-1,-1,-1,-1,-1,-1],"split_conditions":[1E0,2.967E1,1.0220163E-1,2.846E1,3.007E1,2.768E1,2.871E1,3.8E-1,3.01E1,5E-1,2.784E1,2.867E1,2.892E1,3.5E-1,6E-1,8.7E-1,5.9E-1,-3.7470803E-2,-3.42685E-2,-4.199514E-2,-3.725434E-2,-3.219335E-2,-2.5552278E-2,-3.7522033E-2,-3.3309147E-2,-5.3576052E-2,2.1659818E-3,-4.763749E-2,-4.0007196E-2,-3.711608E-2,-1.0634372E-2,-3.4986954E-2,-3.623179E-2],"split_indices":[6,0,0,0,0,0,0,1,0,1,0,0,0,1,1,1,1,0,0,0,0,0,0,0,0,0,0,0,0,0,0,0,0],"split_type":[0,0,0,0,0,0,0,0,0,0,0,0,0,0,0,0,0,0,0,0,0,0,0,0,0,0,0,0,0,0,0,0,0],"sum_hessian":[5.250761E4,4.187302E4,1.0634592E4,1.7008828E4,2.486419E4,1.1609646E4,5.3991816E3,1.8165552E3,2.3047635E4,8.932506E3,2.6771409E3,1.0515725E3,4.3476094E3,2.3701971E1,1.7928533E3,1.4477756E2,2.2902857E4,1.415785E3,7.51672E3,5.040651E2,2.173076E3,8.74492E2,1.7708052E2,8.641149E2,3.4834941E3,8.138511E0,1.5563461E1,2.71815E2,1.5210382E3,9.380861E1,5.0968952E1,8.0274995E3,1.4875357E4],"tree_param":{"num_deleted":"0","num_feature":"7","num_nodes":"33","size_leaf_vector":"1"}},{"base_weights":[-1.4963189E-1,-6.933637E-1,9.635172E-2,-6.791803E-1,-7.030462E-1,-6.91789E-1,-6.519816E-1,-8.043712E-1,-6.958924E-1,-6.761584E-1,-7.4379057E-1,-6.262146E-1,-6.7454964E-1,-8.646739E-1,-7.649645E-1,-6.884419E-1,-7.1660155E-1,-3.2976434E-2,-3.5484616E-2,-3.9284535E-2,-3.548274E-2,-3.2051902E-2,-7.450249E-3,-3.6910277E-2,-3.1467598E-2,-4.0058922E-2,-5.066607E-2,-2.6126543E-2,-3.958864E-2,-3.4041688E-2,-3.6056444E-2,-3.261393E-2,-3.692314E-2],"categories":[],"categories_nodes":[],"categories_segments":[],"categories_sizes":[],"default_left":[0,0,0,0,0,0,0,0,0,0,0,0,0,0,0,0,0,0,0,0,0,0,0,0,0,0,0,0,0,0,0,0,0],"id":8,"left_children":[1,3,-1,5,7,9,11,13,15,17,19,21,23,25,27,29,31,-1,-1,-1,-1,-1,-1,-1,-1,-1,-1,-1,-1,-1,-1,-1,-1],"loss_changes":[5.830743E4,5.142578E0,0E0,5.2524414E0,1.7048828E1,8.720703E0,2.651123E0,3.130005E0,3.0078125E0,4.4038086E0,3.1790771E0,1.746045E1,7.6047363E0,5.0675354E0,5.9142456E0,3.666504E0,7.928711E0,0E0,0E0,0E0,0E0,0E0,0E0,0E0,0E0,0E0,0E0,0E0,0E0,0E0,0E0,0E0,0E0],"parents":[2147483647,0,0,1,1,3,3,4,4,5,5,6,6,7,7,8,8,9,9,10,10,11,11,12,12,13,13,14,14,15,15,16,16],"right_children":[2,4,-1,6,8,10,12,14,16,18,20,22,24,26,28,30,32,-1,-1,-1,-1,-1,-1,-1,-1,-1,-1,-1,-1,-1,-1,-1,-1],"split_conditions":[1E0,2.967E1,9.635172E-2,2.846E1,3.003E1,2.768E1,7.7E-1,7.3E-1,3.915E1,6.7E-1,6.8E-1,7.6E-1,8.9E-1,2.992E1,7.7E-1,1E0,4.8E-1,-3.2976434E-2,-3.5484616E-2,-3.9284535E-2,-3.548274E-2,-3.2051902E-2,-7.450249E-3,-3.6910277E-2,-3.1467598E-2,-4.0058922E-2,-5.066607E-2,-2.6126543E-2,-3.958864E-2,-3.4041688E-2,-3.6056444E-2,-3.261393E-2,-3.692314E-2],"split_indices":[6,0,0,0,0,0,1,1,0,1,1,1,1,0,1,3,1,0,0,0,0,0,0,0,0,0,0,0,0,0,0,0,0],"split_type":[0,0,0,0,0,0,0,0,0,0,0,0,0,0,0,0,0,0,0,0,0,0,0,0,0,0,0,0,0,0,0,0,0],"sum_hessian":[5.163617E4,4.0922207E4,1.0713962E4,1.6631156E4,2.4291053E4,1.1346674E4,5.284483E3,1.5945616E3,2.269649E4,8.735095E3,2.6115784E3,2.4807932E3,2.8036897E3,6.219181E2,9.7264355E2,1.6716596E4,5.979896E3,5.8531377E3,2.8819573E3,1.1625665E3,1.449012E3,2.4057217E3,7.507148E1,1.1577676E3,1.6459222E3,4.40252E2,1.8166606E2,9.888602E1,8.7375757E2,1.3578049E4,3.1385464E3,1.5246643E3,4.4552314E3],"tree_param":{"num_deleted":"0","num_feature":"7","num_nodes":"33","size_leaf_vector":"1"}},{"base_weights":[-1.4501035E-1,-6.7422706E-1,9.1322504E-2,-6.6008145E-1,-6.8389237E-1,-6.726539E-1,-6.3300115E-1,-7.8016883E-1,-6.763245E-1,-6.5706134E-1,-7.2465986E-1,-5.829749E-1,-6.449888E-1,-3.2347432E-1,-7.8610325E-1,-6.68674E-1,-6.973907E-1,-3.5625804E-2,-3.232684E-2,-4.0177956E-2,-3.5302144E-2,-3.0258713E-2,-2.3550607E-2,-3.5690498E-2,-3.1388078E-2,-5.2363213E-2,4.1190046E-3,-4.5968067E-2,-3.8093265E-2,-3.354393E-2,-2.8038958E-2,-3.1667266E-2,-3.5961162E-2],"categories":[],"categories_nodes":[],"categories_segments":[],"categories_sizes":[],"default_left":[0,0,0,0,0,0,0,0,0,0,0,0,0,0,0,0,0,0,0,0,0,0,0,0,0,0,0,0,0,0,0,0,0],"id":9,"left_children":[1,3,-1,5,7,9,11,13,15,17,19,21,23,25,27,29,31,-1,-1,-1,-1,-1,-1,-1,-1,-1,-1,-1,-1,-1,-1,-1,-1],"loss_changes":[5.2942992E4,5.017578E0,0E0,5.1132812E0,1.6769531E1,8.52002E0,2.727295E0,4.416748E0,3.0820312E0,4.526367E0,3.177124E0,2.2271423E0,4.4901123E0,7.0797954E0,4.7926025E0,3.4707031E0,7.713623E0,0E0,0E0,0E0,0E0,0E0,0E0,0E0,0E0,0E0,0E0,0E0,0E0,0E0,0E0,0E0,0E0],"parents":[2147483647,0,0,1,1,3,3,4,4,5,5,6,6,7,7,8,8,9,9,10,10,11,11,12,12,13,13,14,14,15,15,16,16],"right_children":[2,4,-1,6,8,10,12,14,16,18,20,22,24,26,28,30,32,-1,-1,-1,-1,-1,-1,-1,-1,-1,-1,-1,-1,-1,-1,-1,-1],"split_conditions":[1E0,2.967E1,9.1322504E-2,2.846E1,3.007E1,2.768E1,2.871E1,3.8E-1,3.915E1,5E-1,2.784E1,2.867E1,2.892E1,3.5E-1,6E-1,3.887E1,4.8E-1,-3.5625804E-2,-3.232684E-2,-4.0177956E-2,-3.5302144E-2,-3.0258713E-2,-2.3550607E-2,-3.5690498E-2,-3.1388078E-2,-5.2363213E-2,4.1190046E-3,-4.5968067E-2,-3.8093265E-2,-3.354393E-2,-2.8038958E-2,-3.1667266E-2,-3.5961162E-2],"split_indices":[6,0,0,0,0,0,0,1,0,1,0,0,0,1,1,0,1,0,0,0,0,0,0,0,0,0,0,0,0,0,0,0,0],"split_type":[0,0,0,0,0,0,0,0,0,0,0,0,0,0,0,0,0,0,0,0,0,0,0,0,0,0,0,0,0,0,0,0,0],"sum_hessian":[5.074207E4,4.000408E4,1.0737993E4,1.6266558E4,2.373752E4,1.10927295E4,5.1738276E3,1.7224917E3,2.2015027E4,8.544522E3,2.5482073E3,1.00972266E3,4.164105E3,2.280746E1,1.6996842E3,1.6173979E4,5.8410493E3,1.3523229E3,7.1921997E3,4.7843353E2,2.0697737E3,8.3897095E2,1.7075171E2,8.2557306E2,3.338532E3,7.6263814E0,1.5181079E1,2.5589069E2,1.4437936E3,1.5845002E4,3.289764E2,1.4925875E3,4.3484614E3],"tree_param":{"num_deleted":"0","num_feature":"7","num_nodes":"33","size_leaf_vector":"1"}},{"base_weights":[-1.4056852E-1,-6.554176E-1,8.694771E-2,-6.413185E-1,-6.6506E-1,-6.5384686E-1,-6.143738E-1,-7.671438E-1,-6.5790975E-1,-6.3830066E-1,-7.0583135E-1,-5.90202E-1,-6.3941926E-1,-8.2924086E-1,-7.268038E-1,-6.596745E-1,-5.7255673E-1,-3.106307E-2,-3.363545E-2,-3.758576E-2,-3.3643547E-2,-3.3035252E-2,-2.7122913E-2,-3.615378E-2,-2.9574407E-2,-3.8167015E-2,-4.92444E-2,-2.9151365E-2,-3.8765945E-2,-3.2919016E-2,-4.6729814E-2,-1.7814556E-2,-3.3610534E-2],"categories":[],"categories_nodes":[],"categories_segments":[],"categories_sizes":[],"default_left":[0,0,0,0,0,0,0,0,0,0,0,0,0,0,0,0,0,0,0,0,0,0,0,0,0,0,0,0,0,0,0,0,0],"id":10,"left_children":[1,3,-1,5,7,9,11,13,15,17,19,21,23,25,27,29,31,-1,-1,-1,-1,-1,-1,-1,-1,-1,-1,-1,-1,-1,-1,-1,-1],"loss_changes":[4.8224094E4,4.890625E0,0E0,4.9711914E0,1.6433594E1,8.316895E0,2.6906738E0,3.1870117E0,2.8896484E0,4.484619E0,3.25708E0,8.366516E0,9.504883E0,5.286438E0,6.001526E0,6.9433594E0,9.394043E0,0E0,0E0,0E0,0E0,0E0,0E0,0E0,0E0,0E0,0E0,0E0,0E0,0E0,0E0,0E0,0E0],"parents":[2147483647,0,0,1,1,3,3,4,4,5,5,6,6,7,7,8,8,9,9,10,10,11,11,12,12,13,13,14,14,15,15,16,16],"right_children":[2,4,-1,6,8,10,12,14,16,18,20,22,24,26,28,30,32,-1,-1,-1,-1,-1,-1,-1,-1,-1,-1,-1,-1,-1,-1,-1,-1],"split_conditions":[1E0,2.967E1,8.694771E-2,2.846E1,3.003E1,2.768E1,8E-1,7.3E-1,4.357E1,6.7E-1,6.6E-1,2.896E1,8.9E-1,2.992E1,8.2E-1,1E0,4.39E1,-3.106307E-2,-3.363545E-2,-3.758576E-2,-3.3643547E-2,-3.3035252E-2,-2.7122913E-2,-3.615378E-2,-2.9574407E-2,-3.8167015E-2,-4.92444E-2,-2.9151365E-2,-3.8765945E-2,-3.2919016E-2,-4.6729814E-2,-1.7814556E-2,-3.3610534E-2],"split_indices":[6,0,0,0,0,0,1,1,0,1,1,0,1,0,1,2,0,0,0,0,0,0,0,0,0,0,0,0,0,0,0,0,0],"split_type":[0,0,0,0,0,0,0,0,0,0,0,0,0,0,0,0,0,0,0,0,0,0,0,0,0,0,0,0,0,0,0,0,0],"sum_hessian":[4.9833055E4,3.9118227E4,1.0714827E4,1.5914837E4,2.320339E4,1.0847735E4,5.067101E3,1.5118782E3,2.1691512E4,8.360704E3,2.487032E3,2.5910227E3,2.4760786E3,5.8768E2,9.241982E2,2.1245516E4,4.4599707E2,5.604412E3,2.7562915E3,1.0305736E3,1.4564583E3,1.0409766E3,1.5500463E3,8.967881E2,1.5792904E3,4.170195E2,1.7066052E2,2.3645918E2,6.8773895E2,2.1149348E4,9.616702E1,1.4212897E2,3.038681E2],"tree_param":{"num_deleted":"0","num_feature":"7","num_nodes":"33","size_leaf_vector":"1"}},{"base_weights":[-1.3629071E-1,-6.3692147E-1,8.310285E-2,-6.2287617E-1,-6.465358E-1,-6.353538E-1,-5.960818E-1,-7.434053E-1,-6.389801E-1,-6.1986244E-1,-6.872902E-1,-5.442704E-1,-6.085195E-1,-2.8144637E-1,-7.495235E-1,-4.7406793E-1,-6.40007E-1,-3.3845417E-2,-3.0452965E-2,-3.8421046E-2,-3.341135E-2,-2.6699467E-2,-4.0619712E-2,-2.8698584E-2,-3.2174584E-2,-5.123902E-2,5.9321187E-3,-4.4360444E-2,-3.6235347E-2,-3.3476964E-2,-5.753827E-3,-3.1146279E-2,-3.245951E-2],"categories":[],"categories_nodes":[],"categories_segments":[],"categories_sizes":[],"default_left":[0,0,0,0,0,0,0,0,0,0,0,0,0,0,0,0,0,0,0,0,0,0,0,0,0,0,0,0,0,0,0,0,0],"id":11,"left_children":[1,3,-1,5,7,9,11,13,15,17,19,21,23,25,27,29,31,-1,-1,-1,-1,-1,-1,-1,-1,-1,-1,-1,-1,-1,-1,-1,-1],"loss_changes":[4.404147E4,4.7646484E0,0E0,4.8286133E0,1.613086E1,8.112305E0,2.8685303E0,4.411865E0,3.2626953E0,4.631836E0,3.243164E0,2.2420044E0,4.458374E0,6.9558673E0,4.8706055E0,9.337124E0,2.8779297E0,0E0,0E0,0E0,0E0,0E0,0E0,0E0,0E0,0E0,0E0,0E0,0E0,0E0,0E0,0E0,0E0],"parents":[2147483647,0,0,1,1,3,3,4,4,5,5,6,6,7,7,8,8,9,9,10,10,11,11,12,12,13,13,14,14,15,15,16,16],"right_children":[2,4,-1,6,8,10,12,14,16,18,20,22,24,26,28,30,32,-1,-1,-1,-1,-1,-1,-1,-1,-1,-1,-1,-1,-1,-1,-1,-1],"split_conditions":[1E0,2.967E1,8.310285E-2,2.846E1,3.007E1,2.768E1,2.871E1,3.8E-1,3.01E1,5E-1,2.784E1,1E0,8E-1,3.5E-1,6E-1,8.7E-1,5.9E-1,-3.3845417E-2,-3.0452965E-2,-3.8421046E-2,-3.341135E-2,-2.6699467E-2,-4.0619712E-2,-2.8698584E-2,-3.2174584E-2,-5.123902E-2,5.9321187E-3,-4.4360444E-2,-3.6235347E-2,-3.3476964E-2,-5.753827E-3,-3.1146279E-2,-3.245951E-2],"split_indices":[6,0,0,0,0,0,0,1,0,1,0,1,1,1,1,1,1,0,0,0,0,0,0,0,0,0,0,0,0,0,0,0,0],"split_type":[0,0,0,0,0,0,0,0,0,0,0,0,0,0,0,0,0,0,0,0,0,0,0,0,0,0,0,0,0,0,0,0,0],"sum_hessian":[4.891604E4,3.8264477E4,1.06515625E4,1.5575939E4,2.268854E4,1.0611603E4,4.964337E3,1.6345906E3,2.105395E4,8.183583E3,2.4280198E3,9.6969055E2,3.9946465E3,2.1980143E1,1.6126104E3,1.3315752E2,2.0920791E4,1.2932023E3,6.8903804E3,4.5448303E2,1.9735367E3,9.367623E2,3.2928215E1,2.018277E3,1.9763695E3,7.1446147E0,1.4835527E1,2.4096411E2,1.3716462E3,8.5653824E1,4.750369E1,7.338789E3,1.3582002E4],"tree_param":{"num_deleted":"0","num_feature":"7","num_nodes":"33","size_leaf_vector":"1"}},{"base_weights":[-1.3216075E-1,-6.187289E-1,7.96928E-2,-6.047473E-1,-6.2830865E-1,-6.1716604E-1,-5.781206E-1,-7.3096776E-1,-6.2117773E-1,-6.0174E-1,-6.690208E-1,-5.268603E-1,-5.904561E-1,-7.948447E-1,-6.897321E-1,-6.1337334E-1,-6.429162E-1,-2.9215386E-2,-3.184975E-2,-3.5667192E-2,-3.165805E-2,-2.7491897E-2,-2.0596283E-2,-3.3052843E-2,-2.8644312E-2,-3.6325917E-2,-4.788813E-2,-2.1752197E-2,-3.5922784E-2,-3.0260924E-2,-3.242341E-2,-2.8840205E-2,-3.327815E-2],"categories":[],"categories_nodes":[],"categories_segments":[],"categories_sizes":[],"default_left":[0,0,0,0,0,0,0,0,0,0,0,0,0,0,0,0,0,0,0,0,0,0,0,0,0,0,0,0,0,0,0,0,0],"id":12,"left_children":[1,3,-1,5,7,9,11,13,15,17,19,21,23,25,27,29,31,-1,-1,-1,-1,-1,-1,-1,-1,-1,-1,-1,-1,-1,-1,-1,-1],"loss_changes":[4.0310547E4,4.633789E0,0E0,4.686035E0,1.5793945E1,7.904297E0,2.7658691E0,3.2338257E0,3.1269531E0,4.5529785E0,3.3188477E0,2.290863E0,4.4766846E0,5.501251E0,6.1259766E0,3.9858398E0,7.7956543E0,0E0,0E0,0E0,0E0,0E0,0E0,0E0,0E0,0E0,0E0,0E0,0E0,0E0,0E0,0E0,0E0],"parents":[2147483647,0,0,1,1,3,3,4,4,5,5,6,6,7,7,8,8,9,9,10,10,11,11,12,12,13,13,14,14,15,15,16,16],"right_children":[2,4,-1,6,8,10,12,14,16,18,20,22,24,26,28,30,32,-1,-1,-1,-1,-1,-1,-1,-1,-1,-1,-1,-1,-1,-1,-1,-1],"split_conditions":[1E0,2.967E1,7.96928E-2,2.846E1,3.003E1,2.768E1,2.871E1,7.3E-1,3.915E1,6.7E-1,6.8E-1,2.867E1,2.892E1,2.992E1,7.7E-1,1E0,4.8E-1,-2.9215386E-2,-3.184975E-2,-3.5667192E-2,-3.165805E-2,-2.7491897E-2,-2.0596283E-2,-3.3052843E-2,-2.8644312E-2,-3.6325917E-2,-4.788813E-2,-2.1752197E-2,-3.5922784E-2,-3.0260924E-2,-3.242341E-2,-2.8840205E-2,-3.327815E-2],"split_indices":[6,0,0,0,0,0,0,1,0,1,1,0,0,0,1,3,1,0,0,0,0,0,0,0,0,0,0,0,0,0,0,0,0],"split_type":[0,0,0,0,0,0,0,0,0,0,0,0,0,0,0,0,0,0,0,0,0,0,0,0,0,0,0,0,0,0,0,0,0],"sum_hessian":[4.7996582E4,3.7442184E4,1.0554397E4,1.5249603E4,2.2192584E4,1.0384191E4,4.8654106E3,1.4348267E3,2.0757756E4,8.0130337E3,2.371158E3,9.5221155E2,3.9131992E3,5.5571344E2,8.791132E2,1.5295638E4,5.4621187E3,5.3735693E3,2.639464E3,1.051993E3,1.3191649E3,7.904098E2,1.6180176E2,7.724911E2,3.1407083E3,3.9536166E2,1.6035179E2,9.0733955E1,7.883793E2,1.2426401E4,2.8692358E3,1.4004117E3,4.061707E3],"tree_param":{"num_deleted":"0","num_feature":"7","num_nodes":"33","size_leaf_vector":"1"}},{"base_weights":[-1.2816706E-1,-6.008329E-1,7.664355E-2,-5.869241E-1,-6.103717E-1,-5.9927464E-1,-5.6048495E-1,-7.0766354E-1,-6.028437E-1,-5.839243E-1,-6.510139E-1,-5.098017E-1,-5.727114E-1,-2.4133973E-1,-7.13962E-1,-4.3715048E-1,-6.038835E-1,-3.2124374E-2,-2.8642932E-2,-3.671549E-2,-3.157645E-2,-2.4972817E-2,-3.911848E-2,-2.6775414E-2,-3.0305931E-2,-5.0187897E-2,7.5980164E-3,-4.2801764E-2,-3.4430094E-2,-3.173524E-2,-4.1045453E-3,-3.0287484E-2,-2.5768792E-2],"categories":[],"categories_nodes":[],"categories_segments":[],"categories_sizes":[],"default_left":[0,0,0,0,0,0,0,0,0,0,0,0,0,0,0,0,0,0,0,0,0,0,0,0,0,0,0,0,0,0,0,0,0],"id":13,"left_children":[1,3,-1,5,7,9,11,13,15,17,19,21,23,25,27,29,31,-1,-1,-1,-1,-1,-1,-1,-1,-1,-1,-1,-1,-1,-1,-1,-1],"loss_changes":[3.696469E4,4.504883E0,0E0,4.541504E0,1.5479004E1,7.694336E0,2.664795E0,4.3917847E0,3.209961E0,4.718994E0,3.2974243E0,2.2496643E0,4.442749E0,6.8150616E0,4.932678E0,9.02215E0,2.9960938E0,0E0,0E0,0E0,0E0,0E0,0E0,0E0,0E0,0E0,0E0,0E0,0E0,0E0,0E0,0E0,0E0],"parents":[2147483647,0,0,1,1,3,3,4,4,5,5,6,6,7,7,8,8,9,9,10,10,11,11,12,12,13,13,14,14,15,15,16,16],"right_children":[2,4,-1,6,8,10,12,14,16,18,20,22,24,26,28,30,32,-1,-1,-1,-1,-1,-1,-1,-1,-1,-1,-1,-1,-1,-1,-1,-1],"split_conditions":[1E0,2.967E1,7.664355E-2,2.846E1,3.007E1,2.768E1,2.871E1,3.8E-1,3.01E1,5E-1,2.784E1,1E0,7.8E-1,3.5E-1,6E-1,8.7E-1,4.357E1,-3.2124374E-2,-2.8642932E-2,-3.671549E-2,-3.157645E-2,-2.4972817E-2,-3.911848E-2,-2.6775414E-2,-3.0305931E-2,-5.0187897E-2,7.5980164E-3,-4.2801764E-2,-3.4430094E-2,-3.173524E-2,-4.1045453E-3,-3.0287484E-2,-2.5768792E-2],"split_indices":[6,0,0,0,0,0,0,1,0,1,0,1,1,1,1,1,0,0,0,0,0,0,0,0,0,0,0,0,0,0,0,0,0],"split_type":[0,0,0,0,0,0,0,0,0,0,0,0,0,0,0,0,0,0,0,0,0,0,0,0,0,0,0,0,0,0,0,0,0],"sum_hessian":[4.7079652E4,3.6650895E4,1.0428758E4,1.4935589E4,2.1715305E4,1.0165364E4,4.770225E3,1.5528904E3,2.0162414E4,7.848964E3,2.3164004E3,9.3538556E2,3.8348394E3,2.1218868E1,1.5316715E3,1.2836688E2,2.0034047E4,1.2383118E3,6.6106523E3,4.3218097E2,1.8842194E3,9.039099E2,3.1475649E1,1.822399E3,2.0124404E3,6.692742E0,1.4526126E1,2.2703227E2,1.3046392E3,8.197088E1,4.639601E1,1.9614623E4,4.1942453E2],"tree_param":{"num_deleted":"0","num_feature":"7","num_nodes":"33","size_leaf_vector":"1"}},{"base_weights":[-1.24297015E-1,-5.832266E-1,7.389666E-2,-5.694016E-1,-5.927171E-1,-5.8167535E-1,-5.4316825E-1,-6.957038E-1,-5.856249E-1,-5.701874E-1,-6.5039E-1,-5.219164E-1,-5.72471E-1,-7.612993E-1,-6.53638E-1,-5.776466E-1,-6.0787153E-1,-2.8062517E-2,-3.5129216E-2,-3.608343E-2,-2.6167775E-2,-2.3438607E-3,-2.6438413E-2,-5.0718844E-2,-2.7972383E-2,-3.4528237E-2,-4.658405E-2,-2.5109325E-2,-3.5271835E-2,-2.8469339E-2,-3.066285E-2,-2.7050642E-2,-3.154345E-2],"categories":[],"categories_nodes":[],"categories_segments":[],"categories_sizes":[],"default_left":[0,0,0,0,0,0,0,0,0,0,0,0,0,0,0,0,0,0,0,0,0,0,0,0,0,0,0,0,0,0,0,0,0],"id":14,"left_children":[1,3,-1,5,7,9,11,13,15,17,19,21,23,25,27,29,31,-1,-1,-1,-1,-1,-1,-1,-1,-1,-1,-1,-1,-1,-1,-1,-1],"loss_changes":[3.3950426E4,4.3710938E0,0E0,4.395996E0,1.5118652E1,7.4882812E0,2.6157227E0,3.2668457E0,3.1801758E0,9.708252E0,1.2470703E1,8.8411255E0,1.0694824E1,5.7076416E0,6.222046E0,3.9643555E0,7.703369E0,0E0,0E0,0E0,0E0,0E0,0E0,0E0,0E0,0E0,0E0,0E0,0E0,0E0,0E0,0E0,0E0],"parents":[2147483647,0,0,1,1,3,3,4,4,5,5,6,6,7,7,8,8,9,9,10,10,11,11,12,12,13,13,14,14,15,15,16,16],"right_children":[2,4,-1,6,8,10,12,14,16,18,20,22,24,26,28,30,32,-1,-1,-1,-1,-1,-1,-1,-1,-1,-1,-1,-1,-1,-1,-1,-1],"split_conditions":[1E0,2.967E1,7.389666E-2,2.846E1,3.003E1,2.799E1,2.919E1,7.3E-1,3.915E1,9.7E-1,8.5E-1,3.8E-1,4.7E-1,2.992E1,8.2E-1,1E0,4.8E-1,-2.8062517E-2,-3.5129216E-2,-3.608343E-2,-2.6167775E-2,-2.3438607E-3,-2.6438413E-2,-5.0718844E-2,-2.7972383E-2,-3.4528237E-2,-4.658405E-2,-2.5109325E-2,-3.5271835E-2,-2.8469339E-2,-3.066285E-2,-2.7050642E-2,-3.154345E-2],"split_indices":[6,0,0,0,0,0,0,1,0,1,1,1,1,0,1,3,1,0,0,0,0,0,0,0,0,0,0,0,0,0,0,0,0],"split_type":[0,0,0,0,0,0,0,0,0,0,0,0,0,0,0,0,0,0,0,0,0,0,0,0,0,0,0,0,0,0,0,0,0],"sum_hessian":[4.616935E4,3.588996E4,1.0279389E4,1.4633709E4,2.1256254E4,9.9549375E3,4.678771E3,1.3632585E3,1.9892996E4,8.536985E3,1.4179524E3,2.7228416E3,1.9559292E3,5.2597656E2,8.372819E2,1.4661837E4,5.2311587E3,8.002069E3,5.349167E2,9.053071E2,5.126453E2,3.882689E1,2.6840146E3,5.3791615E1,1.9021376E3,3.7524527E2,1.5073131E2,2.1610858E2,6.2117334E2,1.1915101E4,2.746736E3,1.3451188E3,3.8860398E3],"tree_param":{"num_deleted":"0","num_feature":"7","num_nodes":"33","size_leaf_vector":"1"}},{"base_weights":[-1.2054246E-1,-5.659066E-1,7.140526E-2,-5.5217445E-1,-5.753425E-1,-5.6436276E-1,-5.26165E-1,-6.727936E-1,-5.678641E-1,-5.491144E-1,-6.160177E-1,-4.7576484E-1,-5.3837067E-1,-2.0315972E-1,-6.792658E-1,-5.5971706E-1,-5.903753E-1,-2.7631432E-2,-1.7905978E-2,-3.5125036E-2,-2.9792214E-2,-2.4967613E-2,-1.7937543E-2,-3.0623848E-2,-2.5999501E-2,-4.9198914E-2,9.12123E-3,-4.1281637E-2,-3.267028E-2,-2.8109014E-2,-2.1997519E-2,-3.0773709E-2,-2.6407922E-2],"categories":[],"categories_nodes":[],"categories_segments":[],"categories_sizes":[],"default_left":[0,0,0,0,0,0,0,0,0,0,0,0,0,0,0,0,0,0,0,0,0,0,0,0,0,0,0,0,0,0,0,0,0],"id":15,"left_children":[1,3,-1,5,7,9,11,13,15,17,19,21,23,25,27,29,31,-1,-1,-1,-1,-1,-1,-1,-1,-1,-1,-1,-1,-1,-1,-1,-1],"loss_changes":[3.1224303E4,4.2373047E0,0E0,4.2504883E0,1.4788574E1,7.3444824E0,2.5688477E0,4.3549194E0,3.2163086E0,4.863037E0,3.4455566E0,2.3155518E0,4.706421E0,6.6587462E0,4.977783E0,3.947754E0,7.6713867E0,0E0,0E0,0E0,0E0,0E0,0E0,0E0,0E0,0E0,0E0,0E0,0E0,0E0,0E0,0E0,0E0],"parents":[2147483647,0,0,1,1,3,3,4,4,5,5,6,6,7,7,8,8,9,9,10,10,11,11,12,12,13,13,14,14,15,15,16,16],"right_children":[2,4,-1,6,8,10,12,14,16,18,20,22,24,26,28,30,32,-1,-1,-1,-1,-1,-1,-1,-1,-1,-1,-1,-1,-1,-1,-1,-1],"split_conditions":[1E0,2.967E1,7.140526E-2,2.846E1,3.007E1,2.768E1,2.871E1,3.8E-1,3.915E1,2.763E1,2.784E1,2.867E1,2.892E1,3.5E-1,6E-1,3.887E1,4.224E1,-2.7631432E-2,-1.7905978E-2,-3.5125036E-2,-2.9792214E-2,-2.4967613E-2,-1.7937543E-2,-3.0623848E-2,-2.5999501E-2,-4.9198914E-2,9.12123E-3,-4.1281637E-2,-3.267028E-2,-2.8109014E-2,-2.1997519E-2,-3.0773709E-2,-2.6407922E-2],"split_indices":[6,0,0,0,0,0,0,1,0,0,0,0,0,1,1,0,0,0,0,0,0,0,0,0,0,0,0,0,0,0,0,0,0],"split_type":[0,0,0,0,0,0,0,0,0,0,0,0,0,0,0,0,0,0,0,0,0,0,0,0,0,0,0,0,0,0,0,0,0],"sum_hessian":[4.5269324E4,3.5158875E4,1.0110446E4,1.434373E4,2.0815146E4,9.752771E3,4.590959E3,1.477158E3,1.9337988E4,7.5389365E3,2.213835E3,9.0284656E2,3.6881123E3,2.0520626E1,1.4566373E3,1.4218149E4,5.119839E3,7.400871E3,1.3806549E2,4.123363E2,1.8014985E3,7.486649E2,1.5418161E2,7.2654346E2,2.9615688E3,6.270592E0,1.4250033E1,2.1407257E2,1.2425647E3,1.3927999E4,2.9015054E2,3.6418088E3,1.4780303E3],"tree_param":{"num_deleted":"0","num_feature":"7","num_nodes":"33","size_leaf_vector":"1"}},{"base_weights":[-1.1689217E-1,-5.488705E-1,6.91314E-2,-5.3524363E-1,-5.5824304E-1,-5.87881E-1,-5.2927196E-1,-6.612549E-1,-5.512116E-1,-5.7335544E-1,-8.3826107E-1,-5.343791E-1,-4.2235392E-1,-7.2847056E-1,-6.18448E-1,-5.3309476E-1,-5.608227E-1,-3.0467693E-2,-8.831794E-3,-4.9674045E-2,-2.404232E-2,-2.6391804E-2,-2.9619971E-2,-1.0867119E-2,-2.3821382E-2,-3.2769136E-2,-4.5321506E-2,-1.7666006E-2,-3.2449856E-2,-3.489574E-2,-2.6222274E-2,-2.7409105E-2,-3.0864095E-2],"categories":[],"categories_nodes":[],"categories_segments":[],"categories_sizes":[],"default_left":[0,0,0,0,0,0,0,0,0,0,0,0,0,0,0,0,0,0,0,0,0,0,0,0,0,0,0,0,0,0,0,0,0],"id":16,"left_children":[1,3,-1,5,7,9,11,13,15,17,19,21,23,25,27,29,31,-1,-1,-1,-1,-1,-1,-1,-1,-1,-1,-1,-1,-1,-1,-1,-1],"loss_changes":[2.8750459E4,4.1015625E0,0E0,4.1105957E0,1.4405762E1,4.6989746E0,6.6782227E0,3.2842407E0,3.0268555E0,1.9161255E1,3.7345772E0,4.2666016E0,6.3390884E0,5.9014587E0,6.24704E0,9.098511E0,8.55249E0,0E0,0E0,0E0,0E0,0E0,0E0,0E0,0E0,0E0,0E0,0E0,0E0,0E0,0E0,0E0,0E0],"parents":[2147483647,0,0,1,1,3,3,4,4,5,5,6,6,7,7,8,8,9,9,10,10,11,11,12,12,13,13,14,14,15,15,16,16],"right_children":[2,4,-1,6,8,10,12,14,16,18,20,22,24,26,28,30,32,-1,-1,-1,-1,-1,-1,-1,-1,-1,-1,-1,-1,-1,-1,-1,-1],"split_conditions":[1E0,2.967E1,6.91314E-2,4.9E-1,3.003E1,2.919E1,1E0,7.3E-1,5.9E-1,2.863E1,2.952E1,9.7E-1,2.6E1,2.992E1,7.7E-1,3.079E1,3.928E1,-3.0467693E-2,-8.831794E-3,-4.9674045E-2,-2.404232E-2,-2.6391804E-2,-2.9619971E-2,-1.0867119E-2,-2.3821382E-2,-3.2769136E-2,-4.5321506E-2,-1.7666006E-2,-3.2449856E-2,-3.489574E-2,-2.6222274E-2,-2.7409105E-2,-3.0864095E-2],"split_indices":[6,0,0,1,0,0,3,1,1,0,0,1,0,0,1,0,0,0,0,0,0,0,0,0,0,0,0,0,0,0,0,0,0],"split_type":[0,0,0,0,0,0,0,0,0,0,0,0,0,0,0,0,0,0,0,0,0,0,0,0,0,0,0,0,0,0,0,0,0],"sum_hessian":[4.4382246E4,3.4456676E4,9.925566E3,1.4065201E4,2.0391477E4,1.4231698E3,1.2642031E4,1.2970101E3,1.9094467E4,1.3482424E3,7.492741E1,1.2061867E4,5.8016345E2,4.984003E2,7.9860986E2,6.6381353E3,1.2456331E4,1.2355889E3,1.1265356E2,5.0999474E1,2.392793E1,1.084855E4,1.2133179E3,1.22133575E2,4.5802985E2,3.5661957E2,1.4178073E2,8.3809975E1,7.147999E2,3.2700897E2,6.3111265E3,1.0186398E4,2.2699321E3],"tree_param":{"num_deleted":"0","num_feature":"7","num_nodes":"33","size_leaf_vector":"1"}},{"base_weights":[-1.1334065E-1,-5.321166E-1,6.7043915E-2,-5.186029E-1,-5.4142034E-1,-5.3088874E-1,-4.9244285E-1,-6.3865477E-1,-5.3402233E-1,-5.191582E-1,-6.0142946E-1,-4.708693E-1,-5.2227324E-1,-1.6637383E-1,-6.4529645E-1,-3.609513E-1,-5.351199E-1,-2.5504006E-2,-3.2735668E-2,-3.3796486E-2,-2.3482338E-2,-2.8711383E-4,-2.3888398E-2,-4.901661E-2,-2.5455862E-2,-4.825714E-2,1.0543778E-2,-3.9782275E-2,-3.0951202E-2,-3.5323646E-2,-6.955219E-3,-2.6853075E-2,-2.2185009E-2],"categories":[],"categories_nodes":[],"categories_segments":[],"categories_sizes":[],"default_left":[0,0,0,0,0,0,0,0,0,0,0,0,0,0,0,0,0,0,0,0,0,0,0,0,0,0,0,0,0,0,0,0,0],"id":17,"left_children":[1,3,-1,5,7,9,11,13,15,17,19,21,23,25,27,29,31,-1,-1,-1,-1,-1,-1,-1,-1,-1,-1,-1,-1,-1,-1,-1,-1],"loss_changes":[2.6499066E4,3.9667969E0,0E0,4.173584E0,1.4035645E1,7.4467773E0,2.600708E0,4.309143E0,3.3354492E0,9.5686035E0,1.2746582E1,8.266724E0,1.0633179E1,6.493424E0,4.9906006E0,9.111637E0,3.0385742E0,0E0,0E0,0E0,0E0,0E0,0E0,0E0,0E0,0E0,0E0,0E0,0E0,0E0,0E0,0E0,0E0],"parents":[2147483647,0,0,1,1,3,3,4,4,5,5,6,6,7,7,8,8,9,9,10,10,11,11,12,12,13,13,14,14,15,15,16,16],"right_children":[2,4,-1,6,8,10,12,14,16,18,20,22,24,26,28,30,32,-1,-1,-1,-1,-1,-1,-1,-1,-1,-1,-1,-1,-1,-1,-1,-1],"split_conditions":[1E0,2.967E1,6.7043915E-2,2.846E1,3.007E1,2.799E1,2.919E1,3.8E-1,3.01E1,9.7E-1,8.5E-1,3.8E-1,4.7E-1,3.5E-1,6E-1,7.6E-1,4.357E1,-2.5504006E-2,-3.2735668E-2,-3.3796486E-2,-2.3482338E-2,-2.8711383E-4,-2.3888398E-2,-4.901661E-2,-2.5455862E-2,-4.825714E-2,1.0543778E-2,-3.9782275E-2,-3.0951202E-2,-3.5323646E-2,-6.955219E-3,-2.6853075E-2,-2.2185009E-2],"split_indices":[6,0,0,0,0,0,0,1,0,1,1,1,1,1,1,1,0,0,0,0,0,0,0,0,0,0,0,0,0,0,0,0,0],"split_type":[0,0,0,0,0,0,0,0,0,0,0,0,0,0,0,0,0,0,0,0,0,0,0,0,0,0,0,0,0,0,0,0,0],"sum_hessian":[4.3510832E4,3.37829E4,9.727932E3,1.3798054E4,1.9984846E4,9.375593E3,4.4224604E3,1.4069939E3,1.8577852E4,8.045952E3,1.3296406E3,2.576154E3,1.8463068E3,1.9873438E1,1.3871205E3,1.19150826E2,1.8458701E4,7.5454014E3,5.0055084E2,8.4679565E2,4.82845E2,3.7677185E1,2.5384768E3,4.94951E1,1.7968116E3,5.8752055E0,1.3998233E1,2.0197795E2,1.1851426E3,4.5735035E1,7.3415794E1,1.8070049E4,3.886529E2],"tree_param":{"num_deleted":"0","num_feature":"7","num_nodes":"33","size_leaf_vector":"1"}},{"base_weights":[-1.09880544E-1,-5.156476E-1,6.5117E-2,-5.0226206E-1,-5.248721E-1,-5.554983E-1,-4.9623853E-1,-6.275703E-1,-5.1792514E-1,-5.413119E-1,-8.0489737E-1,-5.013836E-1,-3.8898647E-1,-6.962701E-1,-5.8413166E-1,-5.098646E-1,-5.404717E-1,-2.8865764E-2,-7.6637003E-3,-4.8371464E-2,-2.1911742E-2,-2.4746384E-2,-2.7943144E-2,-9.324107E-3,-2.2149231E-2,-3.1045998E-2,-4.4092026E-2,-2.1300973E-2,-3.195074E-2,-2.5055844E-2,-2.7382648E-2,-2.3591606E-2,-2.8213156E-2],"categories":[],"categories_nodes":[],"categories_segments":[],"categories_sizes":[],"default_left":[0,0,0,0,0,0,0,0,0,0,0,0,0,0,0,0,0,0,0,0,0,0,0,0,0,0,0,0,0,0,0,0,0],"id":18,"left_children":[1,3,-1,5,7,9,11,13,15,17,19,21,23,25,27,29,31,-1,-1,-1,-1,-1,-1,-1,-1,-1,-1,-1,-1,-1,-1,-1,-1],"loss_changes":[2.4444969E4,3.828125E0,0E0,4.0671387E0,1.3655273E1,4.405121E0,6.5234375E0,3.2842712E0,3.0610352E0,1.804004E1,3.8420448E0,4.0334473E0,6.0606384E0,6.078842E0,6.356964E0,4.2021484E0,7.602539E0,0E0,0E0,0E0,0E0,0E0,0E0,0E0,0E0,0E0,0E0,0E0,0E0,0E0,0E0,0E0,0E0],"parents":[2147483647,0,0,1,1,3,3,4,4,5,5,6,6,7,7,8,8,9,9,10,10,11,11,12,12,13,13,14,14,15,15,16,16],"right_children":[2,4,-1,6,8,10,12,14,16,18,20,22,24,26,28,30,32,-1,-1,-1,-1,-1,-1,-1,-1,-1,-1,-1,-1,-1,-1,-1,-1],"split_conditions":[1E0,2.967E1,6.5117E-2,4.9E-1,3.003E1,2.919E1,1E0,7.3E-1,3.915E1,2.863E1,2.952E1,9.7E-1,2.6E1,2.992E1,8.2E-1,1E0,4.8E-1,-2.8865764E-2,-7.6637003E-3,-4.8371464E-2,-2.1911742E-2,-2.4746384E-2,-2.7943144E-2,-9.324107E-3,-2.2149231E-2,-3.1045998E-2,-4.4092026E-2,-2.1300973E-2,-3.195074E-2,-2.5055844E-2,-2.7382648E-2,-2.3591606E-2,-2.8213156E-2],"split_indices":[6,0,0,1,0,0,3,1,0,0,0,1,0,0,1,3,1,0,0,0,0,0,0,0,0,0,0,0,0,0,0,0,0],"split_type":[0,0,0,0,0,0,0,0,0,0,0,0,0,0,0,0,0,0,0,0,0,0,0,0,0,0,0,0,0,0,0,0,0],"sum_hessian":[4.2656777E4,3.313646E4,9.520316E3,1.3541755E4,1.9594707E4,1.3671989E3,1.2174556E4,1.2358323E3,1.8358875E4,1.2966147E3,7.05841E1,1.1613752E4,5.608042E2,4.7289783E2,7.629344E2,1.3541373E4,4.817502E3,1.186079E3,1.1053578E2,4.77703E1,2.2813797E1,1.0449683E4,1.164069E3,1.1899637E2,4.4180783E2,3.3942258E2,1.3347525E2,1.9884526E2,5.640892E2,1.1007475E4,2.5338982E3,1.2453699E3,3.5721318E3],"tree_param":{"num_deleted":"0","num_feature":"7","num_nodes":"33","size_leaf_vector":"1"}},{"base_weights":[-1.0650652E-1,-4.9946237E-1,6.332911E-2,-4.8621368E-1,-5.0860155E-1,-4.9855652E-1,-4.5999074E-1,-6.053563E-1,-5.0130296E-1,-4.8671854E-1,-5.700137E-1,-3.8268423E-1,-4.6859422E-1,-1.3218567E-1,-6.121505E-1,-3.28941E-1,-5.024054E-1,-2.3884889E-2,-3.1123344E-2,-3.229751E-2,-2.1835236E-2,-4.5348078E-2,-1.7810794E-2,-1.1808907E-2,-2.3572851E-2,-4.736558E-2,1.1784971E-2,-3.8317572E-2,-2.9275248E-2,-2.6977783E-2,1.6708768E-3,-2.41765E-2,-2.5629332E-2],"categories":[],"categories_nodes":[],"categories_segments":[],"categories_sizes":[],"default_left":[0,0,0,0,0,0,0,0,0,0,0,0,0,0,0,0,0,0,0,0,0,0,0,0,0,0,0,0,0,0,0,0,0],"id":19,"left_children":[1,3,-1,5,7,9,11,13,15,17,19,21,23,25,27,29,31,-1,-1,-1,-1,-1,-1,-1,-1,-1,-1,-1,-1,-1,-1,-1,-1],"loss_changes":[2.256674E4,3.6904297E0,0E0,4.074463E0,1.3270508E1,7.3605957E0,2.65979E0,4.2380066E0,3.2324219E0,9.196533E0,1.2649384E1,5.6846848E0,2.4413452E0,6.308483E0,4.991913E0,8.910998E0,3.1655273E0,0E0,0E0,0E0,0E0,0E0,0E0,0E0,0E0,0E0,0E0,0E0,0E0,0E0,0E0,0E0,0E0],"parents":[2147483647,0,0,1,1,3,3,4,4,5,5,6,6,7,7,8,8,9,9,10,10,11,11,12,12,13,13,14,14,15,15,16,16],"right_children":[2,4,-1,6,8,10,12,14,16,18,20,22,24,26,28,30,32,-1,-1,-1,-1,-1,-1,-1,-1,-1,-1,-1,-1,-1,-1,-1,-1],"split_conditions":[1E0,2.967E1,6.332911E-2,2.846E1,3.007E1,2.799E1,2.859E1,3.8E-1,3.01E1,9.7E-1,8.5E-1,4.8E-1,3.8E-1,3.5E-1,6E-1,8.7E-1,5.9E-1,-2.3884889E-2,-3.1123344E-2,-3.229751E-2,-2.1835236E-2,-4.5348078E-2,-1.7810794E-2,-1.1808907E-2,-2.3572851E-2,-4.736558E-2,1.1784971E-2,-3.8317572E-2,-2.9275248E-2,-2.6977783E-2,1.6708768E-3,-2.41765E-2,-2.5629332E-2],"split_indices":[6,0,0,0,0,0,0,1,0,1,1,1,1,1,1,1,1,0,0,0,0,0,0,0,0,0,0,0,0,0,0,0,0],"split_type":[0,0,0,0,0,0,0,0,0,0,0,0,0,0,0,0,0,0,0,0,0,0,0,0,0,0,0,0,0,0,0,0,0],"sum_hessian":[4.1821918E4,3.2516777E4,9.305142E3,1.3296105E4,1.9220672E4,9.028486E3,4.267619E3,1.3424404E3,1.787823E4,7.752049E3,1.2764375E3,4.3193686E2,3.8356824E3,1.929262E1,1.3231478E3,1.1552515E2,1.7762705E4,7.2732456E3,4.7880347E2,8.1076056E2,4.65677E2,1.9159782E1,4.1277707E2,4.768698E1,3.7879956E3,5.509704E0,1.3782916E1,1.9085931E2,1.1322885E3,7.2750916E1,4.2774235E1,6.2409326E3,1.1521772E4],"tree_param":{"num_deleted":"0","num_feature":"7","num_nodes":"33","size_leaf_vector":"1"}},{"base_weights":[-1.0321313E-1,-4.8356447E-1,6.1662085E-2,-4.704667E-1,-4.9260828E-1,-5.2427906E-1,-4.6439368E-1,-5.946246E-1,-4.857703E-1,-5.098277E-1,-7.801562E-1,-4.695653E-1,-3.5705712E-1,-6.6463953E-1,-5.506825E-1,-4.7758797E-1,-5.0868475E-1,-2.7297556E-2,-6.4070835E-3,-4.7483303E-2,-1.9902503E-2,-2.316068E-2,-2.631755E-2,-7.882769E-3,-2.054108E-2,-2.9357592E-2,-4.2888712E-2,-1.9547058E-2,-3.0332893E-2,-2.401059E-2,-1.747982E-2,-2.6764223E-2,-2.2157175E-2],"categories":[],"categories_nodes":[],"categories_segments":[],"categories_sizes":[],"default_left":[0,0,0,0,0,0,0,0,0,0,0,0,0,0,0,0,0,0,0,0,0,0,0,0,0,0,0,0,0,0,0,0,0],"id":20,"left_children":[1,3,-1,5,7,9,11,13,15,17,19,21,23,25,27,29,31,-1,-1,-1,-1,-1,-1,-1,-1,-1,-1,-1,-1,-1,-1,-1,-1],"loss_changes":[2.0846068E4,3.5493164E0,0E0,4.0251465E0,1.2869629E1,4.4716797E0,6.352295E0,3.2658691E0,3.072754E0,1.7155548E1,4.0594597E0,3.796875E0,5.768257E0,6.236328E0,6.3002014E0,4.213867E0,7.8479004E0,0E0,0E0,0E0,0E0,0E0,0E0,0E0,0E0,0E0,0E0,0E0,0E0,0E0,0E0,0E0,0E0],"parents":[2147483647,0,0,1,1,3,3,4,4,5,5,6,6,7,7,8,8,9,9,10,10,11,11,12,12,13,13,14,14,15,15,16,16],"right_children":[2,4,-1,6,8,10,12,14,16,18,20,22,24,26,28,30,32,-1,-1,-1,-1,-1,-1,-1,-1,-1,-1,-1,-1,-1,-1,-1,-1],"split_conditions":[1E0,2.967E1,6.1662085E-2,4.9E-1,3.003E1,2.919E1,1E0,7.3E-1,3.915E1,2.863E1,4.7E-1,9.7E-1,2.6E1,2.992E1,8.2E-1,3.887E1,4.224E1,-2.7297556E-2,-6.4070835E-3,-4.7483303E-2,-1.9902503E-2,-2.316068E-2,-2.631755E-2,-7.882769E-3,-2.054108E-2,-2.9357592E-2,-4.2888712E-2,-1.9547058E-2,-3.0332893E-2,-2.401059E-2,-1.747982E-2,-2.6764223E-2,-2.2157175E-2],"split_indices":[6,0,0,1,0,0,3,1,0,0,1,1,0,0,1,0,0,0,0,0,0,0,0,0,0,0,0,0,0,0,0,0,0],"split_type":[0,0,0,0,0,0,0,0,0,0,0,0,0,0,0,0,0,0,0,0,0,0,0,0,0,0,0,0,0,0,0,0,0],"sum_hessian":[4.1007367E4,3.1922852E4,9.084517E3,1.30606875E4,1.8862164E4,1.3158395E3,1.1744848E4,1.1794844E3,1.768268E4,1.248329E3,6.751046E1,1.1201759E4,5.4308923E2,4.49365E2,7.301193E2,1.304604E4,4.6366396E3,1.1400063E3,1.08322655E2,4.57358E1,2.1774658E1,1.0083078E4,1.1186803E3,1.1616999E2,4.2691928E2,3.2358096E2,1.2578404E2,1.915273E2,5.3859204E2,1.2781272E4,2.6476746E2,3.293012E3,1.3436276E3],"tree_param":{"num_deleted":"0","num_feature":"7","num_nodes":"33","size_leaf_vector":"1"}},{"base_weights":[-9.999693E-2,-4.6795464E-1,6.0100522E-2,-4.550171E-1,-4.768965E-1,-4.6737638E-1,-4.2881802E-1,-5.7279277E-1,-4.6972537E-1,-4.5148462E-1,-5.2171606E-1,-4.0324897E-1,-4.5561647E-1,-1.0004566E-1,-5.797252E-1,-2.9816434E-1,-4.7083166E-1,-2.2765432E-2,-1.2288689E-2,-3.1002551E-2,-2.4942681E-2,-2.4565184E-2,-1.7179415E-2,-2.7903682E-2,-1.9860009E-2,-4.6513315E-2,1.2892661E-2,-3.6874134E-2,-2.7638895E-2,-3.2601934E-2,-3.960752E-3,-2.2589572E-2,-2.405571E-2],"categories":[],"categories_nodes":[],"categories_segments":[],"categories_sizes":[],"default_left":[0,0,0,0,0,0,0,0,0,0,0,0,0,0,0,0,0,0,0,0,0,0,0,0,0,0,0,0,0,0,0,0,0],"id":21,"left_children":[1,3,-1,5,7,9,11,13,15,17,19,21,23,25,27,29,31,-1,-1,-1,-1,-1,-1,-1,-1,-1,-1,-1,-1,-1,-1,-1,-1],"loss_changes":[1.926707E4,3.4101562E0,0E0,3.9560547E0,1.2466797E1,7.286621E0,2.6437988E0,4.150055E0,3.1313477E0,5.1955566E0,4.107422E0,1.0970673E1,1.1791473E1,6.112806E0,4.9710083E0,8.716336E0,3.135254E0,0E0,0E0,0E0,0E0,0E0,0E0,0E0,0E0,0E0,0E0,0E0,0E0,0E0,0E0,0E0,0E0],"parents":[2147483647,0,0,1,1,3,3,4,4,5,5,6,6,7,7,8,8,9,9,10,10,11,11,12,12,13,13,14,14,15,15,16,16],"right_children":[2,4,-1,6,8,10,12,14,16,18,20,22,24,26,28,30,32,-1,-1,-1,-1,-1,-1,-1,-1,-1,-1,-1,-1,-1,-1,-1,-1],"split_conditions":[1E0,2.967E1,6.0100522E-2,2.846E1,3.007E1,2.768E1,8E-1,3.8E-1,3.01E1,2.763E1,2.784E1,2.896E1,8.9E-1,3.5E-1,6E-1,7.6E-1,5.9E-1,-2.2765432E-2,-1.2288689E-2,-3.1002551E-2,-2.4942681E-2,-2.4565184E-2,-1.7179415E-2,-2.7903682E-2,-1.9860009E-2,-4.6513315E-2,1.2892661E-2,-3.6874134E-2,-2.7638895E-2,-3.2601934E-2,-3.960752E-3,-2.2589572E-2,-2.405571E-2],"split_indices":[6,0,0,0,0,0,1,1,0,0,0,0,1,1,1,1,1,0,0,0,0,0,0,0,0,0,0,0,0,0,0,0,0],"split_type":[0,0,0,0,0,0,0,0,0,0,0,0,0,0,0,0,0,0,0,0,0,0,0,0,0,0,0,0,0,0,0,0,0],"sum_hessian":[4.0214336E4,3.1354064E4,8.86027E3,1.2835247E4,1.8518818E4,8.709669E3,4.125578E3,1.2829941E3,1.7235824E4,6.746074E3,1.9635947E3,2.119429E3,2.0061494E3,1.8765203E1,1.264229E3,1.1216376E2,1.712366E4,6.621767E3,1.2430682E2,3.6548105E2,1.5981136E3,8.530928E2,1.2663362E3,7.253664E2,1.280783E3,5.1709256E0,1.3594277E1,1.8059647E2,1.0836324E3,4.2116085E1,7.004767E1,6.0204575E3,1.1103202E4],"tree_param":{"num_deleted":"0","num_feature":"7","num_nodes":"33","size_leaf_vector":"1"}},{"base_weights":[-9.6853994E-2,-4.5263737E-1,5.863125E-2,-4.3987203E-1,-4.6146873E-1,-4.9408036E-1,-4.3377075E-1,-5.62422E-1,-4.5476398E-1,-4.7932613E-1,-7.5694406E-1,-4.3893248E-1,-3.2717088E-1,-6.335533E-1,-5.18119E-1,-4.4648147E-1,-4.779873E-1,-2.5780741E-2,-5.139986E-3,-4.6592113E-2,-1.8617952E-2,-2.162585E-2,-2.4821041E-2,-6.5236813E-3,-1.9037304E-2,-2.7704228E-2,-4.1706257E-2,-1.2002438E-2,-2.7560834E-2,-2.186267E-2,-2.4320908E-2,-2.5237907E-2,-2.0614145E-2],"categories":[],"categories_nodes":[],"categories_segments":[],"categories_sizes":[],"default_left":[0,0,0,0,0,0,0,0,0,0,0,0,0,0,0,0,0,0,0,0,0,0,0,0,0,0,0,0,0,0,0,0,0],"id":22,"left_children":[1,3,-1,5,7,9,11,13,15,17,19,21,23,25,27,29,31,-1,-1,-1,-1,-1,-1,-1,-1,-1,-1,-1,-1,-1,-1,-1,-1],"loss_changes":[1.781597E4,3.2700195E0,0E0,3.9597168E0,1.2057617E1,4.5610046E0,6.102539E0,3.2286072E0,3.0686035E0,1.640921E1,4.0752716E0,3.777588E0,5.5167046E0,6.370819E0,6.319229E0,4.4282227E0,7.6572266E0,0E0,0E0,0E0,0E0,0E0,0E0,0E0,0E0,0E0,0E0,0E0,0E0,0E0,0E0,0E0,0E0],"parents":[2147483647,0,0,1,1,3,3,4,4,5,5,6,6,7,7,8,8,9,9,10,10,11,11,12,12,13,13,14,14,15,15,16,16],"right_children":[2,4,-1,6,8,10,12,14,16,18,20,22,24,26,28,30,32,-1,-1,-1,-1,-1,-1,-1,-1,-1,-1,-1,-1,-1,-1,-1,-1],"split_conditions":[1E0,2.967E1,5.863125E-2,4.9E-1,3.003E1,2.919E1,1E0,7.3E-1,3.915E1,2.863E1,2.952E1,9.7E-1,2.6E1,2.992E1,7.7E-1,1E0,4.224E1,-2.5780741E-2,-5.139986E-3,-4.6592113E-2,-1.8617952E-2,-2.162585E-2,-2.4821041E-2,-6.5236813E-3,-1.9037304E-2,-2.7704228E-2,-4.1706257E-2,-1.2002438E-2,-2.7560834E-2,-2.186267E-2,-2.4320908E-2,-2.5237907E-2,-2.0614145E-2],"split_indices":[6,0,0,1,0,0,3,1,0,0,0,1,0,0,1,3,0,0,0,0,0,0,0,0,0,0,0,0,0,0,0,0,0],"split_type":[0,0,0,0,0,0,0,0,0,0,0,0,0,0,0,0,0,0,0,0,0,0,0,0,0,0,0,0,0,0,0,0,0],"sum_hessian":[3.9443402E4,3.0809416E4,8.633984E3,1.2619399E4,1.8190018E4,1.2685635E3,1.1350836E4,1.1276808E3,1.7062336E4,1.203818E3,6.4745476E1,1.0823621E4,5.2721497E2,4.276926E2,6.999882E2,1.259175E4,4.4705854E3,1.0976589E3,1.06159E2,4.352746E1,2.1218018E1,9.744677E3,1.078944E3,1.1359502E2,4.1361996E2,3.0901855E2,1.18674065E2,7.533279E1,6.246554E2,1.0238029E4,2.3537214E3,3.1716401E3,1.2989456E3],"tree_param":{"num_deleted":"0","num_feature":"7","num_nodes":"33","size_leaf_vector":"1"}},{"base_weights":[-9.378205E-2,-4.376149E-1,5.7242937E-2,-4.2503124E-1,-4.4632888E-1,-4.373642E-1,-3.9894646E-1,-5.4103047E-1,-4.3930846E-1,-4.251962E-1,-5.112617E-1,-3.4289208E-1,-4.1262096E-1,-7.00194E-2,-5.4808486E-1,-4.3092698E-1,-4.6260282E-1,-2.0803818E-2,-2.8198628E-2,-2.9580534E-2,-1.8567491E-2,-1.655992E-2,-3.2991257E-2,-2.4870217E-2,-1.958548E-2,-2.3771709E-2,3.4536015E-2,-3.544834E-2,-2.60465E-2,-2.1681381E-2,-1.5065794E-2,-2.1155454E-2,-2.5400316E-2],"categories":[],"categories_nodes":[],"categories_segments":[],"categories_sizes":[],"default_left":[0,0,0,0,0,0,0,0,0,0,0,0,0,0,0,0,0,0,0,0,0,0,0,0,0,0,0,0,0,0,0,0,0],"id":23,"left_children":[1,3,-1,5,7,9,11,13,15,17,19,21,23,25,27,29,31,-1,-1,-1,-1,-1,-1,-1,-1,-1,-1,-1,-1,-1,-1,-1,-1],"loss_changes":[1.648067E4,3.1323242E0,0E0,3.8190918E0,1.1647217E1,7.352295E0,2.921875E0,4.046631E0,3.0507812E0,8.920898E0,1.3104645E1,2.708084E0,5.4924927E0,6.277128E0,4.921814E0,4.1601562E0,7.659668E0,0E0,0E0,0E0,0E0,0E0,0E0,0E0,0E0,0E0,0E0,0E0,0E0,0E0,0E0,0E0,0E0],"parents":[2147483647,0,0,1,1,3,3,4,4,5,5,6,6,7,7,8,8,9,9,10,10,11,11,12,12,13,13,14,14,15,15,16,16],"right_children":[2,4,-1,6,8,10,12,14,16,18,20,22,24,26,28,30,32,-1,-1,-1,-1,-1,-1,-1,-1,-1,-1,-1,-1,-1,-1,-1,-1],"split_conditions":[1E0,2.967E1,5.7242937E-2,2.846E1,3.007E1,2.799E1,2.871E1,3.8E-1,3.915E1,9.7E-1,8.5E-1,1E0,2.892E1,2.992E1,6E-1,3.887E1,5.9E-1,-2.0803818E-2,-2.8198628E-2,-2.9580534E-2,-1.8567491E-2,-1.655992E-2,-3.2991257E-2,-2.4870217E-2,-1.958548E-2,-2.3771709E-2,3.4536015E-2,-3.544834E-2,-2.60465E-2,-2.1681381E-2,-1.5065794E-2,-2.1155454E-2,-2.5400316E-2],"split_indices":[6,0,0,0,0,0,0,1,0,1,1,1,0,0,1,0,1,0,0,0,0,0,0,0,0,0,0,0,0,0,0,0,0],"split_type":[0,0,0,0,0,0,0,0,0,0,0,0,0,0,0,0,0,0,0,0,0,0,0,0,0,0,0,0,0,0,0,0,0],"sum_hessian":[3.869525E4,3.0288227E4,8.407026E3,1.2412859E4,1.7875365E4,8.417349E3,3.9955107E3,1.2284305E3,1.6646936E4,7.233097E3,1.1842516E3,7.8867126E2,3.2068396E3,1.8288084E1,1.2101425E3,1.2256467E4,4.3904688E3,6.790829E3,4.4226828E2,7.5019745E2,4.340541E2,7.625798E2,2.6091469E1,6.299542E2,2.5768853E3,1.2174869E1,6.113216E0,1.7113379E2,1.0390087E3,1.2004001E4,2.5246538E2,2.3535654E3,2.0369034E3],"tree_param":{"num_deleted":"0","num_feature":"7","num_nodes":"33","size_leaf_vector":"1"}},{"base_weights":[-9.077757E-2,-4.2289087E-1,5.5925824E-2,-4.1050285E-1,-4.3147746E-1,-4.6497628E-1,-4.043883E-1,-5.309104E-1,-4.249345E-1,-4.4923413E-1,-7.184011E-1,-4.095489E-1,-2.9829392E-1,-6.0282606E-1,-4.8646936E-1,-3.706759E-1,-4.285155E-1,-2.3498524E-2,1.709348E-2,-1.3418321E-3,-3.988255E-2,-2.0165564E-2,-2.328508E-2,-4.3053463E-2,-1.3870298E-2,-2.6057428E-2,-4.0567633E-2,-1.6121369E-2,-2.724487E-2,-1.4632742E-2,-2.1322524E-2,-3.5733856E-2,-2.1271197E-2],"categories":[],"categories_nodes":[],"categories_segments":[],"categories_sizes":[],"default_left":[0,0,0,0,0,0,0,0,0,0,0,0,0,0,0,0,0,0,0,0,0,0,0,0,0,0,0,0,0,0,0,0,0],"id":24,"left_children":[1,3,-1,5,7,9,11,13,15,17,19,21,23,25,27,29,31,-1,-1,-1,-1,-1,-1,-1,-1,-1,-1,-1,-1,-1,-1,-1,-1],"loss_changes":[1.5250526E4,2.9921875E0,0E0,3.8811035E0,1.1208496E1,4.569092E0,5.895508E0,3.1618958E0,3.0461426E0,1.9143143E1,3.8174667E0,3.4824219E0,5.797497E0,6.5386047E0,6.2782745E0,4.3515472E0,1.3380127E1,0E0,0E0,0E0,0E0,0E0,0E0,0E0,0E0,0E0,0E0,0E0,0E0,0E0,0E0,0E0,0E0],"parents":[2147483647,0,0,1,1,3,3,4,4,5,5,6,6,7,7,8,8,9,9,10,10,11,11,12,12,13,13,14,14,15,15,16,16],"right_children":[2,4,-1,6,8,10,12,14,16,18,20,22,24,26,28,30,32,-1,-1,-1,-1,-1,-1,-1,-1,-1,-1,-1,-1,-1,-1,-1,-1],"split_conditions":[1E0,2.967E1,5.5925824E-2,4.9E-1,3.003E1,2.915E1,1E0,7.3E-1,3.9E-1,2.9E1,3.5E-1,9.7E-1,2.33E1,2.992E1,8.2E-1,1E0,4E-1,-2.3498524E-2,1.709348E-2,-1.3418321E-3,-3.988255E-2,-2.0165564E-2,-2.328508E-2,-4.3053463E-2,-1.3870298E-2,-2.6057428E-2,-4.0567633E-2,-1.6121369E-2,-2.724487E-2,-1.4632742E-2,-2.1322524E-2,-3.5733856E-2,-2.1271197E-2],"split_indices":[6,0,0,1,0,0,3,1,1,0,1,1,0,0,1,3,1,0,0,0,0,0,0,0,0,0,0,0,0,0,0,0,0],"split_type":[0,0,0,0,0,0,0,0,0,0,0,0,0,0,0,0,0,0,0,0,0,0,0,0,0,0,0,0,0,0,0,0,0],"sum_hessian":[3.79701E4,2.9789533E4,8.1805693E3,1.2215241E4,1.7574291E4,1.2251876E3,1.0990054E4,1.0800906E3,1.6494201E4,1.1561433E3,6.9044334E1,1.047755E4,5.1250415E2,4.077284E2,6.7236224E2,1.0276674E3,1.5466533E4,1.1270082E3,2.9135128E1,7.2362933E0,6.180804E1,9.437395E3,1.0401549E3,1.6901857E1,4.956023E2,2.9548822E2,1.1224018E2,1.782967E2,4.9406552E2,4.310018E2,5.966656E2,1.6284865E2,1.5303685E4],"tree_param":{"num_deleted":"0","num_feature":"7","num_nodes":"33","size_leaf_vector":"1"}},{"base_weights":[-8.783995E-2,-4.084677E-1,5.4671403E-2,-4.042162E-1,-4.3347716E-1,-3.926587E-1,-4.2120573E-1,-5.150905E-1,-4.1039118E-1,-4.390322E-1,-3.825194E-1,-4.7938523E-1,-3.9873204E-1,-1.8327269E-1,-5.4427403E-1,-3.9370027E-1,-5.46612E-1,-2.368251E-2,-1.7071651E-2,-1.5647879E-2,-1.9647473E-2,-2.2876116E-2,-3.019443E-2,-1.2681036E-2,-2.0259371E-2,1.4327968E-2,-2.2873035E-2,-2.7413178E-2,7.137012E-2,-2.0321919E-2,-1.3961812E-2,-3.398204E-2,-2.0462817E-2],"categories":[],"categories_nodes":[],"categories_segments":[],"categories_sizes":[],"default_left":[0,0,0,0,0,0,0,0,0,0,0,0,0,0,0,0,0,0,0,0,0,0,0,0,0,0,0,0,0,0,0,0,0],"id":25,"left_children":[1,3,-1,5,7,9,11,13,15,17,19,21,23,25,27,29,31,-1,-1,-1,-1,-1,-1,-1,-1,-1,-1,-1,-1,-1,-1,-1,-1],"loss_changes":[1.4116132E4,2.9414062E0,0E0,4.756836E0,7.7873535E0,6.854248E0,1.30616455E1,8.927063E0,7.3201294E0,8.868591E0,8.774048E0,7.3980103E0,6.751709E0,1.003303E1,7.518387E0,4.1965027E0,6.2849274E0,0E0,0E0,0E0,0E0,0E0,0E0,0E0,0E0,0E0,0E0,0E0,0E0,0E0,0E0,0E0,0E0],"parents":[2147483647,0,0,1,1,3,3,4,4,5,5,6,6,7,7,8,8,9,9,10,10,11,11,12,12,13,13,14,14,15,15,16,16],"right_children":[2,4,-1,6,8,10,12,14,16,18,20,22,24,26,28,30,32,-1,-1,-1,-1,-1,-1,-1,-1,-1,-1,-1,-1,-1,-1,-1,-1],"split_conditions":[1E0,3.915E1,5.4671403E-2,6.8E-1,4.016E1,4.9E-1,7.6E-1,3.8E-1,6E-1,3.528E1,5.5E-1,3.257E1,7.7E-1,3.955E1,6.6E-1,4.357E1,4.166E1,-2.368251E-2,-1.7071651E-2,-1.5647879E-2,-1.9647473E-2,-2.2876116E-2,-3.019443E-2,-1.2681036E-2,-2.0259371E-2,1.4327968E-2,-2.2873035E-2,-2.7413178E-2,7.137012E-2,-2.0321919E-2,-1.3961812E-2,-3.398204E-2,-2.0462817E-2],"split_indices":[6,0,0,1,0,1,1,1,1,0,1,0,1,0,1,0,0,0,0,0,0,0,0,0,0,0,0,0,0,0,0,0,0],"split_type":[0,0,0,0,0,0,0,0,0,0,0,0,0,0,0,0,0,0,0,0,0,0,0,0,0,0,0,0,0,0,0,0,0],"sum_hessian":[3.72684E4,2.931278E4,7.9556187E3,2.5068414E4,4.244365E3,1.4933605E4,1.0134809E4,9.311742E2,3.313191E3,2.6717422E3,1.2261863E4,2.8183594E3,7.3164487E3,7.58651E1,8.553091E2,2.955009E3,3.5818198E2,1.9693641E3,7.023781E2,1.6028579E3,1.0659006E4,2.4013538E3,4.1700568E2,3.133299E2,7.003119E3,2.7941357E1,4.792374E1,8.5430237E2,1.0066835E0,2.6567974E3,2.9821164E2,1.7995135E2,1.782306E2],"tree_param":{"num_deleted":"0","num_feature":"7","num_nodes":"33","size_leaf_vector":"1"}},{"base_weights":[-8.496338E-2,-3.9434385E-1,5.347227E-2,-3.8204014E-1,-4.0288338E-1,-3.945282E-1,-3.5569426E-1,-4.9781206E-1,-3.9590994E-1,-3.8212866E-1,-4.7014722E-1,-2.9896384E-1,-3.6958644E-1,-1.8281866E-2,-5.051622E-1,-2.1820736E-1,-3.9707085E-1,-1.8649807E-2,-2.6115669E-2,-2.764205E-2,-1.6369425E-2,-1.6323114E-2,-8.264844E-3,-2.2784775E-2,-1.7422944E-2,-4.508337E-2,1.7021647E-2,-3.359918E-2,-2.3867931E-2,-2.9562628E-2,2.9649417E-4,-1.8895155E-2,-2.0372769E-2],"categories":[],"categories_nodes":[],"categories_segments":[],"categories_sizes":[],"default_left":[0,0,0,0,0,0,0,0,0,0,0,0,0,0,0,0,0,0,0,0,0,0,0,0,0,0,0,0,0,0,0,0,0],"id":26,"left_children":[1,3,-1,5,7,9,11,13,15,17,19,21,23,25,27,29,31,-1,-1,-1,-1,-1,-1,-1,-1,-1,-1,-1,-1,-1,-1,-1,-1],"loss_changes":[1.3069009E4,2.8779297E0,0E0,3.7561035E0,1.1067627E1,7.345093E0,2.8988342E0,4.081421E0,3.1848145E0,8.638855E0,1.3113998E1,2.7261505E0,5.4138184E0,6.187844E0,4.9809265E0,8.794716E0,2.9816895E0,0E0,0E0,0E0,0E0,0E0,0E0,0E0,0E0,0E0,0E0,0E0,0E0,0E0,0E0,0E0,0E0],"parents":[2147483647,0,0,1,1,3,3,4,4,5,5,6,6,7,7,8,8,9,9,10,10,11,11,12,12,13,13,14,14,15,15,16,16],"right_children":[2,4,-1,6,8,10,12,14,16,18,20,22,24,26,28,30,32,-1,-1,-1,-1,-1,-1,-1,-1,-1,-1,-1,-1,-1,-1,-1,-1],"split_conditions":[1E0,2.967E1,5.347227E-2,2.846E1,3.007E1,2.799E1,2.871E1,3.8E-1,3.01E1,9.7E-1,8.5E-1,2.867E1,2.892E1,3.5E-1,6E-1,7.6E-1,5.9E-1,-1.8649807E-2,-2.6115669E-2,-2.764205E-2,-1.6369425E-2,-1.6323114E-2,-8.264844E-3,-2.2784775E-2,-1.7422944E-2,-4.508337E-2,1.7021647E-2,-3.359918E-2,-2.3867931E-2,-2.9562628E-2,2.9649417E-4,-1.8895155E-2,-2.0372769E-2],"split_indices":[6,0,0,0,0,0,0,1,0,1,1,0,0,1,1,1,1,0,0,0,0,0,0,0,0,0,0,0,0,0,0,0,0],"split_type":[0,0,0,0,0,0,0,0,0,0,0,0,0,0,0,0,0,0,0,0,0,0,0,0,0,0,0,0,0,0,0,0,0],"sum_hessian":[3.659016E4,2.8857133E4,7.7330264E3,1.1841603E4,1.7015531E4,8.0241494E3,3.817453E3,1.1596049E3,1.5855926E4,6.898955E3,1.1251943E3,7.5536176E2,3.0620913E3,1.7558514E1,1.1420464E3,1.0414124E2,1.5751784E4,6.4804395E3,4.1851544E2,7.1066516E2,4.145292E2,6.252838E2,1.300779E2,5.992352E2,2.462856E3,4.6337204E0,1.2924793E1,1.5983981E2,9.8220654E2,3.8472023E1,6.566922E1,5.5482095E3,1.0203575E4],"tree_param":{"num_deleted":"0","num_feature":"7","num_nodes":"33","size_leaf_vector":"1"}},{"base_weights":[-8.215322E-2,-3.8053605E-1,5.232193E-2,-3.7627676E-1,-4.0562427E-1,-3.648128E-1,-3.9315084E-1,-4.8735908E-1,-3.826053E-1,-4.115046E-1,-3.5462263E-1,-4.6829957E-1,-3.7585664E-1,-1.5931834E-1,-5.166668E-1,-3.6603516E-1,-5.187825E-1,-2.2304079E-2,-1.572838E-2,-1.4303875E-2,-1.8246917E-2,-2.1344772E-2,-2.7685339E-2,-1.873364E-2,-5.2186728E-2,1.4597072E-2,-2.1524303E-2,-2.6393866E-2,1.3298457E-2,-1.5446678E-2,-1.9569715E-2,-3.268214E-2,-1.9053997E-2],"categories":[],"categories_nodes":[],"categories_segments":[],"categories_sizes":[],"default_left":[0,0,0,0,0,0,0,0,0,0,0,0,0,0,0,0,0,0,0,0,0,0,0,0,0,0,0,0,0,0,0,0,0],"id":27,"left_children":[1,3,-1,5,7,9,11,13,15,17,19,21,23,25,27,29,31,-1,-1,-1,-1,-1,-1,-1,-1,-1,-1,-1,-1,-1,-1,-1,-1],"loss_changes":[1.2101884E4,2.8842773E0,0E0,4.559326E0,7.550537E0,6.748535E0,1.2588989E1,8.570206E0,7.0606995E0,8.539459E0,8.310913E0,6.24704E0,5.9261475E0,9.334682E0,7.3851013E0,4.032196E0,6.1796417E0,0E0,0E0,0E0,0E0,0E0,0E0,0E0,0E0,0E0,0E0,0E0,0E0,0E0,0E0,0E0,0E0],"parents":[2147483647,0,0,1,1,3,3,4,4,5,5,6,6,7,7,8,8,9,9,10,10,11,11,12,12,13,13,14,14,15,15,16,16],"right_children":[2,4,-1,6,8,10,12,14,16,18,20,22,24,26,28,30,32,-1,-1,-1,-1,-1,-1,-1,-1,-1,-1,-1,-1,-1,-1,-1,-1],"split_conditions":[1E0,3.915E1,5.232193E-2,6.8E-1,4.016E1,4.9E-1,7.3E-1,3.8E-1,6E-1,3.528E1,5.5E-1,3.128E1,3.424E1,3.955E1,6.3E-1,4.8E-1,4.166E1,-2.2304079E-2,-1.572838E-2,-1.4303875E-2,-1.8246917E-2,-2.1344772E-2,-2.7685339E-2,-1.873364E-2,-5.2186728E-2,1.4597072E-2,-2.1524303E-2,-2.6393866E-2,1.3298457E-2,-1.5446678E-2,-1.9569715E-2,-3.268214E-2,-1.9053997E-2],"split_indices":[6,0,0,1,0,1,1,1,1,0,1,0,0,0,1,1,0,0,0,0,0,0,0,0,0,0,0,0,0,0,0,0,0],"split_type":[0,0,0,0,0,0,0,0,0,0,0,0,0,0,0,0,0,0,0,0,0,0,0,0,0,0,0,0,0,0,0,0,0],"sum_hessian":[3.593485E4,2.8421336E4,7.513514E3,2.431012E4,4.1112163E3,1.4489109E4,9.821011E3,8.989803E2,3.2122358E3,2.588609E3,1.19005E4,1.8324343E3,7.988576E3,7.4257225E1,8.247231E2,2.8670579E3,3.45178E2,1.90537E3,6.8323895E2,1.5604526E3,1.0340048E4,1.238181E3,5.942533E2,7.975999E3,1.2577026E1,2.7844162E1,4.6413067E1,8.1339746E2,1.13256445E1,8.857598E2,1.981298E3,1.7249583E2,1.7268217E2],"tree_param":{"num_deleted":"0","num_feature":"7","num_nodes":"33","size_leaf_vector":"1"}},{"base_weights":[-7.9404555E-2,-3.6703482E-1,5.1214695E-2,-3.6285692E-1,-3.9167365E-1,-3.5163704E-1,-3.7939012E-1,-4.7217166E-1,-3.6909723E-1,-3.9740664E-1,-3.4167063E-1,-4.3676722E-1,-3.5735494E-1,-1.5250596E-1,-5.011377E-1,-3.5285977E-1,-5.033443E-1,-2.1569803E-2,-1.51305245E-2,-1.374391E-2,-1.7587682E-2,-2.0754036E-2,-2.8079132E-2,-1.0571039E-2,-1.8194484E-2,-1.4949093E-2,3.2484166E-2,-2.5612285E-2,1.2564045E-2,-1.8279616E-2,-1.1967826E-2,-2.3412561E-2,-5.3295393E-2],"categories":[],"categories_nodes":[],"categories_segments":[],"categories_sizes":[],"default_left":[0,0,0,0,0,0,0,0,0,0,0,0,0,0,0,0,0,0,0,0,0,0,0,0,0,0,0,0,0,0,0,0,0],"id":28,"left_children":[1,3,-1,5,7,9,11,13,15,17,19,21,23,25,27,29,31,-1,-1,-1,-1,-1,-1,-1,-1,-1,-1,-1,-1,-1,-1,-1,-1],"loss_changes":[1.1207888E4,2.741211E0,0E0,4.311035E0,7.182007E0,6.3813477E0,1.2074341E1,8.099777E0,6.723297E0,8.081146E0,7.809326E0,7.0203247E0,6.593689E0,8.98364E0,6.8920593E0,3.9988098E0,6.198395E0,0E0,0E0,0E0,0E0,0E0,0E0,0E0,0E0,0E0,0E0,0E0,0E0,0E0,0E0,0E0,0E0],"parents":[2147483647,0,0,1,1,3,3,4,4,5,5,6,6,7,7,8,8,9,9,10,10,11,11,12,12,13,13,14,14,15,15,16,16],"right_children":[2,4,-1,6,8,10,12,14,16,18,20,22,24,26,28,30,32,-1,-1,-1,-1,-1,-1,-1,-1,-1,-1,-1,-1,-1,-1,-1,-1],"split_conditions":[1E0,3.915E1,5.1214695E-2,6.8E-1,4.016E1,4.9E-1,7.6E-1,3.8E-1,6E-1,3.528E1,5.5E-1,3.257E1,7.7E-1,3.7E-1,6.3E-1,4.357E1,4.428E1,-2.1569803E-2,-1.51305245E-2,-1.374391E-2,-1.7587682E-2,-2.0754036E-2,-2.8079132E-2,-1.0571039E-2,-1.8194484E-2,-1.4949093E-2,3.2484166E-2,-2.5612285E-2,1.2564045E-2,-1.8279616E-2,-1.1967826E-2,-2.3412561E-2,-5.3295393E-2],"split_indices":[6,0,0,1,0,1,1,1,1,0,1,0,1,1,1,0,0,0,0,0,0,0,0,0,0,0,0,0,0,0,0,0,0],"split_type":[0,0,0,0,0,0,0,0,0,0,0,0,0,0,0,0,0,0,0,0,0,0,0,0,0,0,0,0,0,0,0,0,0],"sum_hessian":[3.5303023E4,2.8005336E4,7.297687E3,2.3958518E4,4.0468176E3,1.4285942E4,9.672576E3,8.820139E2,3.1648037E3,2.5475818E3,1.173836E4,2.6787046E3,6.9938716E3,7.380249E1,8.082114E2,2.8265542E3,3.3824963E2,1.8726034E3,6.7497833E2,1.5433154E3,1.0195045E4,2.285864E3,3.9284058E2,3.011817E2,6.69269E3,6.293767E1,1.0864821E1,7.967678E2,1.1443619E1,2.539462E3,2.8709238E2,3.201131E2,1.8136532E1],"tree_param":{"num_deleted":"0","num_feature":"7","num_nodes":"33","size_leaf_vector":"1"}},{"base_weights":[-7.6716214E-2,-3.5384676E-1,5.0145518E-2,-3.4162375E-1,-3.623453E-1,-3.5424674E-1,-3.15056E-1,-4.6550307E-1,-3.5562682E-1,-3.4169313E-1,-4.3113565E-1,-2.9036754E-1,-3.494102E-1,-5.415893E-1,-4.1897032E-1,-3.5762104E-1,-2.625938E-1,-1.6623555E-2,-2.4210218E-2,-2.5775978E-2,-1.4345409E-2,9.87743E-3,-1.4901901E-2,-4.4038218E-2,-1.676255E-2,-2.2714475E-2,-3.840671E-2,-6.2825265E-3,-2.2744812E-2,-1.7791588E-2,-3.731472E-2,1.1671982E-3,-1.9872079E-2],"categories":[],"categories_nodes":[],"categories_segments":[],"categories_sizes":[],"default_left":[0,0,0,0,0,0,0,0,0,0,0,0,0,0,0,0,0,0,0,0,0,0,0,0,0,0,0,0,0,0,0,0,0],"id":29,"left_children":[1,3,-1,5,7,9,11,13,15,17,19,21,23,25,27,29,31,-1,-1,-1,-1,-1,-1,-1,-1,-1,-1,-1,-1,-1,-1,-1,-1],"loss_changes":[1.038101E4,2.7441406E0,0E0,3.6916504E0,1.1109619E1,7.265686E0,3.004303E0,3.2836914E0,2.7407227E0,8.522095E0,1.2924377E1,8.054993E0,1.1187515E1,7.025406E0,6.472954E0,1.0135132E1,1.2517302E1,0E0,0E0,0E0,0E0,0E0,0E0,0E0,0E0,0E0,0E0,0E0,0E0,0E0,0E0,0E0,0E0],"parents":[2147483647,0,0,1,1,3,3,4,4,5,5,6,6,7,7,8,8,9,9,10,10,11,11,12,12,13,13,14,14,15,15,16,16],"right_children":[2,4,-1,6,8,10,12,14,16,18,20,22,24,26,28,30,32,-1,-1,-1,-1,-1,-1,-1,-1,-1,-1,-1,-1,-1,-1,-1,-1],"split_conditions":[1E0,2.967E1,5.0145518E-2,2.846E1,3.003E1,2.799E1,2.919E1,7.3E-1,4.357E1,9.7E-1,8.5E-1,3.8E-1,4.7E-1,2.992E1,7.7E-1,1E0,4.39E1,-1.6623555E-2,-2.4210218E-2,-2.5775978E-2,-1.4345409E-2,9.87743E-3,-1.4901901E-2,-4.4038218E-2,-1.676255E-2,-2.2714475E-2,-3.840671E-2,-6.2825265E-3,-2.2744812E-2,-1.7791588E-2,-3.731472E-2,1.1671982E-3,-1.9872079E-2],"split_indices":[6,0,0,0,0,0,0,1,0,1,1,1,1,0,1,2,0,0,0,0,0,0,0,0,0,0,0,0,0,0,0,0,0],"split_type":[0,0,0,0,0,0,0,0,0,0,0,0,0,0,0,0,0,0,0,0,0,0,0,0,0,0,0,0,0,0,0,0,0],"sum_hessian":[3.469399E4,2.7607947E4,7.086042E3,1.1339787E4,1.626816E4,7.6789873E3,3.6608E3,9.905555E2,1.5277605E4,6.6058906E3,1.0730967E3,2.1355513E3,1.5252489E3,3.718693E2,6.1868616E2,1.4954211E4,3.2339453E2,6.207529E3,3.983615E2,6.7537634E2,3.977203E2,3.2669914E1,2.1028813E3,3.8000362E1,1.4872485E3,2.7059857E2,1.0127071E2,6.799922E1,5.5068695E2,1.4887589E4,6.6621216E1,1.0390216E2,2.1949237E2],"tree_param":{"num_deleted":"0","num_feature":"7","num_nodes":"33","size_leaf_vector":"1"}},{"base_weights":[-7.409136E-2,-3.4098095E-1,4.9109995E-2,-3.368331E-1,-3.6547813E-1,-3.381895E-1,-1.9942033E-1,-3.9291453E-1,-2.990627E-1,-3.27795E-1,-3.5326847E-1,-1.7153446E-1,-4.898721E-2,-4.901393E-1,-3.4150353E-1,-2.2150221E-1,-3.454046E-1,-1.5873577E-2,-1.8589798E-2,-2.0525146E-2,-1.6567705E-2,-2.0722127E-2,-3.746415E-3,-2.4677336E-2,6.301244E-2,-3.617837E-2,-1.6485183E-2,3.1922017E-3,-1.8443894E-2,-3.0180646E-2,-1.5284765E-2],"categories":[],"categories_nodes":[],"categories_segments":[],"categories_sizes":[],"default_left":[0,0,0,0,0,0,0,0,0,0,0,0,0,0,0,0,0,0,0,0,0,0,0,0,0,0,0,0,0,0,0],"id":30,"left_children":[1,3,-1,5,7,9,11,13,15,17,19,21,-1,23,25,27,29,-1,-1,-1,-1,-1,-1,-1,-1,-1,-1,-1,-1,-1,-1],"loss_changes":[9.615899E3,2.6435547E0,0E0,4.275635E0,7.0457764E0,3.5E0,4.84068E0,1.372171E1,4.06913E0,6.0914307E0,1.1655151E1,5.2125454E0,0E0,6.340637E0,7.97052E0,1.8282114E1,7.2000275E0,0E0,0E0,0E0,0E0,0E0,0E0,0E0,0E0,0E0,0E0,0E0,0E0,0E0,0E0],"parents":[2147483647,0,0,1,1,3,3,4,4,5,5,6,6,7,7,8,8,9,9,10,10,11,11,13,13,14,14,15,15,16,16],"right_children":[2,4,-1,6,8,10,12,14,16,18,20,22,-1,24,26,28,30,-1,-1,-1,-1,-1,-1,-1,-1,-1,-1,-1,-1,-1,-1],"split_conditions":[1E0,3.915E1,4.9109995E-2,3.887E1,4.224E1,6.8E-1,6.2E-1,1E0,4.8E-1,1E0,7.6E-1,5.2E-1,-4.898721E-2,6.6E-1,3.928E1,1E0,5.6E-1,-1.5873577E-2,-1.8589798E-2,-2.0525146E-2,-1.6567705E-2,-2.0722127E-2,-3.746415E-3,-2.4677336E-2,6.301244E-2,-3.617837E-2,-1.6485183E-2,3.1922017E-3,-1.8443894E-2,-3.0180646E-2,-1.5284765E-2],"split_indices":[6,0,0,0,0,1,1,3,1,3,1,1,0,1,0,3,1,0,0,0,0,0,0,0,0,0,0,0,0,0,0],"split_type":[0,0,0,0,0,0,0,0,0,0,0,0,0,0,0,0,0,0,0,0,0,0,0,0,0,0,0,0,0,0,0],"sum_hessian":[3.4107254E4,2.7228258E4,6.8789956E3,2.3298168E4,3.9300906E3,2.3068986E4,2.2918094E2,2.7776987E3,1.1523917E3,1.3669076E4,9.39991E3,2.2245119E2,6.729753E0,9.578148E2,1.819884E3,4.331788E2,7.192129E2,1.1078151E4,2.5909253E3,2.5976968E3,6.8022134E3,6.236063E1,1.6009055E2,9.5667053E2,1.1442782E0,5.271526E1,1.7671688E3,1.4772429E2,2.854545E2,9.397075E1,6.252421E2],"tree_param":{"num_deleted":"0","num_feature":"7","num_nodes":"31","size_leaf_vector":"1"}},{"base_weights":[-7.1523055E-2,-3.2842574E-1,9.6208334E-1,-3.1649742E-1,-3.3673158E-1,5.4309428E-2,4.8039995E-2,-3.2904285E-1,-2.9014307E-1,-4.3446442E-1,-3.2962152E-1,-3.1239578E-1,-3.8671798E-1,-2.031395E-1,-2.9993895E-1,6.3798E-2,-4.423097E-1,-1.4812139E-1,-3.3082256E-1,-1.5835583E-2,-4.171234E-3,-2.5225604E-2,-1.7969972E-2,-4.0848E-2,-8.662294E-3,-2.2556167E-3,-1.5159107E-2,-1.8857945E-2,4.2278316E-2,-3.0991985E-2,-2.0656947E-2,-1.9112222E-2,1.1391371E-2,-1.6347667E-2,-1.9294666E-2],"categories":[],"categories_nodes":[],"categories_segments":[],"categories_sizes":[],"default_left":[0,0,0,0,0,0,0,0,0,0,0,0,0,0,0,0,0,0,0,0,0,0,0,0,0,0,0,0,0,0,0,0,0,0,0],"id":31,"left_children":[1,3,5,7,9,-1,-1,11,13,15,17,19,21,23,25,27,29,31,33,-1,-1,-1,-1,-1,-1,-1,-1,-1,-1,-1,-1,-1,-1,-1,-1],"loss_changes":[8.907446E3,2.5551758E0,2.0019531E-2,3.5563965E0,1.0851929E1,0E0,0E0,7.0566406E0,2.9822083E0,4.2104797E0,3.1669922E0,5.711487E0,5.19339E0,6.545623E0,2.6368713E0,6.3374004E0,5.1993713E0,8.783135E0,2.9968262E0,0E0,0E0,0E0,0E0,0E0,0E0,0E0,0E0,0E0,0E0,0E0,0E0,0E0,0E0,0E0,0E0],"parents":[2147483647,0,0,1,1,2,2,3,3,4,4,7,7,8,8,9,9,10,10,11,11,12,12,13,13,14,14,15,15,16,16,17,17,18,18],"right_children":[2,4,6,8,10,-1,-1,12,14,16,18,20,22,24,26,28,30,32,34,-1,-1,-1,-1,-1,-1,-1,-1,-1,-1,-1,-1,-1,-1,-1,-1],"split_conditions":[1E0,2.967E1,4.177E1,2.846E1,3.007E1,5.4309428E-2,4.8039995E-2,2.768E1,2.859E1,3.8E-1,3.01E1,2.763E1,2.784E1,4.8E-1,3.8E-1,2.992E1,6E-1,8.7E-1,8.6E-1,-1.5835583E-2,-4.171234E-3,-2.5225604E-2,-1.7969972E-2,-4.0848E-2,-8.662294E-3,-2.2556167E-3,-1.5159107E-2,-1.8857945E-2,4.2278316E-2,-3.0991985E-2,-2.0656947E-2,-1.9112222E-2,1.1391371E-2,-1.6347667E-2,-1.9294666E-2],"split_indices":[6,0,0,0,0,0,0,0,0,1,0,0,0,1,1,0,1,1,1,0,0,0,0,0,0,0,0,0,0,0,0,0,0,0,0],"split_type":[0,0,0,0,0,0,0,0,0,0,0,0,0,0,0,0,0,0,0,0,0,0,0,0,0,0,0,0,0,0,0,0,0,0,0],"sum_hessian":[3.354293E4,2.6866059E4,6.6768716E3,1.1044181E4,1.5821878E4,5.969265E1,6.617179E3,7.474576E3,3.5696047E3,1.0689019E3,1.4752976E4,5.80536E3,1.6692163E3,3.6343597E2,3.206169E3,1.6458752E1,1.0524431E3,9.779822E1,1.4655178E4,5.6975825E3,1.0777724E2,3.1095425E2,1.3582621E3,1.5655022E1,3.4778094E2,4.0479233E1,3.1656897E3,1.0854066E1,5.604686E0,1.4566916E2,9.06774E2,6.0256554E1,3.7541664E1,1.3699595E4,9.555826E2],"tree_param":{"num_deleted":"0","num_feature":"7","num_nodes":"35","size_leaf_vector":"1"}},{"base_weights":[-6.901254E-2,-3.161926E-1,9.424952E-1,-3.120723E-1,-3.4055954E-1,5.3432453E-2,4.7059774E-2,-3.134109E-1,-1.7733613E-1,-3.0024225E-1,-3.8754195E-1,-3.0320445E-1,-3.2823646E-1,-1.4991355E-1,-4.831382E-2,-3.30915E-1,-2.1906538E-1,-4.467005E-1,-3.165169E-1,-1.4651653E-2,-1.7333232E-2,-2.0124223E-2,-1.5565534E-2,-1.946924E-2,-2.7989836E-3,-2.127582E-2,-1.40687E-2,-5.519218E-3,-1.4207313E-2,-2.2500826E-2,6.0579874E-2,-1.5001746E-2,-4.4165898E-2],"categories":[],"categories_nodes":[],"categories_segments":[],"categories_sizes":[],"default_left":[0,0,0,0,0,0,0,0,0,0,0,0,0,0,0,0,0,0,0,0,0,0,0,0,0,0,0,0,0,0,0,0,0],"id":32,"left_children":[1,3,5,7,9,-1,-1,11,13,15,17,19,21,23,-1,25,27,29,31,-1,-1,-1,-1,-1,-1,-1,-1,-1,-1,-1,-1,-1,-1],"loss_changes":[8.251368E3,2.5561523E0,5.7128906E-2,4.037842E0,7.1288757E0,0E0,0E0,3.3010254E0,4.735527E0,5.0640106E0,7.2663574E0,5.7877197E0,1.1374573E1,4.908691E0,0E0,6.88797E0,3.9909325E0,5.8210754E0,7.2514725E0,0E0,0E0,0E0,0E0,0E0,0E0,0E0,0E0,0E0,0E0,0E0,0E0,0E0,0E0],"parents":[2147483647,0,0,1,1,2,2,3,3,4,4,7,7,8,8,9,9,10,10,11,11,12,12,13,13,15,15,16,16,17,17,18,18],"right_children":[2,4,6,8,10,-1,-1,12,14,16,18,20,22,24,-1,26,28,30,32,-1,-1,-1,-1,-1,-1,-1,-1,-1,-1,-1,-1,-1,-1],"split_conditions":[1E0,3.915E1,4.177E1,3.887E1,5.9E-1,5.3432453E-2,4.7059774E-2,6.8E-1,6.2E-1,4.248E1,4.142E1,1E0,7.3E-1,5.2E-1,-4.831382E-2,1E0,1E0,6.6E-1,4.428E1,-1.4651653E-2,-1.7333232E-2,-2.0124223E-2,-1.5565534E-2,-1.946924E-2,-2.7989836E-3,-2.127582E-2,-1.40687E-2,-5.519218E-3,-1.4207313E-2,-2.2500826E-2,6.0579874E-2,-1.5001746E-2,-4.4165898E-2],"split_indices":[6,0,0,0,1,0,0,1,1,0,0,3,1,1,0,3,3,1,0,0,0,0,0,0,0,0,0,0,0,0,0,0,0],"split_type":[0,0,0,0,0,0,0,0,0,0,0,0,0,0,0,0,0,0,0,0,0,0,0,0,0,0,0,0,0,0,0,0,0],"sum_hessian":[3.300004E4,2.6520072E4,6.479968E3,2.2696125E4,3.8239478E3,5.7705723E1,6.4222617E3,2.2471545E4,2.245806E2,2.061925E3,1.7620227E3,1.3321798E4,9.149746E3,2.1818672E2,6.393879E0,1.4942462E3,5.6767896E2,9.584315E2,8.035911E2,1.0801551E4,2.520248E3,1.6943607E3,7.455385E3,6.0585976E1,1.5760075E2,5.1095636E2,9.832898E2,2.1362856E2,3.5405038E2,9.57246E2,1.1855178E0,7.8237E2,2.1221159E1],"tree_param":{"num_deleted":"0","num_feature":"7","num_nodes":"33","size_leaf_vector":"1"}},{"base_weights":[-6.65616E-2,-3.042772E-1,9.2336994E-1,-3.0025518E-1,-3.2809192E-1,5.258704E-2,4.610264E-2,-3.0155683E-1,-1.6998288E-1,-2.887613E-1,-3.740914E-1,-3.3660436E-1,-2.9742828E-1,-1.433886E-1,-4.7821354E-2,-3.1866056E-1,-2.099916E-1,-4.322226E-1,-3.046754E-1,-1.8611684E-2,-1.1451504E-2,-1.0581776E-2,-1.52046755E-2,-1.8799113E-2,-2.6658594E-3,-2.0567443E-2,-1.3519937E-2,-5.267752E-3,-1.3653991E-2,-2.1776393E-2,5.7455964E-2,-1.4428511E-2,-4.3537617E-2],"categories":[],"categories_nodes":[],"categories_segments":[],"categories_sizes":[],"default_left":[0,0,0,0,0,0,0,0,0,0,0,0,0,0,0,0,0,0,0,0,0,0,0,0,0,0,0,0,0,0,0,0,0],"id":33,"left_children":[1,3,5,7,9,-1,-1,11,13,15,17,19,21,23,-1,25,27,29,31,-1,-1,-1,-1,-1,-1,-1,-1,-1,-1,-1,-1,-1,-1],"loss_changes":[7.643459E3,2.4104004E0,9.423828E-2,3.750122E0,6.7189026E0,0E0,0E0,3.1115723E0,4.5494137E0,4.734253E0,6.873062E0,8.850891E0,1.1295044E1,4.545467E0,0E0,6.490265E0,3.6932507E0,5.4259186E0,6.992424E0,0E0,0E0,0E0,0E0,0E0,0E0,0E0,0E0,0E0,0E0,0E0,0E0,0E0,0E0],"parents":[2147483647,0,0,1,1,2,2,3,3,4,4,7,7,8,8,9,9,10,10,11,11,12,12,13,13,15,15,16,16,17,17,18,18],"right_children":[2,4,6,8,10,-1,-1,12,14,16,18,20,22,24,-1,26,28,30,32,-1,-1,-1,-1,-1,-1,-1,-1,-1,-1,-1,-1,-1,-1],"split_conditions":[1E0,3.915E1,4.177E1,3.887E1,5.9E-1,5.258704E-2,4.610264E-2,4.9E-1,6.2E-1,4.248E1,4.142E1,3.528E1,5.5E-1,5.2E-1,-4.7821354E-2,1E0,1E0,6.6E-1,4.428E1,-1.8611684E-2,-1.1451504E-2,-1.0581776E-2,-1.52046755E-2,-1.8799113E-2,-2.6658594E-3,-2.0567443E-2,-1.3519937E-2,-5.267752E-3,-1.3653991E-2,-2.1776393E-2,5.7455964E-2,-1.4428511E-2,-4.3537617E-2],"split_indices":[6,0,0,0,1,0,0,1,1,0,0,0,1,1,0,3,3,1,0,0,0,0,0,0,0,0,0,0,0,0,0,0,0],"split_type":[0,0,0,0,0,0,0,0,0,0,0,0,0,0,0,0,0,0,0,0,0,0,0,0,0,0,0,0,0,0,0,0,0],"sum_hessian":[3.2478635E4,2.619019E4,6.288446E3,2.241771E4,3.7724775E3,5.5767143E1,6.2326787E3,2.2194635E4,2.2307701E2,2.0375778E3,1.7348998E3,2.3304822E3,1.9864152E4,2.1692387E2,6.153142E0,1.4747495E3,5.6282825E2,9.4135333E2,7.935465E2,1.7488054E3,5.8167664E2,1.4343574E3,1.8429795E4,5.966784E1,1.5725603E2,5.0238342E2,9.72366E2,2.1270721E2,3.5012103E2,9.401129E2,1.2404066E0,7.7306226E2,2.0484226E1],"tree_param":{"num_deleted":"0","num_feature":"7","num_nodes":"33","size_leaf_vector":"1"}},{"base_weights":[-6.416979E-2,-2.9268268E-1,9.0465343E-1,-2.8088492E-1,-3.0091056E-1,5.176955E-2,4.5165896E-2,-2.9348433E-1,-2.5447416E-1,-3.997948E-1,-2.937551E-1,-2.8074628E-1,-3.7201703E-1,-2.2303103E-1,-2.8258586E-1,9.528147E-2,-4.0777692E-1,-1.1418988E-1,-2.9495484E-1,-1.3563714E-2,-2.1414293E-2,-2.2996208E-2,-1.1174023E-2,-1.2231036E-2,2.1986265E-2,-1.8842934E-2,-1.0825699E-2,-4.3324847E-2,2.2943439E-2,-2.9485056E-2,-1.890945E-2,-2.5363538E-2,5.5438583E-3,-1.4553176E-2,-1.7523633E-2],"categories":[],"categories_nodes":[],"categories_segments":[],"categories_sizes":[],"default_left":[0,0,0,0,0,0,0,0,0,0,0,0,0,0,0,0,0,0,0,0,0,0,0,0,0,0,0,0,0,0,0,0,0,0,0],"id":34,"left_children":[1,3,5,7,9,-1,-1,11,13,15,17,19,21,23,25,27,29,31,33,-1,-1,-1,-1,-1,-1,-1,-1,-1,-1,-1,-1,-1,-1,-1,-1],"loss_changes":[7.0800283E3,2.4274902E0,1.3085938E-1,3.4682007E0,1.0659058E1,0E0,0E0,7.0997314E0,2.9831543E0,4.08934E0,3.0267334E0,8.549133E0,1.298082E1,2.3451653E1,1.1228302E1,6.368266E0,5.207657E0,8.542203E0,2.9466553E0,0E0,0E0,0E0,0E0,0E0,0E0,0E0,0E0,0E0,0E0,0E0,0E0,0E0,0E0,0E0,0E0],"parents":[2147483647,0,0,1,1,2,2,3,3,4,4,7,7,8,8,9,9,10,10,11,11,12,12,13,13,14,14,15,15,16,16,17,17,18,18],"right_children":[2,4,6,8,10,-1,-1,12,14,16,18,20,22,24,26,28,30,32,34,-1,-1,-1,-1,-1,-1,-1,-1,-1,-1,-1,-1,-1,-1,-1,-1],"split_conditions":[1E0,2.967E1,4.177E1,2.846E1,3.007E1,5.176955E-2,4.5165896E-2,2.799E1,7.7E-1,3.8E-1,3.01E1,9.7E-1,8.5E-1,7.6E-1,8.9E-1,3.5E-1,6E-1,7.6E-1,8.6E-1,-1.3563714E-2,-2.1414293E-2,-2.2996208E-2,-1.1174023E-2,-1.2231036E-2,2.1986265E-2,-1.8842934E-2,-1.0825699E-2,-4.3324847E-2,2.2943439E-2,-2.9485056E-2,-1.890945E-2,-2.5363538E-2,5.5438583E-3,-1.4553176E-2,-1.7523633E-2],"split_indices":[6,0,0,0,0,0,0,0,1,1,0,1,1,1,1,1,1,1,1,0,0,0,0,0,0,0,0,0,0,0,0,0,0,0,0],"split_type":[0,0,0,0,0,0,0,0,0,0,0,0,0,0,0,0,0,0,0,0,0,0,0,0,0,0,0,0,0,0,0,0,0,0,0],"sum_hessian":[3.1977898E4,2.5875447E4,6.1024517E3,1.0645815E4,1.5229632E4,5.387919E1,6.0485723E3,7.2006045E3,3.4452107E3,1.0239772E3,1.4205655E4,6.1995996E3,1.00100494E3,1.6304618E3,1.8147489E3,1.6074127E1,1.0079031E3,9.491954E1,1.4110735E4,5.828264E3,3.713352E2,6.275256E2,3.734794E2,1.5796351E3,5.0826653E1,7.4585E2,1.0688989E3,4.0301623E0,1.2043964E1,1.3834496E2,8.695581E2,3.410358E1,6.081596E1,1.3192314E4,9.184213E2],"tree_param":{"num_deleted":"0","num_feature":"7","num_nodes":"35","size_leaf_vector":"1"}},{"base_weights":[-6.1839215E-2,-2.8141364E-1,8.8629764E-1,-2.774338E-1,-3.0500945E-1,5.0976735E-2,4.4247147E-2,-2.6673388E-1,-2.9327017E-1,-3.8565302E-1,-2.826906E-1,-3.1354582E-1,-2.565937E-1,-3.5109285E-1,-2.712469E-1,-5.2246846E-2,-4.166066E-1,-2.6653704E-1,-4.1867152E-1,-1.5351138E-2,-4.5424893E-2,-9.511827E-3,-1.3334538E-2,-1.6402908E-2,-2.4239944E-2,-6.273818E-3,-1.3893572E-2,2.0542124E-2,-1.7043835E-2,-2.9932145E-2,-1.7916285E-2,-1.053612E-2,-1.4582892E-2,-2.8312413E-2,-1.3566002E-2],"categories":[],"categories_nodes":[],"categories_segments":[],"categories_sizes":[],"default_left":[0,0,0,0,0,0,0,0,0,0,0,0,0,0,0,0,0,0,0,0,0,0,0,0,0,0,0,0,0,0,0,0,0,0,0],"id":35,"left_children":[1,3,5,7,9,-1,-1,11,13,15,17,19,21,23,25,27,29,31,33,-1,-1,-1,-1,-1,-1,-1,-1,-1,-1,-1,-1,-1,-1,-1,-1],"loss_changes":[6.557729E3,2.3170166E0,1.6699219E-1,3.631958E0,6.5166016E0,0E0,0E0,6.1274414E0,1.1135071E1,8.184883E0,6.229828E0,8.740402E0,7.1552734E0,7.321991E0,6.1363525E0,9.322467E0,7.5038376E0,3.56044E0,6.4740944E0,0E0,0E0,0E0,0E0,0E0,0E0,0E0,0E0,0E0,0E0,0E0,0E0,0E0,0E0,0E0,0E0],"parents":[2147483647,0,0,1,1,2,2,3,3,4,4,7,7,8,8,9,9,10,10,11,11,12,12,13,13,14,14,15,15,16,16,17,17,18,18],"right_children":[2,4,6,8,10,-1,-1,12,14,16,18,20,22,24,26,28,30,32,34,-1,-1,-1,-1,-1,-1,-1,-1,-1,-1,-1,-1,-1,-1,-1,-1],"split_conditions":[1E0,3.915E1,4.177E1,6.8E-1,4.016E1,5.0976735E-2,4.4247147E-2,4.9E-1,7.6E-1,3.8E-1,6E-1,3.902E1,5.5E-1,3.257E1,7.7E-1,3.955E1,5.4E-1,4.8E-1,4.166E1,-1.5351138E-2,-4.5424893E-2,-9.511827E-3,-1.3334538E-2,-1.6402908E-2,-2.4239944E-2,-6.273818E-3,-1.3893572E-2,2.0542124E-2,-1.7043835E-2,-2.9932145E-2,-1.7916285E-2,-1.053612E-2,-1.4582892E-2,-2.8312413E-2,-1.3566002E-2],"split_indices":[6,0,0,1,0,0,0,1,1,1,1,0,1,0,1,0,1,1,0,0,0,0,0,0,0,0,0,0,0,0,0,0,0,0,0],"split_type":[0,0,0,0,0,0,0,0,0,0,0,0,0,0,0,0,0,0,0,0,0,0,0,0,0,0,0,0,0,0,0,0,0,0,0],"sum_hessian":[3.1497086E4,2.5574998E4,5.922087E3,2.189483E4,3.680169E3,5.204357E1,5.8700435E3,1.3077074E4,8.817755E3,7.9421E2,2.885959E3,2.3230168E3,1.0754058E4,2.4280085E3,6.389746E3,6.769911E1,7.265109E2,2.5821748E3,3.0378433E2,2.299323E3,2.3693838E1,1.4228746E3,9.331184E3,2.0741335E3,3.5387494E2,2.7862433E2,6.111122E3,2.5831152E1,4.186796E1,1.7394235E2,5.5256854E2,8.0437146E2,1.7778032E3,1.5035583E2,1.534285E2],"tree_param":{"num_deleted":"0","num_feature":"7","num_nodes":"35","size_leaf_vector":"1"}},{"base_weights":[-5.956813E-2,-2.7046248E-1,8.682596E-1,-2.5760314E-1,-2.775641E-1,5.020563E-2,4.3344256E-2,-2.666231E-1,-1.1821547E-1,-5.127871E-1,-2.7597615E-1,-2.8422117E-1,-2.1474944E-1,7.9289265E-2,-3.394045E-1,-7.781823E-2,-6.569782E-1,-2.6993027E-1,-3.1962323E-1,-1.2909951E-2,-1.8677084E-2,4.6076085E-2,-1.1008331E-2,-2.7439226E-3,9.484973E-3,-4.4582453E-2,-1.1709243E-2,-2.7346894E-2,2.5317168E-2,-2.560023E-2,-3.9497744E-2,-1.3849461E-2,-1.0597757E-2,-1.731199E-2,1.1775034E-3],"categories":[],"categories_nodes":[],"categories_segments":[],"categories_sizes":[],"default_left":[0,0,0,0,0,0,0,0,0,0,0,0,0,0,0,0,0,0,0,0,0,0,0,0,0,0,0,0,0,0,0,0,0,0,0],"id":36,"left_children":[1,3,5,7,9,-1,-1,11,13,15,17,19,21,23,25,27,29,31,33,-1,-1,-1,-1,-1,-1,-1,-1,-1,-1,-1,-1,-1,-1,-1,-1],"loss_changes":[6.073392E3,2.237915E0,2.0361328E-1,1.129834E1,5.939331E0,0E0,0E0,7.6644897E0,2.4032011E1,6.722334E0,4.1813965E0,1.4584015E1,1.3423698E1,4.3225994E0,1.4863817E1,7.9561515E0,1.1565895E0,5.757202E0,1.7930893E1,0E0,0E0,0E0,0E0,0E0,0E0,0E0,0E0,0E0,0E0,0E0,0E0,0E0,0E0,0E0,0E0],"parents":[2147483647,0,0,1,1,2,2,3,3,4,4,7,7,8,8,9,9,10,10,11,11,12,12,13,13,14,14,15,15,16,16,17,17,18,18],"right_children":[2,4,6,8,10,-1,-1,12,14,16,18,20,22,24,26,28,30,32,34,-1,-1,-1,-1,-1,-1,-1,-1,-1,-1,-1,-1,-1,-1,-1,-1],"split_conditions":[1E0,2.919E1,4.177E1,2.9E1,2.923E1,5.020563E-2,4.3344256E-2,8E-1,8.1E-1,6.2E-1,8.5E-1,6.7E-1,2.41E1,6.1E-1,8.5E-1,6E-1,8.6E-1,7.6E-1,3.149E1,-1.2909951E-2,-1.8677084E-2,4.6076085E-2,-1.1008331E-2,-2.7439226E-3,9.484973E-3,-4.4582453E-2,-1.1709243E-2,-2.7346894E-2,2.5317168E-2,-2.560023E-2,-3.9497744E-2,-1.3849461E-2,-1.0597757E-2,-1.731199E-2,1.1775034E-3],"split_indices":[6,0,0,0,0,0,0,1,1,1,1,1,0,1,1,1,1,1,0,0,0,0,0,0,0,0,0,0,0,0,0,0,0,0,0],"split_type":[0,0,0,0,0,0,0,0,0,0,0,0,0,0,0,0,0,0,0,0,0,0,0,0,0,0,0,0,0,0,0,0,0,0,0],"sum_hessian":[3.103618E4,2.5288773E4,5.747406E3,9.010392E3,1.6278383E4,5.0261475E1,5.697144E3,8.461897E3,5.484934E2,1.0699751E2,1.6171385E4,6.315049E3,2.146849E3,2.9009894E2,2.5839447E2,2.702206E1,7.997545E1,1.4210204E4,1.9611808E3,4.89334E3,1.4217087E3,9.384123E0,2.137465E3,1.3118687E2,1.5891206E2,4.0156918E1,2.1823753E2,1.5022079E1,1.1999982E1,4.0582253E1,3.9393196E1,1.2664425E4,1.545779E3,1.8200115E3,1.4116931E2],"tree_param":{"num_deleted":"0","num_feature":"7","num_nodes":"35","size_leaf_vector":"1"}},{"base_weights":[-5.7353605E-2,-2.5982717E-1,8.505022E-1,-2.6087728E-1,-1.7176461E-1,4.9453568E-2,4.245537E-2,-2.5981563E-1,-6.884504E-1,1.2357418E-1,-3.1388348E-1,-2.6113135E-1,-1.7233567E-1,-1.9887199E-1,-9.694007E-1,-4.289994E-2,6.597649E-1,-2.4811697E-1,-7.5031245E-1,-1.2797576E-2,-1.4983654E-2,-2.4158617E-2,-6.0095745E-3,-3.6346704E-2,2.4470711E-2,-5.3082284E-2,-3.532489E-2,9.5595075E-3,-2.0342276E-2,-1.9954039E-2,5.3124435E-2,-2.8220443E-3,-2.2485662E-2,-1.3342448E-2,-5.1505174E-2],"categories":[],"categories_nodes":[],"categories_segments":[],"categories_sizes":[],"default_left":[0,0,0,0,0,0,0,0,0,0,0,0,0,0,0,0,0,0,0,0,0,0,0,0,0,0,0,0,0,0,0,0,0,0,0],"id":37,"left_children":[1,3,5,7,9,-1,-1,11,13,15,17,19,21,23,25,27,29,31,33,-1,-1,-1,-1,-1,-1,-1,-1,-1,-1,-1,-1,-1,-1,-1,-1],"loss_changes":[5.624164E3,2.2685547E0,2.3828125E-1,1.1042236E1,1.253533E1,0E0,0E0,2.793335E0,8.145355E0,8.726099E0,5.5912075E0,4.7731934E0,5.9121714E0,8.846673E0,1.7778015E-1,6.49259E0,1.0294277E1,6.7916727E0,3.223959E0,0E0,0E0,0E0,0E0,0E0,0E0,0E0,0E0,0E0,0E0,0E0,0E0,0E0,0E0,0E0,0E0],"parents":[2147483647,0,0,1,1,2,2,3,3,4,4,7,7,8,8,9,9,10,10,11,11,12,12,13,13,14,14,15,15,16,16,17,17,18,18],"right_children":[2,4,6,8,10,-1,-1,12,14,16,18,20,22,24,26,28,30,32,34,-1,-1,-1,-1,-1,-1,-1,-1,-1,-1,-1,-1,-1,-1,-1,-1],"split_conditions":[1E0,4.357E1,4.177E1,1E0,4.39E1,4.9453568E-2,4.245537E-2,4.273E1,4.286E1,1E0,6E-1,3.915E1,3.5E-1,4.261E1,6E-1,4.8E-1,5.5E-1,1E0,4.428E1,-1.2797576E-2,-1.4983654E-2,-2.4158617E-2,-6.0095745E-3,-3.6346704E-2,2.4470711E-2,-5.3082284E-2,-3.532489E-2,9.5595075E-3,-2.0342276E-2,-1.9954039E-2,5.3124435E-2,-2.8220443E-3,-2.2485662E-2,-1.3342448E-2,-5.1505174E-2],"split_indices":[6,0,0,2,0,0,0,0,0,2,1,0,1,0,1,1,1,3,0,0,0,0,0,0,0,0,0,0,0,0,0,0,0,0,0],"split_type":[0,0,0,0,0,0,0,0,0,0,0,0,0,0,0,0,0,0,0,0,0,0,0,0,0,0,0,0,0,0,0,0,0,0,0],"sum_hessian":[3.0594371E4,2.5015932E4,5.5784375E3,2.4719205E4,2.9672662E2,4.853369E1,5.529904E3,2.4659586E4,5.962021E1,9.6441315E1,2.0028531E2,2.4292242E4,3.6734436E2,2.2361448E1,3.725876E1,7.429464E1,2.2146679E1,1.7541945E2,2.4865854E1,2.1420998E4,2.871244E3,5.1583553E1,3.157608E2,1.26217375E1,9.739711E0,2.533225E1,1.1926508E1,4.5502235E1,2.87924E1,6.1048326E0,1.6041847E1,9.057831E1,8.484114E1,9.831429E0,1.5034426E1],"tree_param":{"num_deleted":"0","num_feature":"7","num_nodes":"35","size_leaf_vector":"1"}},{"base_weights":[-5.519865E-2,-2.4950986E-1,8.329924E-1,-2.47503E-1,-2.9411635E-1,4.871818E-2,4.1578855E-2,-2.5100985E-1,-1.7509809E-1,-3.035584E-1,1.3356586E-1,-2.4329637E-1,-2.7060115E-1,7.7197886E-1,-1.9413824E-1,-3.2488343E-1,2.6714703E-1,-1.235768E-2,-8.481729E-3,-1.289658E-2,-1.9381054E-2,-4.362951E-2,5.7606358E-2,-1.0420633E-2,2.2157937E-2,-1.517219E-2,-3.372455E-2,5.135065E-2,-3.1521835E-3],"categories":[],"categories_nodes":[],"categories_segments":[],"categories_sizes":[],"default_left":[0,0,0,0,0,0,0,0,0,0,0,0,0,0,0,0,0,0,0,0,0,0,0,0,0,0,0,0,0],"id":38,"left_children":[1,3,5,7,9,-1,-1,11,13,15,-1,17,19,21,23,25,27,-1,-1,-1,-1,-1,-1,-1,-1,-1,-1,-1,-1],"loss_changes":[5.207465E3,2.1433105E0,2.734375E-1,5.9731445E0,3.050624E1,0E0,0E0,3.3493652E0,1.9950268E1,1.2964043E1,0E0,4.5683594E0,9.352386E0,1.4659907E1,9.891674E0,7.443886E0,9.764866E0,0E0,0E0,0E0,0E0,0E0,0E0,0E0,0E0,0E0,0E0,0E0,0E0],"parents":[2147483647,0,0,1,1,2,2,3,3,4,4,7,7,8,8,9,9,11,11,12,12,13,13,14,14,15,15,16,16],"right_children":[2,4,6,8,10,-1,-1,12,14,16,-1,18,20,22,24,26,28,-1,-1,-1,-1,-1,-1,-1,-1,-1,-1,-1,-1],"split_conditions":[1E0,9.7E-1,4.177E1,9.2E-1,3.191E1,4.871818E-2,4.1578855E-2,6.8E-1,2.6E1,3.079E1,1.3356586E-1,6.6E-1,3.218E1,9.3E-1,3.155E1,3.021E1,3.091E1,-1.235768E-2,-8.481729E-3,-1.289658E-2,-1.9381054E-2,-4.362951E-2,5.7606358E-2,-1.0420633E-2,2.2157937E-2,-1.517219E-2,-3.372455E-2,5.135065E-2,-3.1521835E-3],"split_indices":[6,1,0,1,0,0,0,1,0,0,0,1,0,1,0,0,0,0,0,0,0,0,0,0,0,0,0,0,0],"split_type":[0,0,0,0,0,0,0,0,0,0,0,0,0,0,0,0,0,0,0,0,0,0,0,0,0,0,0,0,0],"sum_hessian":[3.0171049E4,2.4755879E4,5.415171E3,2.3696324E4,1.0595546E3,4.686068E1,5.36831E3,2.2599283E4,1.0970402E3,1.0570864E3,2.468175E0,1.6224704E4,6.37458E3,2.0841028E1,1.0761992E3,1.0194252E3,3.7661194E1,1.5415147E4,8.09556E2,5.754728E3,6.198521E2,3.669766E0,1.7171263E1,1.0532804E3,2.2918768E1,9.622813E2,5.714389E1,1.0768757E1,2.6892437E1],"tree_param":{"num_deleted":"0","num_feature":"7","num_nodes":"29","size_leaf_vector":"1"}},{"base_weights":[-5.309221E-2,-2.3949726E-1,8.157018E-1,-2.2822659E-1,-2.4737902E-1,4.799726E-2,4.071329E-2,-2.3367083E-1,-1.6003388E-1,-3.5532016E-1,-2.4046719E-1,-2.2947009E-1,-4.293875E-1,-8.430374E-1,-1.4118178E-1,-4.3942443E-1,-3.0462572E-1,-1.8607047E-1,-2.4411277E-1,-1.1882749E-2,-8.664616E-3,-4.1246124E-2,-1.750353E-2,1.3766008E-3,-5.1532306E-2,3.729139E-2,-8.156539E-3,-1.7043194E-2,-3.4996312E-2,-5.790446E-3,-1.868976E-2,-4.848148E-3,-1.2526765E-2,-2.9261386E-2,-1.2024028E-2],"categories":[],"categories_nodes":[],"categories_segments":[],"categories_sizes":[],"default_left":[0,0,0,0,0,0,0,0,0,0,0,0,0,0,0,0,0,0,0,0,0,0,0,0,0,0,0,0,0,0,0,0,0,0,0],"id":39,"left_children":[1,3,5,7,9,-1,-1,11,13,15,17,19,21,23,25,27,29,31,33,-1,-1,-1,-1,-1,-1,-1,-1,-1,-1,-1,-1,-1,-1,-1,-1],"loss_changes":[4.8207915E3,2.1208496E0,3.076172E-1,3.711975E0,1.0666016E1,0E0,0E0,7.588745E0,9.535795E0,3.5547943E0,2.6411133E0,4.168762E0,5.838974E0,3.285019E0,1.4351297E1,8.057106E0,7.049103E0,4.8874435E0,1.5585388E1,0E0,0E0,0E0,0E0,0E0,0E0,0E0,0E0,0E0,0E0,0E0,0E0,0E0,0E0,0E0,0E0],"parents":[2147483647,0,0,1,1,2,2,3,3,4,4,7,7,8,8,9,9,10,10,11,11,12,12,13,13,14,14,15,15,16,16,17,17,18,18],"right_children":[2,4,6,8,10,-1,-1,12,14,16,18,20,22,24,26,28,30,32,34,-1,-1,-1,-1,-1,-1,-1,-1,-1,-1,-1,-1,-1,-1,-1,-1],"split_conditions":[1E0,2.967E1,4.177E1,2.941E1,3.003E1,4.799726E-2,4.071329E-2,2.934E1,4.7E-1,7.3E-1,3.9E-1,2.892E1,6E-1,3.5E-1,5.1E-1,2.992E1,8.2E-1,1E0,4E-1,-1.1882749E-2,-8.664616E-3,-4.1246124E-2,-1.750353E-2,1.3766008E-3,-5.1532306E-2,3.729139E-2,-8.156539E-3,-1.7043194E-2,-3.4996312E-2,-5.790446E-3,-1.868976E-2,-4.848148E-3,-1.2526765E-2,-2.9261386E-2,-1.2024028E-2],"split_indices":[6,0,0,0,0,0,0,0,1,1,1,0,1,1,1,0,1,3,1,0,0,0,0,0,0,0,0,0,0,0,0,0,0,0,0],"split_type":[0,0,0,0,0,0,0,0,0,0,0,0,0,0,0,0,0,0,0,0,0,0,0,0,0,0,0,0,0,0,0,0,0,0,0],"sum_hessian":[2.9765398E4,2.450782E4,5.2575776E3,1.0097992E4,1.4409829E4,4.524251E1,5.2123354E3,9.349164E3,7.488275E2,8.641483E2,1.3545681E4,9.154843E3,1.9432173E2,1.8939484E1,7.29888E2,3.221009E2,5.420474E2,8.5406274E2,1.2691617E4,7.987816E3,1.1670269E3,3.0888365E1,1.6343336E2,3.509133E0,1.543035E1,1.6828516E1,7.130595E2,2.3536087E2,8.674002E1,1.4604695E2,3.9600046E2,3.5955975E2,4.94503E2,1.320306E2,1.2559587E4],"tree_param":{"num_deleted":"0","num_feature":"7","num_nodes":"35","size_leaf_vector":"1"}},{"base_weights":[-5.1055435E-2,-2.2981013E-1,7.986047E-1,-2.3084031E-1,-1.4388803E-1,4.7288842E-2,3.9857414E-2,-2.29785E-1,-6.631809E-1,1.4322558E-1,-2.845077E-1,-2.3108268E-1,-1.4390337E-1,-1.7139909E-1,-9.545398E-1,-1.79971E-2,6.478467E-1,-2.191646E-1,-7.274482E-1,-1.1297083E-2,-1.3470917E-2,-2.2679279E-2,-4.636546E-3,-3.5531234E-2,2.5429538E-2,-5.257657E-2,-3.4144226E-2,1.035554E-2,-1.8857177E-2,-7.896563E-3,5.611517E-2,-1.6220898E-3,-2.0961551E-2,-1.198306E-2,-5.096156E-2],"categories":[],"categories_nodes":[],"categories_segments":[],"categories_sizes":[],"default_left":[0,0,0,0,0,0,0,0,0,0,0,0,0,0,0,0,0,0,0,0,0,0,0,0,0,0,0,0,0,0,0,0,0,0,0],"id":40,"left_children":[1,3,5,7,9,-1,-1,11,13,15,17,19,21,23,25,27,29,31,33,-1,-1,-1,-1,-1,-1,-1,-1,-1,-1,-1,-1,-1,-1,-1,-1],"loss_changes":[4.462148E3,2.1152344E0,3.4057617E-1,1.0790283E1,1.1758329E1,0E0,0E0,2.6331787E0,8.12817E0,7.828293E0,5.4887667E0,4.5842285E0,5.6439095E0,8.7025385E0,2.336464E-1,6.0436296E0,9.081514E0,6.3928127E0,3.2650204E0,0E0,0E0,0E0,0E0,0E0,0E0,0E0,0E0,0E0,0E0,0E0,0E0,0E0,0E0,0E0,0E0],"parents":[2147483647,0,0,1,1,2,2,3,3,4,4,7,7,8,8,9,9,10,10,11,11,12,12,13,13,14,14,15,15,16,16,17,17,18,18],"right_children":[2,4,6,8,10,-1,-1,12,14,16,18,20,22,24,26,28,30,32,34,-1,-1,-1,-1,-1,-1,-1,-1,-1,-1,-1,-1,-1,-1,-1,-1],"split_conditions":[1E0,4.357E1,4.177E1,1E0,4.39E1,4.7288842E-2,3.9857414E-2,4.273E1,4.286E1,1E0,6E-1,3.915E1,3.5E-1,5.9E-1,6E-1,4.8E-1,5.8E-1,1E0,4.428E1,-1.1297083E-2,-1.3470917E-2,-2.2679279E-2,-4.636546E-3,-3.5531234E-2,2.5429538E-2,-5.257657E-2,-3.4144226E-2,1.035554E-2,-1.8857177E-2,-7.896563E-3,5.611517E-2,-1.6220898E-3,-2.0961551E-2,-1.198306E-2,-5.096156E-2],"split_indices":[6,0,0,2,0,0,0,0,0,2,1,0,1,1,1,1,1,3,0,0,0,0,0,0,0,0,0,0,0,0,0,0,0,0,0],"split_type":[0,0,0,0,0,0,0,0,0,0,0,0,0,0,0,0,0,0,0,0,0,0,0,0,0,0,0,0,0,0,0,0,0,0,0],"sum_hessian":[2.9377078E4,2.4271482E4,5.105596E3,2.3982256E4,2.8922717E2,4.3679047E1,5.061917E3,2.3925387E4,5.686913E1,9.507893E1,1.9414824E2,2.3567586E4,3.5779984E2,2.1748434E1,3.5120697E1,7.278803E1,2.22909E1,1.7049187E2,2.3656368E1,2.0786857E4,2.7807285E3,4.9624084E1,3.0817575E2,1.210457E1,9.643864E0,2.3764868E1,1.1355827E1,4.5003685E1,2.7784348E1,8.508278E0,1.3782622E1,8.878791E1,8.1703964E1,9.535987E0,1.4120381E1],"tree_param":{"num_deleted":"0","num_feature":"7","num_nodes":"35","size_leaf_vector":"1"}},{"base_weights":[-4.907424E-2,-2.204288E-1,7.816811E-1,-2.1843459E-1,-2.648517E-1,4.659114E-2,3.901021E-2,-2.2189154E-1,-1.473163E-1,-2.743021E-1,1.2154597E-1,-2.1413672E-1,-2.4160492E-1,7.457073E-1,-1.6601369E-1,-2.955169E-1,2.798175E-1,-1.08968625E-2,-7.0916177E-3,-1.1639463E-2,-2.0438582E-2,-4.2841E-2,5.4521598E-2,-9.003758E-3,2.2233559E-2,-1.3709827E-2,-3.24291E-2,4.9029347E-2,-1.9289948E-3],"categories":[],"categories_nodes":[],"categories_segments":[],"categories_sizes":[],"default_left":[0,0,0,0,0,0,0,0,0,0,0,0,0,0,0,0,0,0,0,0,0,0,0,0,0,0,0,0,0],"id":41,"left_children":[1,3,5,7,9,-1,-1,11,13,15,-1,17,19,21,23,25,27,-1,-1,-1,-1,-1,-1,-1,-1,-1,-1,-1,-1],"loss_changes":[4.1293647E3,2.0725098E0,3.7304688E-1,5.626831E0,2.686747E1,0E0,0E0,3.303833E0,1.7990965E1,1.21408615E1,0E0,4.300598E0,9.026062E0,1.315785E1,9.087486E0,7.2623672E0,8.591653E0,0E0,0E0,0E0,0E0,0E0,0E0,0E0,0E0,0E0,0E0,0E0,0E0],"parents":[2147483647,0,0,1,1,2,2,3,3,4,4,7,7,8,8,9,9,11,11,12,12,13,13,14,14,15,15,16,16],"right_children":[2,4,6,8,10,-1,-1,12,14,16,-1,18,20,22,24,26,28,-1,-1,-1,-1,-1,-1,-1,-1,-1,-1,-1,-1],"split_conditions":[1E0,9.7E-1,4.177E1,9.2E-1,3.191E1,4.659114E-2,3.901021E-2,6.8E-1,2.6E1,3.079E1,1.2154597E-1,6.6E-1,3.293E1,9.3E-1,3.155E1,3.021E1,3.091E1,-1.08968625E-2,-7.0916177E-3,-1.1639463E-2,-2.0438582E-2,-4.2841E-2,5.4521598E-2,-9.003758E-3,2.2233559E-2,-1.3709827E-2,-3.24291E-2,4.9029347E-2,-1.9289948E-3],"split_indices":[6,1,0,1,0,0,0,1,0,0,0,1,0,1,0,0,0,0,0,0,0,0,0,0,0,0,0,0,0],"split_type":[0,0,0,0,0,0,0,0,0,0,0,0,0,0,0,0,0,0,0,0,0,0,0,0,0,0,0,0,0],"sum_hessian":[2.9005566E4,2.4046404E4,4.959162E3,2.3018967E4,1.0274379E3,4.216986E1,4.916992E3,2.1949896E4,1.06907E3,1.0247438E3,2.694143E0,1.5761527E4,6.1883696E3,2.1126846E1,1.0479431E3,9.87407E2,3.7336773E1,1.4972515E4,7.890122E2,5.880642E3,3.0772754E2,3.477131E0,1.7649715E1,1.0250458E3,2.2897327E1,9.32852E2,5.4555035E1,1.10146265E1,2.6322147E1],"tree_param":{"num_deleted":"0","num_feature":"7","num_nodes":"29","size_leaf_vector":"1"}},{"base_weights":[-4.7141496E-2,-2.1134336E-1,7.649122E-1,-2.0753305E-1,-2.3402978E-1,4.5902554E-2,3.8170766E-2,-2.0893306E-1,-6.846711E-2,-1.9313323E-1,-2.8222138E-1,-2.0442273E-1,-2.4459678E-1,-4.0367726E-2,-4.6325695E-2,-2.8677672E-1,-1.6840458E-1,-3.4227154E-1,-2.1144211E-1,-1.0568357E-2,-4.2691883E-3,7.3961727E-3,-1.3588676E-2,-1.3960485E-2,2.4683932E-3,1.1677823E-3,-1.7405886E-2,5.3827325E-4,-9.055437E-3,-1.7293444E-2,5.9811957E-2,-9.775674E-3,-4.058243E-2],"categories":[],"categories_nodes":[],"categories_segments":[],"categories_sizes":[],"default_left":[0,0,0,0,0,0,0,0,0,0,0,0,0,0,0,0,0,0,0,0,0,0,0,0,0,0,0,0,0,0,0,0,0],"id":42,"left_children":[1,3,5,7,9,-1,-1,11,13,15,17,19,21,23,-1,25,27,29,31,-1,-1,-1,-1,-1,-1,-1,-1,-1,-1,-1,-1,-1,-1],"loss_changes":[3.820502E3,2.0115967E0,4.0405273E-1,3.960266E0,6.6846924E0,0E0,0E0,3.2009277E0,4.9041824E0,4.2423553E0,6.590126E0,1.4818359E1,2.419049E1,4.289624E0,0E0,7.3447266E0,3.3439064E0,5.098358E0,6.7450066E0,0E0,0E0,0E0,0E0,0E0,0E0,0E0,0E0,0E0,0E0,0E0,0E0,0E0,0E0],"parents":[2147483647,0,0,1,1,2,2,3,3,4,4,7,7,8,8,9,9,10,10,11,11,12,12,13,13,15,15,16,16,17,17,18,18],"right_children":[2,4,6,8,10,-1,-1,12,14,16,18,20,22,24,-1,26,28,30,32,-1,-1,-1,-1,-1,-1,-1,-1,-1,-1,-1,-1,-1,-1],"split_conditions":[1E0,3.915E1,4.177E1,3.887E1,5.9E-1,4.5902554E-2,3.8170766E-2,1E0,6.2E-1,4.016E1,4.142E1,3.616E1,2.644E1,5.2E-1,-4.6325695E-2,3.8E-1,4.04E1,6.6E-1,4.428E1,-1.0568357E-2,-4.2691883E-3,7.3961727E-3,-1.3588676E-2,-1.3960485E-2,2.4683932E-3,1.1677823E-3,-1.7405886E-2,5.3827325E-4,-9.055437E-3,-1.7293444E-2,5.9811957E-2,-9.775674E-3,-4.058243E-2],"split_indices":[6,0,0,0,1,0,0,3,1,0,0,0,0,1,0,1,0,1,0,0,0,0,0,0,0,0,0,0,0,0,0,0,0],"split_type":[0,0,0,0,0,0,0,0,0,0,0,0,0,0,0,0,0,0,0,0,0,0,0,0,0,0,0,0,0,0,0,0,0],"sum_hessian":[2.8649963E4,2.3831781E4,4.8181816E3,2.0413375E4,3.4184048E3,4.07144E1,4.7774673E3,2.020942E4,2.0395496E2,1.8518706E3,1.5665342E3,1.7946492E4,2.2629294E3,1.9850145E2,5.4534945E0,3.846531E2,1.4672175E3,8.4542645E2,7.211078E2,1.6956518E4,9.8997437E2,1.4624428E2,2.116685E3,5.3634735E1,1.4486671E2,6.3619602E1,3.210335E2,9.715575E1,1.3700618E3,8.4422766E2,1.198788E0,7.037568E2,1.7350986E1],"tree_param":{"num_deleted":"0","num_feature":"7","num_nodes":"33","size_leaf_vector":"1"}},{"base_weights":[-4.5272987E-2,-2.0256732E-1,7.482829E-1,-2.0358348E-1,-1.1818798E-1,4.5221616E-2,3.7338324E-2,-2.0253624E-1,-6.396682E-1,1.5777518E-1,-2.560555E-1,-2.0379771E-1,-1.19492956E-1,-1.4782529E-1,-9.4070345E-1,2.415832E-3,6.310349E-1,-1.9298036E-1,-6.988665E-1,-9.94397E-3,-1.2029957E-2,-2.1334762E-2,-3.4738951E-3,-3.461721E-2,2.6207676E-2,-5.2122947E-2,-3.303244E-2,1.0903164E-2,-1.7518545E-2,-1.769676E-2,4.8511676E-2,-5.0429645E-4,-1.9600643E-2,-1.0780922E-2,-5.024729E-2],"categories":[],"categories_nodes":[],"categories_segments":[],"categories_sizes":[],"default_left":[0,0,0,0,0,0,0,0,0,0,0,0,0,0,0,0,0,0,0,0,0,0,0,0,0,0,0,0,0,0,0,0,0,0,0],"id":43,"left_children":[1,3,5,7,9,-1,-1,11,13,15,17,19,21,23,25,27,29,31,33,-1,-1,-1,-1,-1,-1,-1,-1,-1,-1,-1,-1,-1,-1,-1,-1],"loss_changes":[3.5339785E3,2.001892E0,4.3359375E-1,1.0532349E1,1.0828373E1,0E0,0E0,2.4154663E0,8.073507E0,6.9894624E0,5.156971E0,4.1046753E0,5.3623695E0,8.502766E0,2.8650856E-1,5.5986776E0,8.193177E0,6.083319E0,3.2210245E0,0E0,0E0,0E0,0E0,0E0,0E0,0E0,0E0,0E0,0E0,0E0,0E0,0E0,0E0,0E0,0E0],"parents":[2147483647,0,0,1,1,2,2,3,3,4,4,7,7,8,8,9,9,10,10,11,11,12,12,13,13,14,14,15,15,16,16,17,17,18,18],"right_children":[2,4,6,8,10,-1,-1,12,14,16,18,20,22,24,26,28,30,32,34,-1,-1,-1,-1,-1,-1,-1,-1,-1,-1,-1,-1,-1,-1,-1,-1],"split_conditions":[1E0,4.357E1,4.177E1,1E0,4.39E1,4.5221616E-2,3.7338324E-2,4.273E1,4.286E1,1E0,6E-1,